%YAML:1.0
---
opencv_ml_svm:
   format: 3
   svmType: C_SVC
   kernel:
      type: RBF
      gamma: 5.0624999999999998e-01
   C: 1.2500000000000000e+01
   term_criteria: { epsilon:1.1920928955078125e-07, iterations:1000 }
   var_count: 81
   class_count: 2
   class_labels: !!opencv-matrix
      rows: 2
      cols: 1
      dt: i
      data: [ 0, 1 ]
   sv_total: 451
   support_vectors:
      - [ 4.17894900e-01, 4.17894900e-01, 8.33395049e-02, 9.95633528e-02,
          1.35023847e-01, 2.95896888e-01, 4.17894900e-01, 4.17894900e-01,
          4.17894900e-01, 4.53113943e-01, 4.53113943e-01, 5.90639338e-02,
          2.94281632e-01, 2.86993057e-01, 1.74885496e-01, 3.22890610e-01,
          2.68772483e-01, 4.53113943e-01, 5.99647582e-01, 1.56794429e-01,
          1.79802671e-01, 2.78308123e-01, 2.73799926e-01, 1.18005306e-01,
          7.89497644e-02, 2.12989375e-01, 5.99647582e-01, 3.39419425e-01,
          3.26134413e-01, 2.90185839e-01, 3.39419425e-01, 3.39419425e-01,
          3.39419425e-01, 3.39419425e-01, 3.39419425e-01, 3.38827491e-01,
          3.75297815e-01, 3.75297815e-01, 3.75297815e-01, 1.31690815e-01,
          1.98214471e-01, 3.75297815e-01, 3.56368899e-01, 3.59703660e-01,
          3.46178710e-01, 4.64578629e-01, 1.62263006e-01, 4.97870408e-02,
          3.81794609e-02, 4.64578629e-01, 4.64578629e-01, 2.67936140e-01,
          1.73121169e-01, 4.64578629e-01, 1.51351720e-01, 2.02958405e-01,
          3.93141478e-01, 3.93141478e-01, 3.21890473e-01, 2.35708386e-01,
          3.93141478e-01, 3.93141478e-01, 3.93141478e-01, 3.77183199e-01,
          3.77183199e-01, 3.77183199e-01, 3.77183199e-01, 1.38815671e-01,
          3.77183199e-01, 2.18296155e-01, 2.75146663e-01, 3.77183199e-01,
          4.32546586e-01, 2.08400488e-01, 3.92257571e-02, 1.08500943e-01,
          3.76116246e-01, 4.32546586e-01, 2.21557185e-01, 4.32546586e-01,
          4.32546586e-01 ]
      - [ 4.83624548e-01, 4.83624548e-01, 6.16066083e-02, 6.00657426e-02,
          1.08380288e-01, 1.16110943e-01, 1.83586478e-01, 4.76609141e-01,
          4.83624548e-01, 6.56437814e-01, 3.41005951e-01, 3.53354216e-02,
          5.20465663e-03, 8.06641579e-03, 1.25321271e-02, 9.23976954e-03,
          1.17290094e-01, 6.56437814e-01, 7.02799678e-01, 5.82593754e-02,
          3.09110852e-03, 0., 0., 0., 2.03452799e-02, 3.62218842e-02,
          7.02799678e-01, 4.40148503e-01, 3.14235955e-01, 8.94714594e-02,
          3.28921348e-01, 4.40148503e-01, 4.40148503e-01, 5.38207255e-02,
          5.33404872e-02, 4.40148503e-01, 3.70649904e-01, 3.34930956e-01,
          1.97593510e-01, 1.92575410e-01, 3.70649904e-01, 3.70649904e-01,
          3.47970009e-01, 3.70649904e-01, 3.70649904e-01, 3.97189140e-01,
          3.97189140e-01, 3.97189140e-01, 2.96285391e-01, 9.75310951e-02,
          2.27801219e-01, 3.97189140e-01, 2.40925878e-01, 3.97189140e-01,
          8.98517668e-02, 8.83463770e-03, 1.22083269e-01, 5.66530466e-01,
          5.66530466e-01, 5.66530466e-01, 1.50611922e-02, 8.98790453e-03,
          9.00502056e-02, 2.32164040e-02, 4.39617932e-01, 4.39617932e-01,
          4.39617932e-01, 4.39617932e-01, 4.39617932e-01, 6.54520392e-02,
          1.09064214e-01, 1.12120934e-01, 2.69258041e-02, 5.34615993e-01,
          5.34615993e-01, 5.34615993e-01, 3.07982415e-01, 9.82882082e-02,
          1.50367394e-01, 9.62102786e-02, 1.06127039e-02 ]
      - [ 3.70037496e-01, 1.79123923e-01, 2.24680111e-01, 3.70037496e-01,
          3.70037496e-01, 3.03595245e-01, 3.70037496e-01, 3.70037496e-01,
          3.70037496e-01, 3.73323917e-01, 3.09904873e-01, 3.73323917e-01,
          3.73323917e-01, 3.73323917e-01, 2.47216567e-01, 2.47266367e-01,
          2.84813553e-01, 3.73323917e-01, 3.50027174e-01, 2.48525932e-01,
          3.50027174e-01, 3.50027174e-01, 3.50027174e-01, 3.50027174e-01,
          2.78440326e-01, 3.49420130e-01, 3.50027174e-01, 4.22601849e-01,
          2.38794059e-01, 1.92238819e-02, 1.37773886e-01, 4.22601849e-01,
          4.22601849e-01, 4.22601849e-01, 1.62613109e-01, 4.22601849e-01,
          3.90226752e-01, 3.90226752e-01, 2.60028601e-01, 3.57193381e-01,
          3.13165367e-01, 2.25684285e-01, 2.37907559e-01, 3.72106105e-01,
          3.90226752e-01, 4.08222407e-01, 4.08222407e-01, 4.08222407e-01,
          2.10088730e-01, 4.08222407e-01, 2.23872811e-01, 1.77168772e-01,
          1.92481607e-01, 4.08222407e-01, 4.64778662e-01, 1.09840453e-01,
          1.08277887e-01, 3.93224269e-01, 4.64778662e-01, 1.19777173e-01,
          2.73673445e-01, 2.82208860e-01, 4.64778662e-01, 4.17493314e-01,
          3.29342663e-01, 3.34589362e-01, 2.17308491e-01, 2.26172835e-01,
          1.16938256e-01, 4.10633266e-01, 3.82282734e-01, 4.17493314e-01,
          4.55841929e-01, 4.55841929e-01, 4.55841929e-01, 3.23891610e-01,
          5.76157756e-02, 2.23014072e-01, 6.57344013e-02, 4.46939617e-02,
          4.55841929e-01 ]
      - [ 3.14779937e-01, 1.69407241e-02, 5.47967516e-02, 4.32052046e-01,
          4.32052046e-01, 4.32052046e-01, 7.61531964e-02, 3.75277162e-01,
          4.32052046e-01, 3.53954673e-01, 4.79561230e-03, 1.37463873e-02,
          7.53465593e-02, 4.15854037e-01, 4.15854037e-01, 4.15854037e-01,
          4.15854037e-01, 4.15854037e-01, 4.26489741e-01, 1.14289522e-01,
          1.80552267e-02, 5.57547323e-02, 4.26489741e-01, 4.26489741e-01,
          4.26489741e-01, 4.26489741e-01, 2.64150500e-01, 4.36482161e-01,
          5.60215265e-02, 1.37874568e-02, 7.91292638e-02, 4.36482161e-01,
          4.36482161e-01, 1.82939246e-01, 4.36482161e-01, 4.36482161e-01,
          4.34554100e-01, 1.88050106e-01, 8.61430075e-03, 7.07832500e-02,
          4.34554100e-01, 4.34554100e-01, 1.05002776e-01, 4.34554100e-01,
          4.34554100e-01, 4.95344639e-01, 1.52842272e-02, 2.93753259e-02,
          9.11433473e-02, 3.49373907e-01, 4.26942527e-01, 1.93125919e-01,
          3.91505778e-01, 4.95344639e-01, 5.92493892e-01, 2.89432965e-02,
          1.19312597e-03, 5.43873478e-03, 1.05958186e-01, 9.67037380e-02,
          1.45251274e-01, 4.99440253e-01, 5.92493892e-01, 5.03161788e-01,
          2.42624566e-01, 2.48122886e-02, 2.24804908e-01, 2.94532299e-01,
          1.02557302e-01, 1.67846799e-01, 5.03161788e-01, 5.03161788e-01,
          3.66480768e-01, 7.01551326e-03, 4.63561388e-03, 3.10598332e-02,
          5.75956702e-02, 8.90981127e-03, 2.83535540e-01, 6.22355819e-01,
          6.22355819e-01 ]
      - [ 3.58207822e-01, 2.44489852e-02, 5.81655651e-02, 4.25168186e-01,
          4.25168186e-01, 4.25168186e-01, 1.17271394e-01, 3.55857342e-01,
          4.25168186e-01, 2.82712847e-01, 2.42381487e-02, 1.30164586e-02,
          6.34142160e-02, 4.26856250e-01, 4.26856250e-01, 4.26856250e-01,
          4.26856250e-01, 4.26856250e-01, 3.71233463e-01, 1.62663013e-01,
          6.17711209e-02, 3.91328186e-02, 4.12572771e-01, 4.12572771e-01,
          4.12572771e-01, 4.12572771e-01, 3.81304145e-01, 4.10355657e-01,
          2.76872516e-02, 0., 7.08337650e-02, 4.10355657e-01,
          3.84912878e-01, 4.10355657e-01, 4.10355657e-01, 4.10355657e-01,
          4.37328398e-01, 1.55840978e-01, 0., 5.02601713e-02,
          4.37328398e-01, 4.37328398e-01, 1.11974582e-01, 4.37328398e-01,
          4.37328398e-01, 4.74470049e-01, 1.09018842e-02, 0.,
          1.12737091e-02, 3.97870451e-01, 4.27592874e-01, 1.24559619e-01,
          4.33727801e-01, 4.74470049e-01, 5.86470127e-01, 2.13050116e-02,
          0., 1.86557451e-03, 8.70453343e-02, 1.15418263e-01,
          2.00092927e-01, 4.94829953e-01, 5.86470127e-01, 5.03587782e-01,
          2.09884912e-01, 1.20437630e-02, 2.04002380e-01, 3.22205693e-01,
          9.26441625e-02, 1.89618751e-01, 5.03587782e-01, 5.03587782e-01,
          4.28395063e-01, 4.67585726e-03, 3.74533259e-03, 3.14345583e-02,
          2.41808221e-02, 9.35303792e-03, 2.84940451e-01, 6.03145123e-01,
          6.03145123e-01 ]
      - [ 2.80179650e-01, 2.20372044e-02, 2.27001756e-02, 2.54123211e-01,
          4.86519575e-01, 4.86519575e-01, 1.10882819e-01, 3.58694345e-01,
          4.86519575e-01, 2.49448359e-01, 3.19468342e-02, 1.06398501e-02,
          6.54082522e-02, 4.30827111e-01, 4.30827111e-01, 4.30827111e-01,
          4.30827111e-01, 4.30827111e-01, 3.27069521e-01, 1.37356192e-01,
          5.09698167e-02, 9.12156701e-02, 4.43860143e-01, 4.43860143e-01,
          4.43860143e-01, 3.85180920e-01, 3.45553547e-01, 2.79919982e-01,
          0., 0., 1.08262962e-02, 4.53627318e-01, 1.60920769e-01,
          2.89782852e-01, 5.47909021e-01, 5.47909021e-01, 4.43741530e-01,
          0., 5.27859898e-03, 5.04260622e-02, 4.43741530e-01,
          4.43741530e-01, 9.20012072e-02, 4.43741530e-01, 4.43741530e-01,
          4.88888949e-01, 3.82971615e-02, 6.78723380e-02, 9.87905562e-02,
          2.10087806e-01, 4.88888949e-01, 1.19866125e-01, 4.51378196e-01,
          4.88888949e-01, 5.31331182e-01, 9.62160848e-05, 0.,
          1.83369091e-03, 9.66007933e-02, 2.50102669e-01, 2.00434029e-01,
          5.47793984e-01, 5.47793984e-01, 4.92458075e-01, 0., 0., 0.,
          3.01438030e-02, 6.58083707e-02, 3.57299447e-01, 5.56339443e-01,
          5.56339443e-01, 2.99683779e-01, 0., 5.43323439e-03,
          3.81157845e-02, 1.16044292e-02, 7.91619439e-03, 2.96820533e-02,
          6.71166360e-01, 6.71166360e-01 ]
      - [ 4.73743647e-01, 3.29816699e-01, 6.46866113e-02, 2.89683312e-01,
          3.40572089e-01, 6.31647110e-02, 7.14847818e-02, 4.73743647e-01,
          4.73743647e-01, 3.87136370e-01, 1.42927483e-01, 3.87136370e-01,
          3.87136370e-01, 3.87136370e-01, 2.53572047e-01, 1.10263191e-01,
          3.87136370e-01, 3.87136370e-01, 2.30786994e-01, 4.48770970e-01,
          4.48770970e-01, 4.48770970e-01, 2.40913406e-01, 3.38217556e-01,
          2.75650501e-01, 2.43714377e-01, 1.73949495e-01, 3.68355572e-01,
          3.68355572e-01, 2.67695099e-01, 3.48400652e-01, 3.68355572e-01,
          2.92157650e-01, 1.98723614e-01, 3.68355572e-01, 3.68355572e-01,
          2.09824264e-01, 1.55393615e-01, 3.36758584e-01, 2.91173875e-01,
          1.16929822e-01, 4.73925173e-02, 4.87459630e-01, 4.87459630e-01,
          4.87459630e-01, 2.18020886e-01, 4.24379885e-01, 4.24379885e-01,
          4.24379885e-01, 4.52405028e-02, 7.95083866e-02, 3.61526728e-01,
          4.24379885e-01, 2.97933728e-01, 3.33722234e-01, 3.33722234e-01,
          3.33722234e-01, 3.25117290e-01, 3.33722234e-01, 3.33722234e-01,
          3.33722234e-01, 3.33722234e-01, 3.33722234e-01, 2.96862125e-01,
          2.23188967e-01, 2.55793691e-01, 1.35457978e-01, 5.20039387e-02,
          4.58340019e-01, 4.94473070e-01, 4.94473070e-01, 2.67496645e-01,
          4.83607501e-02, 1.78400680e-01, 4.98582751e-01, 4.98582751e-01,
          8.42986330e-02, 3.05762500e-01, 4.98582751e-01, 3.30226839e-01,
          7.38500804e-02 ]
      - [ 2.23602474e-01, 2.26590335e-02, 9.83165950e-03, 3.63606781e-01,
          4.67417628e-01, 4.67417628e-01, 1.85620174e-01, 3.50172371e-01,
          4.67417628e-01, 2.10283399e-01, 6.23454852e-03, 5.51692024e-03,
          1.25465482e-01, 4.64818209e-01, 4.64818209e-01, 2.66652137e-01,
          4.64818209e-01, 4.64818209e-01, 3.17622453e-01, 5.41817993e-02,
          5.04456423e-02, 4.12433296e-02, 4.31424141e-01, 4.31424141e-01,
          4.31424141e-01, 4.19530720e-01, 3.91456932e-01, 2.45649874e-01,
          0., 0., 1.68138165e-02, 2.75083631e-01, 2.05018476e-01,
          4.80319768e-01, 5.41091144e-01, 5.41091144e-01, 4.61939245e-01,
          0., 0., 3.99262533e-02, 4.61939245e-01, 3.46424878e-01,
          1.42232940e-01, 4.61939245e-01, 4.61939245e-01, 4.64716434e-01,
          1.67042073e-02, 2.93594673e-02, 2.23654658e-02, 2.36702055e-01,
          4.64716434e-01, 2.71741927e-01, 4.64716434e-01, 4.64716434e-01,
          4.52275902e-01, 0., 0., 8.69542942e-04, 1.08918622e-01,
          2.96022028e-01, 2.83297986e-01, 5.52349448e-01, 5.52349448e-01,
          4.91908193e-01, 0., 0., 2.30855569e-02, 1.18338419e-02,
          8.11694264e-02, 3.99980694e-01, 5.41007161e-01, 5.41007161e-01,
          2.44945750e-01, 1.72366752e-04, 0., 3.15880636e-03,
          1.66203675e-03, 4.13315333e-02, 7.12918118e-02, 6.80589378e-01,
          6.80589378e-01 ]
      - [ 2.80542612e-01, 5.43119252e-01, 5.43119252e-01, 5.43119252e-01,
          1.56890199e-01, 4.24067974e-02, 3.16816494e-02, 5.76153435e-02,
          1.41531043e-02, 4.07793105e-01, 4.07793105e-01, 4.07793105e-01,
          4.07793105e-01, 3.65086913e-01, 1.34815320e-01, 1.42011821e-01,
          1.10769957e-01, 3.83202970e-01, 3.99255037e-01, 3.99255037e-01,
          7.10500330e-02, 3.99255037e-01, 3.99255037e-01, 2.10248798e-01,
          1.92326501e-01, 3.35776925e-01, 3.99255037e-01, 3.61551821e-01,
          4.81025040e-01, 4.81025040e-01, 4.81025040e-01, 3.82414252e-01,
          1.26680151e-01, 4.44884188e-02, 5.99181801e-02, 4.96246293e-02,
          3.13125312e-01, 4.07961339e-01, 4.07961339e-01, 4.07961339e-01,
          4.07961339e-01, 4.07961339e-01, 6.32338449e-02, 1.77947238e-01,
          1.73352629e-01, 3.50627601e-01, 3.50627601e-01, 3.50627601e-01,
          3.50627601e-01, 3.50627601e-01, 2.39195809e-01, 2.80542821e-01,
          3.50627601e-01, 3.50627601e-01, 2.08864957e-01, 4.81109768e-01,
          4.81109768e-01, 4.81109768e-01, 4.81109768e-01, 1.50316373e-01,
          1.58561748e-02, 1.25347273e-02, 5.19639738e-02, 7.48019218e-02,
          2.78231531e-01, 4.83904809e-01, 4.83904809e-01, 4.83904809e-01,
          4.51911926e-01, 5.56177311e-02, 3.30599882e-02, 3.54473144e-02,
          1.39626876e-01, 1.59633532e-01, 5.30655086e-01, 5.30655086e-01,
          5.30655086e-01, 1.16435282e-01, 1.12842552e-01, 8.12210813e-02,
          2.68421143e-01 ]
      - [ 3.66527766e-01, 3.43589783e-01, 1.83238655e-01, 3.66527766e-01,
          3.66527766e-01, 3.66527766e-01, 3.66527766e-01, 1.96601808e-01,
          3.66527766e-01, 4.30720091e-01, 2.10796654e-01, 9.53797176e-02,
          1.19189754e-01, 4.30720091e-01, 4.30720091e-01, 4.30720091e-01,
          1.89676490e-02, 4.30720091e-01, 3.92774820e-01, 1.51026800e-01,
          2.77490377e-01, 4.56006736e-01, 4.56006736e-01, 4.56006736e-01,
          7.66484663e-02, 4.13064398e-02, 3.31595510e-01, 3.94275665e-01,
          3.94275665e-01, 4.87171486e-02, 1.02485068e-01, 3.94275665e-01,
          3.94275665e-01, 2.24643484e-01, 3.94275665e-01, 3.94275665e-01,
          4.20178801e-01, 4.20178801e-01, 9.48068574e-02, 1.50130540e-01,
          4.20178801e-01, 4.20178801e-01, 1.96015127e-02, 2.84850448e-01,
          4.20178801e-01, 4.81250018e-01, 4.76788310e-03, 3.69721605e-03,
          2.33815789e-01, 3.93504411e-01, 2.59476900e-01, 1.53324306e-01,
          4.81250018e-01, 4.81250018e-01, 4.95467424e-01, 4.30422187e-01,
          7.37332702e-02, 9.30743590e-02, 1.26270786e-01, 1.64821535e-01,
          1.26942664e-01, 4.95467424e-01, 4.95467424e-01, 4.01743233e-01,
          3.29571903e-01, 1.10174455e-01, 4.01743233e-01, 4.01743233e-01,
          3.57413262e-01, 4.21656705e-02, 3.16414028e-01, 4.01743233e-01,
          4.20576900e-01, 6.38651103e-02, 3.99031974e-02, 1.86988488e-01,
          4.20576900e-01, 3.89456004e-01, 3.09753388e-01, 4.20576900e-01,
          4.20576900e-01 ]
      - [ 3.61063451e-01, 3.61063451e-01, 2.29091614e-01, 2.35278904e-01,
          3.61063451e-01, 3.26117396e-01, 3.61063451e-01, 3.61063451e-01,
          3.61063451e-01, 1.01145647e-01, 2.02559829e-01, 3.50815743e-01,
          6.14946336e-02, 5.62468842e-02, 3.37251946e-02, 5.47099531e-01,
          5.47099531e-01, 4.62045074e-01, 2.32112646e-01, 4.64577734e-01,
          4.64577734e-01, 2.78578877e-01, 3.61417478e-04, 8.90196785e-02,
          3.55427384e-01, 4.64577734e-01, 2.86577344e-01, 3.57291192e-01,
          3.57291192e-01, 3.57291192e-01, 2.29120776e-01, 3.57291192e-01,
          3.57291192e-01, 3.57291192e-01, 3.57291192e-01, 2.24355131e-01,
          1.40277252e-01, 2.78601289e-01, 4.12877023e-01, 1.07274964e-01,
          5.39225638e-02, 3.57707232e-01, 5.38863003e-01, 5.38863003e-01,
          6.11410961e-02, 1.26387268e-01, 4.45763201e-01, 4.45763201e-01,
          4.45763201e-01, 3.22587937e-01, 6.67800829e-02, 4.32755858e-01,
          2.42459223e-01, 1.69918880e-01, 3.71427447e-01, 3.71427447e-01,
          3.71427447e-01, 2.58795559e-01, 1.97487772e-01, 2.50125021e-01,
          3.71427447e-01, 3.71427447e-01, 3.71427447e-01, 1.50408223e-01,
          1.99282363e-01, 3.43233496e-01, 5.59176840e-02, 4.67219800e-02,
          4.67298776e-01, 5.39827645e-01, 5.39827645e-01, 8.92079175e-02,
          9.09270197e-02, 2.19393730e-01, 5.07607579e-01, 5.07607579e-01,
          2.63256013e-01, 1.79523334e-01, 5.07607579e-01, 2.49037519e-01,
          4.45060208e-02 ]
      - [ 5.93685567e-01, 5.93685567e-01, 1.71338916e-01, 5.31240329e-02,
          0., 0., 0., 0., 5.06919980e-01, 7.00902522e-01, 9.17720273e-02,
          4.41809110e-02, 1.00313062e-02, 6.04401430e-05, 1.19536533e-04,
          0., 7.04900522e-05, 7.00902522e-01, 6.94211602e-01,
          1.67542830e-01, 3.21297124e-02, 1.02140903e-02, 1.65454368e-03,
          7.21785589e-04, 0., 4.97511610e-05, 6.94211602e-01,
          4.98256296e-01, 4.98256296e-01, 4.98256296e-01, 4.98256296e-01,
          0., 0., 0., 0., 4.45685461e-02, 4.68815804e-01, 4.68815804e-01,
          4.68815804e-01, 3.40821296e-01, 2.14095949e-03, 0., 0.,
          7.34811591e-04, 4.68815804e-01, 6.88078105e-01, 1.03672773e-01,
          1.44408464e-01, 9.95081589e-02, 6.72108531e-02, 1.39614772e-02,
          1.99014158e-03, 2.88408902e-03, 6.88078105e-01, 4.06514764e-01,
          7.73667276e-01, 4.76853788e-01, 3.25762331e-02, 1.41494884e-03,
          1.38013298e-03, 2.22006324e-03, 8.96170910e-04, 1.66669826e-03,
          5.86117208e-01, 5.86117208e-01, 4.20221061e-01, 1.72097147e-01,
          2.22353965e-01, 1.89599022e-01, 8.20686817e-02, 2.18365826e-02,
          9.09740999e-02, 4.20241654e-01, 1.38187885e-01, 2.81589121e-01,
          4.20241654e-01, 4.20241654e-01, 4.20241654e-01, 1.01557635e-01,
          6.39111549e-02, 4.20241654e-01 ]
      - [ 3.25835586e-01, 2.69897431e-01, 3.08866024e-01, 3.59068751e-01,
          2.78117061e-01, 3.59068751e-01, 3.59068751e-01, 3.59068751e-01,
          3.59068751e-01, 3.66296262e-01, 1.46152675e-01, 2.65953988e-01,
          3.19386691e-01, 3.66296262e-01, 3.62458020e-01, 3.66296262e-01,
          3.66296262e-01, 3.66296262e-01, 3.50182474e-01, 3.50182474e-01,
          2.25870833e-01, 2.95108646e-01, 3.50182474e-01, 3.50182474e-01,
          3.50182474e-01, 3.50182474e-01, 3.50182474e-01, 2.14048594e-01,
          1.85774431e-01, 3.09359699e-01, 4.11496937e-01, 4.11496937e-01,
          4.11496937e-01, 3.64678591e-01, 1.54276535e-01, 3.93796802e-01,
          3.44170779e-01, 1.18418336e-01, 2.35671431e-01, 4.15889174e-01,
          4.15889174e-01, 4.15889174e-01, 1.77982762e-01, 2.90335864e-01,
          4.15889174e-01, 1.91818073e-01, 2.84243584e-01, 3.29552680e-01,
          1.74574628e-01, 3.84574592e-01, 3.84574592e-01, 3.84574592e-01,
          3.84574592e-01, 3.84574592e-01, 4.50985283e-01, 1.20345891e-01,
          3.06515433e-02, 2.36638486e-01, 4.50985283e-01, 2.89676845e-01,
          1.63128912e-01, 4.50985283e-01, 4.50985283e-01, 3.60469103e-01,
          3.28796148e-01, 1.91657156e-01, 3.60469103e-01, 3.60469103e-01,
          3.60469103e-01, 2.68200487e-01, 3.60469103e-01, 3.60469103e-01,
          2.28551179e-01, 3.59263927e-01, 3.59263927e-01, 3.59263927e-01,
          3.59263927e-01, 2.59848565e-01, 3.19734603e-01, 3.59263927e-01,
          3.59263927e-01 ]
      - [ 3.32778692e-01, 3.32778692e-01, 3.32778692e-01, 3.32778692e-01,
          3.32778692e-01, 3.32778692e-01, 3.32778692e-01, 3.32778692e-01,
          3.32778692e-01, 4.19302523e-01, 1.32797927e-01, 1.59357801e-01,
          2.78989762e-01, 2.71576822e-01, 3.12943399e-01, 4.19302523e-01,
          4.19302523e-01, 4.19302523e-01, 3.75737906e-01, 2.69117117e-01,
          2.32256547e-01, 3.17320019e-01, 3.75737906e-01, 2.51579314e-01,
          3.75737906e-01, 3.75737906e-01, 3.75737906e-01, 1.07000254e-01,
          1.64781839e-01, 3.49420488e-01, 4.36845839e-01, 4.36845839e-01,
          4.36845839e-01, 2.58742869e-01, 2.61665851e-01, 3.56398463e-01,
          3.06383640e-01, 2.06418067e-01, 1.76360756e-01, 4.42879498e-01,
          4.42879498e-01, 4.42879498e-01, 2.50949621e-01, 2.82890230e-01,
          3.10748041e-01, 2.69282430e-01, 3.38420630e-01, 3.24438512e-01,
          3.28142971e-01, 3.45418334e-01, 3.45418334e-01, 3.45418334e-01,
          3.45418334e-01, 3.45418334e-01, 4.75091785e-01, 5.49686961e-02,
          3.49576473e-02, 1.12873964e-01, 3.83137643e-01, 2.14640319e-01,
          3.29042464e-01, 4.75091785e-01, 4.75091785e-01, 3.37415874e-01,
          3.37415874e-01, 3.37415874e-01, 2.92972475e-01, 3.37415874e-01,
          3.37415874e-01, 3.37415874e-01, 3.37415874e-01, 3.37415874e-01,
          3.07864100e-01, 3.73372227e-01, 3.73372227e-01, 3.73372227e-01,
          3.73372227e-01, 3.05108517e-01, 3.41501981e-01, 3.12191606e-01,
          1.91530362e-01 ]
      - [ 2.69374371e-01, 3.56610864e-01, 3.56610864e-01, 1.83508635e-01,
          3.56610864e-01, 3.56610864e-01, 3.56610864e-01, 3.56610864e-01,
          3.56610864e-01, 2.08667085e-01, 2.59165317e-01, 1.46020874e-01,
          3.18987854e-02, 1.08053498e-01, 5.05911350e-01, 5.05911350e-01,
          5.05911350e-01, 2.87027031e-01, 4.87452716e-01, 9.90308300e-02,
          6.58757091e-02, 3.34387496e-02, 2.31646731e-01, 3.63621533e-01,
          4.19938743e-01, 3.77381682e-01, 4.87452716e-01, 2.81917959e-01,
          4.42281723e-01, 9.02916566e-02, 2.77918488e-01, 4.55015391e-01,
          4.55015391e-01, 4.55015391e-01, 1.08525530e-01, 4.55850512e-02,
          4.04899508e-01, 4.04899508e-01, 1.21283658e-01, 5.74526638e-02,
          4.04899508e-01, 4.04899508e-01, 4.04899508e-01, 3.74829501e-01,
          1.33151934e-01, 3.83938670e-01, 3.83938670e-01, 2.86363512e-01,
          1.27168953e-01, 1.16339564e-01, 3.83938670e-01, 3.83938670e-01,
          3.83938670e-01, 3.83938670e-01, 4.07250747e-02, 7.63108358e-02,
          3.85969430e-01, 4.89994377e-01, 4.89994377e-01, 4.89994377e-01,
          3.43441874e-01, 2.03963295e-02, 0., 6.72535002e-02,
          1.48065835e-01, 7.98326507e-02, 4.37153786e-01, 4.37153786e-01,
          4.37153786e-01, 4.37153786e-01, 4.37153786e-01, 8.54183808e-02,
          9.75068808e-02, 1.58643663e-01, 3.87963027e-01, 3.87963027e-01,
          3.87963027e-01, 2.41571650e-01, 3.87963027e-01, 3.87963027e-01,
          3.87963027e-01 ]
      - [ 3.48239928e-01, 3.48239928e-01, 3.48239928e-01, 3.48239928e-01,
          3.48239928e-01, 3.48239928e-01, 1.62333891e-01, 3.48239928e-01,
          3.48239928e-01, 4.17857260e-01, 1.35011852e-01, 7.50914216e-02,
          2.07574040e-01, 2.36322418e-01, 4.17857260e-01, 4.17857260e-01,
          4.17857260e-01, 4.17857260e-01, 3.28606367e-01, 1.01129770e-01,
          8.28930512e-02, 3.91049922e-01, 3.69433880e-01, 1.92836583e-01,
          4.25862998e-01, 4.25862998e-01, 4.25862998e-01, 1.26895100e-01,
          5.78627363e-02, 4.19799417e-01, 4.19799417e-01, 4.19799417e-01,
          4.19799417e-01, 1.48084119e-01, 3.87997955e-01, 3.14576536e-01,
          1.51395828e-01, 1.67385787e-01, 1.24174237e-01, 5.12484729e-01,
          5.12484729e-01, 5.12484729e-01, 1.98558986e-01, 2.16320142e-01,
          2.33199418e-01, 1.98351666e-01, 1.76826239e-01, 2.49164879e-01,
          3.79367024e-01, 3.79367024e-01, 3.79367024e-01, 3.79367024e-01,
          3.79367024e-01, 3.79367024e-01, 5.09358644e-01, 5.67928553e-02,
          3.35469544e-02, 1.11747347e-01, 1.92689911e-01, 1.37849435e-01,
          3.78951132e-01, 5.09358644e-01, 5.09358644e-01, 2.98284829e-01,
          2.37172857e-01, 1.74290970e-01, 3.31186354e-01, 3.90499800e-01,
          3.17572147e-01, 3.90499800e-01, 3.90499800e-01, 3.90499800e-01,
          4.12162662e-01, 4.22530264e-01, 4.22530264e-01, 2.55925596e-01,
          3.16019624e-01, 3.26236427e-01, 3.07711422e-01, 2.66419202e-01,
          1.77131489e-01 ]
      - [ 3.61086965e-01, 3.61086965e-01, 3.61086965e-01, 3.61086965e-01,
          3.61086965e-01, 3.61086965e-01, 2.71664143e-01, 2.12241352e-01,
          3.08612704e-01, 3.67329001e-01, 3.05770814e-01, 7.95556456e-02,
          2.94824779e-01, 3.67329001e-01, 3.67329001e-01, 3.67329001e-01,
          3.67329001e-01, 3.67329001e-01, 4.46359456e-01, 1.37715146e-01,
          2.86454018e-02, 9.64374766e-02, 3.58465254e-01, 2.02511370e-01,
          4.46359456e-01, 4.46359456e-01, 4.46359456e-01, 1.98954672e-01,
          9.75874439e-02, 1.56959787e-01, 3.92075747e-01, 3.92075747e-01,
          3.92075747e-01, 3.92075747e-01, 3.92075747e-01, 3.92075747e-01,
          1.04216143e-01, 1.02955066e-01, 7.48807043e-02, 5.32725036e-01,
          5.32725036e-01, 5.32725036e-01, 1.86463773e-01, 2.05455348e-01,
          1.98100418e-01, 1.79624632e-01, 2.47608811e-01, 1.08914979e-01,
          4.13213164e-01, 4.13213164e-01, 4.13213164e-01, 4.13213164e-01,
          4.13213164e-01, 1.91595480e-01, 4.80833977e-01, 3.04513425e-01,
          2.15563178e-01, 8.91749710e-02, 1.14182785e-01, 1.72323838e-01,
          3.34233671e-01, 4.80833977e-01, 4.80833977e-01, 2.20195889e-01,
          4.47582528e-02, 1.59788892e-01, 1.30642146e-01, 2.23117992e-01,
          8.45038220e-02, 5.30625045e-01, 5.30625045e-01, 5.30625045e-01,
          2.10813731e-01, 4.36403036e-01, 4.36403036e-01, 2.30882227e-01,
          4.36403036e-01, 1.53361991e-01, 2.62922347e-01, 4.25732195e-01,
          2.29462177e-01 ]
      - [ 3.46887112e-01, 3.46887112e-01, 3.46887112e-01, 3.46887112e-01,
          3.46887112e-01, 3.46887112e-01, 3.46887112e-01, 2.75275201e-01,
          2.80076683e-01, 3.42698902e-01, 3.42698902e-01, 2.41609350e-01,
          3.42698902e-01, 3.42698902e-01, 3.42698902e-01, 3.42698902e-01,
          3.42698902e-01, 3.40738803e-01, 3.08234274e-01, 1.16589583e-01,
          7.34229293e-03, 5.69109768e-02, 3.82674336e-01, 3.75753701e-01,
          4.45728987e-01, 4.45728987e-01, 4.45728987e-01, 3.76105249e-01,
          6.70781285e-02, 3.94567437e-02, 3.76105249e-01, 3.76105249e-01,
          3.76105249e-01, 3.76105249e-01, 3.76105249e-01, 3.76105249e-01,
          1.35835424e-01, 1.17691271e-01, 8.34631771e-02, 5.01507699e-01,
          5.01507699e-01, 5.01507699e-01, 1.05216183e-01, 2.71523833e-01,
          3.41170162e-01, 9.15828645e-02, 3.77128601e-01, 2.35110134e-01,
          3.77128601e-01, 3.77128601e-01, 3.77128601e-01, 3.77128601e-01,
          3.77128601e-01, 2.81446666e-01, 4.43076521e-01, 4.43076521e-01,
          2.18167350e-01, 1.58913061e-01, 1.66215897e-01, 1.67783752e-01,
          2.85792381e-01, 4.43076521e-01, 4.43076521e-01, 2.48429105e-01,
          3.52141857e-02, 9.31561589e-02, 1.59809113e-01, 1.38382271e-01,
          2.60527879e-02, 5.39547086e-01, 5.41515768e-01, 5.41515768e-01,
          1.01852156e-01, 4.19074386e-01, 4.19074386e-01, 2.95711040e-01,
          4.19074386e-01, 3.01642805e-01, 1.58180773e-01, 4.19074386e-01,
          2.81943232e-01 ]
      - [ 7.04398990e-01, 6.75481418e-03, 6.48072310e-05, 2.11131570e-04,
          8.35811952e-05, 5.80281310e-04, 1.90382358e-04, 2.38008685e-02,
          7.04398990e-01, 6.94100678e-01, 1.06469996e-01, 2.02074778e-04,
          0., 0., 0., 0., 1.34847119e-01, 6.94100678e-01, 5.75562119e-01,
          5.75562119e-01, 1.63742360e-02, 1.14217754e-02, 1.58493221e-03,
          0., 0., 6.03441661e-03, 5.75562119e-01, 4.18025970e-01,
          4.18025970e-01, 4.18025970e-01, 4.18025970e-01, 3.48852932e-01,
          1.87264532e-02, 5.16301021e-03, 4.44866577e-03, 4.18025970e-01,
          6.17718220e-01, 2.15664923e-01, 3.70674253e-01, 2.01654270e-01,
          4.89638411e-02, 3.28349532e-04, 2.92442250e-03, 6.08232208e-02,
          6.17718220e-01, 6.61111712e-01, 3.34242940e-01, 3.71969454e-02,
          1.90017112e-02, 1.38744330e-02, 4.53422628e-02, 3.03573105e-02,
          5.12793809e-02, 6.61111712e-01, 1.32567203e-03, 4.51018475e-02,
          1.43412441e-01, 6.96064472e-01, 6.96064472e-01, 3.65625992e-02,
          0., 8.58074240e-03, 5.15369512e-03, 4.18256968e-02,
          3.29096988e-02, 2.66285807e-01, 6.76360965e-01, 6.76360965e-01,
          4.26378883e-02, 6.53706538e-03, 1.50058484e-02, 4.99302559e-02,
          1.97250396e-01, 4.96440567e-02, 2.07550395e-02, 6.15629733e-01,
          7.46239841e-01, 9.12179574e-02, 1.40820732e-02, 1.01037491e-02,
          7.90797547e-02 ]
      - [ 4.09324408e-01, 4.09324408e-01, 1.66509047e-01, 1.35391980e-01,
          3.61565441e-01, 2.80140519e-01, 2.65444219e-01, 4.09324408e-01,
          4.09324408e-01, 4.59861815e-01, 6.17597513e-02, 7.42450776e-03,
          3.68283629e-01, 4.59861815e-01, 2.16960862e-01, 8.16856548e-02,
          4.09562111e-01, 4.59861815e-01, 2.18431830e-01, 2.01599346e-03,
          4.52000163e-02, 3.08879793e-01, 5.03042638e-01, 5.03042638e-01,
          8.90528560e-02, 2.87617236e-01, 5.03042638e-01, 4.79283720e-01,
          3.00204068e-01, 1.13255695e-01, 3.81023049e-01, 4.79283720e-01,
          7.31543079e-02, 3.75044830e-02, 2.26248190e-01, 4.79283720e-01,
          4.79620039e-01, 4.79620039e-01, 1.48859203e-01, 2.77062625e-01,
          4.09878850e-01, 3.17108221e-02, 2.76599126e-03, 1.92787305e-01,
          4.79620039e-01, 5.85225046e-01, 7.12852404e-02, 6.23498559e-02,
          1.11689970e-01, 3.91108096e-01, 2.27612425e-02, 5.34526072e-03,
          3.66365552e-01, 5.85225046e-01, 1.89087719e-01, 4.33082916e-02,
          8.37082490e-02, 6.44489288e-01, 6.44489288e-01, 2.04146847e-01,
          5.18725486e-03, 6.18789643e-02, 2.69562483e-01, 1.54846266e-01,
          6.13417663e-02, 7.04665408e-02, 6.51828110e-01, 6.51828110e-01,
          1.82082936e-01, 1.02618034e-03, 1.70207992e-01, 2.21135825e-01,
          1.48881182e-01, 5.25234193e-02, 7.34092742e-02, 3.72203469e-01,
          8.75333428e-01, 1.05879962e-01, 1.42644206e-02, 4.50705774e-02,
          2.06792429e-01 ]
      - [ 6.92298532e-01, 6.92298532e-01, 1.85177386e-01, 1.40490597e-02,
          3.40632792e-03, 5.79360034e-03, 6.69979258e-04, 8.77950224e-04,
          1.32025481e-04, 6.97146118e-01, 6.97146118e-01, 8.21505934e-02,
          6.91669807e-02, 6.92673177e-02, 3.53265852e-02, 4.47532609e-02,
          3.59761193e-02, 1.18071614e-02, 3.73535603e-01, 3.73535603e-01,
          3.73535603e-01, 3.73535603e-01, 3.73535603e-01, 2.69302428e-01,
          2.84761041e-01, 3.31263512e-01, 1.87818453e-01, 2.72968024e-01,
          4.79744643e-01, 4.79744643e-01, 4.79744643e-01, 4.79744643e-01,
          8.41857120e-03, 6.20546984e-04, 2.40866863e-03, 0.,
          7.37766027e-02, 9.06167179e-02, 6.23417236e-02, 6.96223497e-01,
          6.96223497e-01, 7.42155686e-02, 7.85066746e-03, 1.47445807e-02,
          1.63617022e-02, 1.65031049e-02, 3.09990849e-02, 5.16435020e-02,
          6.03817046e-01, 7.01221049e-01, 3.60255808e-01, 4.23318446e-02,
          1.90781709e-02, 2.92180385e-02, 1.80482084e-03, 3.19813797e-03,
          6.07772246e-02, 5.07694721e-01, 6.27583802e-01, 5.81731379e-01,
          0., 0., 2.54349598e-05, 1.12179872e-02, 1.27414083e-02,
          7.91021958e-02, 5.67467153e-01, 6.13086283e-01, 5.37995815e-01,
          0., 0., 1.29580672e-04, 3.08664352e-01, 1.12755746e-01,
          7.95427561e-02, 5.78660429e-01, 5.78660429e-01, 4.57890302e-01,
          9.85119375e-04, 1.51585671e-03, 2.33395062e-02 ]
      - [ 5.26759565e-01, 5.26759565e-01, 5.26759565e-01, 3.19829851e-01,
          3.86153534e-02, 9.24619064e-02, 5.34137301e-02, 3.08303628e-02,
          2.14889675e-01, 4.03406858e-01, 4.03406858e-01, 4.03406858e-01,
          4.03406858e-01, 3.04770172e-01, 1.62674159e-01, 2.42357984e-01,
          1.10359624e-01, 3.93391907e-01, 6.33819997e-01, 6.33819997e-01,
          4.00106579e-01, 9.27329436e-02, 3.32337953e-02, 1.76366896e-03,
          8.39771889e-03, 0., 1.42666131e-01, 4.89238113e-01,
          4.89238113e-01, 4.89238113e-01, 6.40998930e-02, 5.34918495e-02,
          1.53958157e-01, 4.65247296e-02, 6.97128996e-02, 4.89238113e-01,
          6.96179509e-01, 6.96179509e-01, 1.00999683e-01, 1.57394409e-02,
          2.55481694e-02, 9.13587287e-02, 5.28354645e-02, 0.,
          3.84599902e-02, 5.72033346e-01, 5.72033346e-01, 1.11483112e-01,
          4.62593557e-03, 1.50654558e-03, 1.17230251e-04, 1.24994398e-03,
          1.29490355e-02, 5.72033346e-01, 5.69180906e-01, 5.69180906e-01,
          5.63780777e-02, 0., 0., 2.79502906e-02, 3.50229070e-02,
          1.31261244e-01, 5.69180906e-01, 5.68883538e-01, 5.68883538e-01,
          4.53819275e-01, 2.29616035e-02, 0., 0., 0., 4.54020128e-02,
          3.72185081e-01, 4.96556610e-01, 4.96556610e-01, 4.96556610e-01,
          1.79093126e-02, 3.49844992e-02, 5.42541668e-02, 0.,
          6.54106885e-02, 4.96556610e-01 ]
      - [ 3.90597254e-01, 3.60244125e-01, 2.65880585e-01, 2.80667484e-01,
          3.57375860e-01, 3.90597254e-01, 3.90597254e-01, 1.91044003e-01,
          3.08125377e-01, 3.17617744e-01, 2.76874244e-01, 3.62003982e-01,
          4.01850283e-01, 4.01850283e-01, 4.01850283e-01, 2.35040933e-01,
          1.68713406e-01, 3.45309645e-01, 2.02959269e-01, 3.93656701e-01,
          7.04704076e-02, 1.41828001e-01, 3.93656701e-01, 3.93656701e-01,
          3.93656701e-01, 3.93656701e-01, 3.93656701e-01, 4.27222013e-01,
          2.49773473e-01, 3.53904665e-02, 7.71574900e-02, 4.27222013e-01,
          4.27222013e-01, 3.61878455e-01, 2.55164951e-01, 4.27222013e-01,
          3.57248604e-01, 2.62918800e-01, 3.57248604e-01, 3.57248604e-01,
          3.57248604e-01, 3.57248604e-01, 2.18996763e-01, 3.37024361e-01,
          3.57248604e-01, 1.52936295e-01, 3.98593098e-01, 3.98593098e-01,
          3.98593098e-01, 3.98593098e-01, 3.98593098e-01, 3.98593098e-01,
          1.35106742e-01, 3.34063023e-02, 3.66752744e-01, 3.66752744e-01,
          3.66752744e-01, 3.17200124e-01, 3.66752744e-01, 2.63811350e-01,
          1.38123810e-01, 3.66752744e-01, 3.66752744e-01, 2.49422371e-01,
          2.26760227e-02, 3.88394184e-02, 1.30081460e-01, 2.62556463e-01,
          2.25503430e-01, 5.14431477e-01, 5.14431477e-01, 5.14431477e-01,
          1.06197841e-01, 4.74445313e-01, 4.74445313e-01, 2.43871495e-01,
          1.80511594e-01, 1.13025412e-01, 4.64853168e-01, 3.70481014e-01,
          2.74971813e-01 ]
      - [ 3.77005786e-02, 3.47595545e-04, 4.15761815e-03, 3.95333441e-03,
          7.04758335e-03, 5.79149695e-03, 7.93726519e-02, 7.01839149e-01,
          7.01839149e-01, 9.37041715e-02, 2.94954069e-02, 9.11737904e-02,
          9.74662825e-02, 6.29550144e-02, 2.28240583e-02, 1.06463276e-01,
          6.89144015e-01, 6.89144015e-01, 3.70521247e-01, 3.70521247e-01,
          3.70521247e-01, 3.70521247e-01, 2.90759295e-01, 3.70521247e-01,
          1.50278166e-01, 2.55847245e-01, 3.70521247e-01, 3.80342379e-02,
          5.78906834e-02, 6.77098557e-02, 4.80188318e-02, 5.71753755e-02,
          2.26571932e-01, 5.02419829e-01, 5.81153631e-01, 5.81153631e-01,
          9.36872289e-02, 2.45887376e-02, 3.38089392e-02, 2.15304680e-02,
          2.99309231e-02, 3.80251482e-02, 3.04277483e-02, 6.99557245e-01,
          6.99557245e-01, 6.02171242e-01, 1.18481159e-01, 4.17705253e-03,
          6.60283258e-03, 3.36468816e-02, 3.15360427e-02, 1.74751841e-02,
          5.02231181e-01, 6.02171242e-01, 2.50059795e-02, 2.91230045e-02,
          4.81604263e-02, 4.28069770e-01, 4.36527103e-01, 4.36527103e-01,
          4.36527103e-01, 4.36527103e-01, 2.15358496e-01, 2.75712132e-01,
          1.95814203e-02, 3.60872783e-02, 4.20236439e-01, 4.20739233e-01,
          4.20739233e-01, 1.82782754e-01, 4.20739233e-01, 4.20739233e-01,
          5.15265703e-01, 1.62939001e-02, 0., 4.29725438e-01,
          5.15265703e-01, 3.54214609e-02, 3.78263253e-03, 1.10269152e-01,
          5.15265703e-01 ]
      - [ 3.26288611e-01, 1.01512477e-01, 2.16868699e-01, 3.95155162e-01,
          3.95155162e-01, 3.95155162e-01, 3.95155162e-01, 3.95155162e-01,
          2.26965442e-01, 1.00973904e-01, 5.92969880e-02, 5.64484775e-01,
          5.64484775e-01, 5.64484775e-01, 1.23534605e-01, 3.67038324e-02,
          8.13160092e-02, 3.87512445e-02, 9.56221595e-02, 8.10664073e-02,
          4.90615666e-01, 4.90615666e-01, 4.90615666e-01, 4.90615666e-01,
          9.14490893e-02, 2.13750731e-02, 8.80333781e-02, 3.50549310e-01,
          3.50549310e-01, 2.29204252e-01, 3.50549310e-01, 3.50549310e-01,
          3.50549310e-01, 2.89429247e-01, 3.50549310e-01, 3.50549310e-01,
          3.54258180e-01, 2.62482017e-01, 3.54258180e-01, 3.54258180e-01,
          3.54258180e-01, 2.63383657e-01, 3.54258180e-01, 3.54258180e-01,
          3.24344754e-01, 2.21292570e-01, 4.20924008e-01, 4.08628732e-01,
          4.20924008e-01, 4.20924008e-01, 4.20924008e-01, 2.04270482e-01,
          7.19477907e-02, 1.55680433e-01, 5.22833765e-01, 2.56239116e-01,
          2.33215675e-01, 2.16889575e-01, 2.69892607e-02, 2.92372722e-02,
          7.77222216e-02, 5.22833765e-01, 5.22833765e-01, 3.50082934e-01,
          2.83998400e-01, 1.11231722e-01, 1.98569417e-01, 7.92426839e-02,
          2.59535670e-01, 4.71394360e-01, 4.71394360e-01, 4.71394360e-01,
          6.26170576e-01, 6.26170576e-01, 1.93200663e-01, 9.59612578e-02,
          1.02292545e-01, 3.46659333e-01, 1.31539226e-01, 7.46590197e-02,
          9.75755304e-02 ]
      - [ 6.56494379e-01, 1.99856907e-01, 6.16082270e-03, 6.45920343e-04,
          0., 1.15217716e-02, 5.63451834e-03, 3.02209318e-01,
          6.56494379e-01, 3.75341505e-01, 4.39262651e-02, 0., 0., 0., 0.,
          0., 6.52180195e-01, 6.52180195e-01, 5.56789003e-02, 0., 0., 0.,
          0., 0., 4.31887078e-04, 7.03518569e-01, 7.03518569e-01,
          4.49750423e-01, 1.51822880e-01, 9.46580172e-02, 4.49750423e-01,
          4.49750423e-01, 2.04065546e-01, 1.22397274e-01, 3.12684476e-01,
          4.49750423e-01, 4.43919152e-01, 3.90895531e-02, 1.93130523e-02,
          5.48275895e-02, 7.30589256e-02, 4.43919152e-01, 4.43919152e-01,
          4.43919152e-01, 4.43919152e-01, 2.87026707e-02, 3.44789471e-03,
          3.29464604e-03, 1.63983728e-04, 9.19965561e-03, 6.77792206e-02,
          2.65688062e-01, 6.77172124e-01, 6.77172124e-01, 8.83836523e-02,
          1.35825485e-01, 5.67163110e-01, 5.67163110e-01, 5.67163110e-01,
          1.96387023e-02, 2.46437900e-02, 4.06919094e-03, 4.52185646e-02,
          1.10718742e-01, 2.25625783e-01, 4.97628897e-01, 4.97628897e-01,
          4.09513980e-01, 1.73943892e-01, 3.93966913e-01, 1.82955697e-01,
          2.23504677e-01, 4.68901604e-01, 4.68901604e-01, 1.48932815e-01,
          7.11836368e-02, 5.47115831e-03, 3.28749083e-02, 2.95775086e-01,
          4.68901604e-01, 4.68901604e-01 ]
      - [ 2.12828010e-01, 4.17253703e-01, 2.27755040e-01, 1.39071178e-02,
          4.67546135e-01, 4.67546135e-01, 4.64773178e-01, 2.00251892e-01,
          1.74797475e-01, 5.01103222e-01, 4.35042024e-01, 1.48936152e-01,
          7.28273764e-02, 5.01103222e-01, 5.01103222e-01, 1.22912042e-01,
          1.75930820e-02, 9.75593254e-02, 3.66227925e-01, 2.30804920e-01,
          8.79563689e-02, 1.88719332e-01, 5.73788047e-01, 5.73788047e-01,
          2.94199646e-01, 1.53095173e-02, 1.35173857e-01, 4.30360645e-01,
          4.30360645e-01, 2.73764860e-02, 9.76102948e-02, 4.30360645e-01,
          4.30360645e-01, 4.30360645e-01, 1.53866440e-01, 1.88937873e-01,
          4.71485227e-01, 4.71485227e-01, 4.89810817e-02, 1.00323260e-02,
          2.38176689e-01, 4.71485227e-01, 4.71485227e-01, 1.55626103e-01,
          1.50499389e-01, 4.59968261e-02, 5.75761534e-02, 3.37929726e-02,
          3.40589992e-04, 5.87700233e-02, 6.97910428e-01, 6.97910428e-01,
          9.38656554e-02, 6.14901911e-03, 4.08959836e-01, 3.76254857e-01,
          3.41337919e-02, 2.65033871e-01, 4.08959836e-01, 4.08959836e-01,
          4.08959836e-01, 2.23450467e-01, 2.53014565e-01, 7.92089701e-02,
          1.75133999e-02, 6.85266219e-04, 9.96425562e-03, 7.89037645e-02,
          6.45147502e-01, 6.45147502e-01, 3.81825298e-01, 4.93101813e-02,
          6.40673703e-03, 2.90442118e-03, 0., 0., 3.44674871e-03,
          3.22195381e-01, 7.50428855e-01, 5.70473492e-01, 7.43757281e-03 ]
      - [ 5.45928776e-01, 7.40439910e-03, 7.21711991e-03, 3.09525996e-01,
          5.45928776e-01, 2.88787633e-02, 1.08204372e-02, 5.97408675e-02,
          5.45928776e-01, 5.19494474e-01, 4.22867499e-02, 1.08253136e-02,
          4.24899727e-01, 5.19494474e-01, 5.23691140e-02, 0.,
          7.91099446e-04, 5.19494474e-01, 3.75028670e-01, 1.65305153e-01,
          5.05114980e-02, 3.49996090e-01, 3.75028670e-01, 3.75028670e-01,
          3.75028670e-01, 3.75028670e-01, 3.75028670e-01, 5.51106393e-01,
          0., 0., 2.35082537e-01, 5.51106393e-01, 2.00274009e-02,
          1.42473553e-03, 1.66357473e-01, 5.51106393e-01, 5.66226840e-01,
          6.75296597e-03, 3.71776745e-02, 1.28516659e-01, 5.66226840e-01,
          1.20673142e-01, 9.78131779e-04, 0., 5.66226840e-01,
          4.93035465e-01, 3.12334567e-01, 8.89310315e-02, 5.35299294e-02,
          4.93035465e-01, 2.67135412e-01, 1.08923718e-01, 2.72527009e-01,
          4.93035465e-01, 5.54650068e-01, 2.03544721e-02, 0.,
          2.48861462e-01, 5.54650068e-01, 2.35002395e-02, 2.85757647e-04,
          9.30187628e-02, 5.54650068e-01, 2.13141307e-01, 3.22025031e-01,
          4.52964753e-01, 4.52964753e-01, 4.52964753e-01, 6.35381564e-02,
          1.79330213e-03, 1.46961004e-01, 4.52964753e-01, 2.15056404e-01,
          4.55906153e-01, 4.55906153e-01, 4.55906153e-01, 4.55906153e-01,
          2.42346868e-01, 2.70599443e-02, 6.70824870e-02, 2.32014820e-01 ]
      - [ 3.74020487e-01, 1.47754401e-01, 2.79808193e-01, 4.09061521e-01,
          2.81448156e-01, 4.82399389e-02, 1.55035127e-02, 4.70628649e-01,
          5.32971978e-01, 6.35140777e-01, 8.01675208e-03, 2.22524330e-02,
          4.84027378e-02, 8.60500187e-02, 1.79791823e-02, 1.60339214e-02,
          2.09844977e-01, 7.31011271e-01, 6.99835777e-01, 4.53493837e-03,
          9.25664417e-03, 1.50123704e-02, 3.00952606e-02, 1.60291756e-03,
          4.17886488e-03, 1.10526823e-01, 6.99835777e-01, 4.67753500e-01,
          3.62242609e-01, 2.27413416e-01, 3.16748261e-01, 4.67753500e-01,
          1.60835057e-01, 2.87551749e-02, 1.70256138e-01, 4.67753500e-01,
          3.87526333e-01, 2.30514064e-01, 1.65046111e-01, 1.21209212e-01,
          3.87526333e-01, 3.87526333e-01, 3.87526333e-01, 3.87526333e-01,
          3.87526333e-01, 2.09767491e-01, 4.64204624e-02, 9.80292410e-02,
          4.35118049e-01, 4.35118049e-01, 4.35118049e-01, 3.92222404e-01,
          2.58219600e-01, 3.89085770e-01, 3.66253406e-01, 7.14501441e-02,
          7.57814990e-03, 1.89073876e-01, 5.51709175e-01, 5.51709175e-01,
          1.93583623e-01, 1.54080570e-01, 3.86595517e-01, 1.06453076e-01,
          4.67774235e-02, 3.42834055e-01, 9.08537805e-02, 4.57537144e-01,
          4.57537144e-01, 4.57537144e-01, 4.57537144e-01, 1.36963397e-01,
          3.76845330e-01, 2.71244403e-02, 3.75832058e-02, 3.76845330e-01,
          3.76845330e-01, 3.76845330e-01, 3.76845330e-01, 3.76845330e-01,
          3.76845330e-01 ]
      - [ 4.46675450e-01, 3.22083235e-02, 3.67741138e-01, 4.46675450e-01,
          4.46675450e-01, 2.35533103e-01, 2.79235491e-03, 7.55508468e-02,
          4.46675450e-01, 4.78283018e-01, 5.98232837e-05, 1.40246586e-03,
          9.89499614e-02, 4.78283018e-01, 4.78283018e-01, 2.58458048e-01,
          6.00880086e-02, 4.78283018e-01, 4.77319956e-01, 2.58853659e-02,
          2.95959227e-02, 1.43154189e-01, 4.77319956e-01, 4.77319956e-01,
          2.81506687e-01, 4.99367565e-02, 4.56016213e-01, 3.02584004e-02,
          1.90235190e-02, 1.84926808e-01, 5.63809812e-01, 5.63809812e-01,
          5.63809812e-01, 4.97605577e-02, 0., 5.26680686e-02,
          5.25729207e-04, 0., 0., 6.09859079e-02, 6.03743494e-01,
          6.03743494e-01, 5.10600209e-01, 9.94634721e-03, 2.06935368e-02,
          7.37482011e-02, 0., 1.87907179e-04, 4.51745272e-01,
          4.51745272e-01, 4.51745272e-01, 3.30998152e-01, 2.53365040e-01,
          4.51745272e-01, 1.31333977e-01, 0., 3.65592103e-04,
          4.46053207e-01, 5.58926702e-01, 3.80203962e-01, 6.31647110e-02,
          6.97379932e-02, 5.58926702e-01, 1.05027974e-01, 0., 0.,
          6.29325137e-02, 4.60531056e-01, 4.60531056e-01, 3.63391221e-01,
          4.60531056e-01, 4.60531056e-01, 6.00128956e-02, 3.07324864e-02,
          4.17273045e-02, 4.52636570e-01, 4.52636570e-01, 4.52636570e-01,
          2.77697563e-01, 4.18846607e-01, 3.49289984e-01 ]
      - [ 4.34382647e-01, 4.34382647e-01, 4.34382647e-01, 4.20794785e-01,
          4.34382647e-01, 2.16798246e-01, 3.74339782e-02, 3.99118941e-03,
          1.24181077e-01, 6.44915700e-02, 3.85339707e-01, 4.94740695e-01,
          2.53728956e-01, 5.15480399e-01, 5.15480399e-01, 1.45652527e-02,
          4.77052585e-04, 3.75087894e-02, 8.62892047e-02, 1.71695694e-01,
          1.61080420e-01, 8.99275765e-02, 6.74188852e-01, 6.74188852e-01,
          3.64768282e-02, 1.45464428e-02, 1.08198829e-01, 4.59300965e-01,
          8.32778886e-02, 4.18275408e-02, 4.59300965e-01, 4.59300965e-01,
          3.68289292e-01, 5.94201274e-02, 6.10765070e-02, 4.59300965e-01,
          3.01896334e-01, 3.33063724e-03, 1.03118801e-02, 3.52279156e-01,
          4.67482567e-01, 4.67482567e-01, 1.00964278e-01, 3.37871999e-01,
          4.67482567e-01, 1.32369697e-01, 8.73503461e-03, 2.57708523e-02,
          1.84156761e-01, 4.34392661e-01, 4.34392661e-01, 4.34392661e-01,
          4.34392661e-01, 4.34392661e-01, 4.49169010e-01, 1.22648310e-02,
          7.67360209e-03, 5.09800255e-01, 5.09800255e-01, 1.35908574e-01,
          4.62380936e-03, 1.16790324e-01, 4.90939289e-01, 1.40505701e-01,
          0., 1.40690759e-01, 4.93449211e-01, 4.93449211e-01,
          3.37493494e-02, 4.13730508e-03, 4.73184288e-01, 4.93449211e-01,
          1.02634117e-01, 7.71620218e-03, 7.19646439e-02, 5.53069413e-01,
          2.42759034e-01, 3.17098387e-02, 3.33172604e-02, 5.53069413e-01,
          5.53069413e-01 ]
      - [ 5.33667028e-01, 3.67931247e-01, 1.11839557e-02, 5.58634922e-02,
          3.27091254e-02, 2.32430436e-02, 6.28818152e-03, 5.33667028e-01,
          5.33667028e-01, 1.38113154e-02, 7.08486186e-04, 3.26993549e-03,
          9.62133054e-03, 1.13264350e-02, 2.31335568e-03, 1.15357724e-03,
          7.04463720e-01, 7.04463720e-01, 1.47531912e-01, 5.34109958e-03,
          8.39780900e-04, 2.49599037e-03, 2.03569024e-03, 5.76055027e-04,
          1.43615548e-02, 6.96789920e-01, 6.96789920e-01, 3.74858558e-01,
          3.74858558e-01, 3.74858558e-01, 2.43776351e-01, 1.48975685e-01,
          2.67433316e-01, 3.74858558e-01, 3.74858558e-01, 3.74858558e-01,
          6.17193393e-02, 2.04493955e-01, 2.86726892e-01, 1.97875753e-01,
          7.58390054e-02, 4.34735417e-02, 5.22858322e-01, 5.22858322e-01,
          5.22858322e-01, 8.69409088e-03, 4.87490650e-03, 2.34311819e-02,
          1.31624062e-02, 0., 1.11670862e-03, 5.75450838e-01,
          5.75450838e-01, 5.75450838e-01, 3.79293770e-01, 3.79293770e-01,
          3.79293770e-01, 3.79293770e-01, 1.18683204e-01, 1.93817437e-01,
          3.79293770e-01, 3.79293770e-01, 2.85266608e-01, 4.60819572e-01,
          4.25093472e-01, 7.64644071e-02, 3.92189585e-02, 4.89498070e-03,
          7.91579708e-02, 4.60819572e-01, 4.60819572e-01, 4.04911935e-01,
          3.91424447e-03, 6.39200630e-03, 3.56634264e-03, 1.89684762e-03,
          0., 3.94141721e-03, 7.03095734e-01, 7.03095734e-01,
          6.48538172e-02 ]
      - [ 3.44681889e-01, 3.39132726e-01, 4.15305376e-01, 4.15305376e-01,
          2.19890326e-01, 1.10062450e-01, 1.07958563e-01, 4.15305376e-01,
          4.15305376e-01, 5.20080328e-01, 1.75474286e-01, 2.02966332e-01,
          3.01323652e-01, 1.39853373e-01, 1.80184264e-02, 2.62516867e-02,
          5.20080328e-01, 5.20080328e-01, 4.62791979e-01, 1.50161266e-01,
          1.82451591e-01, 4.62791979e-01, 1.90021798e-01, 3.74847054e-02,
          2.12888062e-01, 4.62791979e-01, 4.62791979e-01, 4.08115119e-01,
          2.30283171e-01, 4.08115119e-01, 4.08115119e-01, 2.62719125e-01,
          1.14753209e-02, 2.02361062e-01, 4.08115119e-01, 4.08115119e-01,
          1.11073881e-01, 4.38327223e-01, 4.38327223e-01, 4.38327223e-01,
          7.68663138e-02, 3.84684801e-02, 1.23458706e-01, 4.38327223e-01,
          4.38327223e-01, 3.43413144e-01, 6.36968389e-02, 2.29018033e-01,
          2.93825597e-01, 5.58252558e-02, 7.00841546e-02, 4.92031485e-01,
          4.92031485e-01, 4.92031485e-01, 3.59823614e-01, 1.53966293e-01,
          3.59823614e-01, 3.59823614e-01, 2.57658958e-01, 3.59823614e-01,
          3.59823614e-01, 3.59823614e-01, 3.59823614e-01, 2.42009237e-01,
          2.62525320e-01, 4.56930786e-01, 4.56930786e-01, 2.64505465e-02,
          1.13417991e-01, 1.38714463e-01, 4.56930786e-01, 4.56930786e-01,
          4.19866145e-01, 1.76294610e-01, 3.62782419e-01, 2.99670249e-01,
          7.45519996e-02, 1.80566996e-01, 4.19866145e-01, 4.19866145e-01,
          4.19866145e-01 ]
      - [ 4.11996663e-01, 4.96737771e-02, 3.02073583e-02, 6.15956448e-03,
          6.35808930e-02, 3.21555287e-02, 4.21836674e-01, 5.64879417e-01,
          5.64879417e-01, 4.79363739e-01, 4.53704089e-01, 1.46644190e-01,
          6.09517982e-03, 6.64910749e-02, 8.35170075e-02, 2.58955926e-01,
          4.79363739e-01, 4.79363739e-01, 5.73029518e-01, 5.73029518e-01,
          3.11561655e-02, 7.24636298e-03, 1.21700149e-02, 6.57812413e-03,
          3.36111733e-03, 8.92382413e-02, 5.73029518e-01, 3.18119019e-01,
          4.13701162e-02, 6.72866851e-02, 5.71159050e-02, 1.70693040e-01,
          4.62477982e-01, 4.62477982e-01, 4.62477982e-01, 4.62477982e-01,
          6.57382131e-01, 6.57382131e-01, 1.63706720e-01, 5.48408134e-03,
          1.24681331e-02, 8.58491473e-03, 4.87325564e-02, 8.90870690e-02,
          3.02925766e-01, 6.98352933e-01, 6.98352933e-01, 5.35255894e-02,
          4.43388196e-03, 2.21659690e-02, 5.42230494e-02, 4.43605855e-02,
          2.75928564e-02, 9.26813930e-02, 5.80562353e-01, 5.80562353e-01,
          4.26985063e-02, 1.83813795e-02, 1.53405704e-02, 2.52767224e-02,
          6.34047240e-02, 2.44865134e-01, 5.03073752e-01, 6.96486890e-01,
          6.96486890e-01, 4.72851060e-02, 5.78882312e-03, 1.57871167e-03,
          5.41927014e-03, 6.19742312e-02, 5.02701104e-02, 1.19122580e-01,
          5.17636418e-01, 5.17636418e-01, 7.72475451e-02, 1.98082570e-02,
          1.56921566e-01, 1.45916715e-01, 3.22371364e-01, 5.15540421e-01,
          1.92235872e-01 ]
      - [ 1.54440701e-01, 1.28822401e-01, 7.16603026e-02, 1.62987784e-01,
          2.53504246e-01, 3.74375463e-01, 4.89402115e-01, 4.89402115e-01,
          4.89402115e-01, 1.50640026e-01, 1.76510289e-01, 3.37769896e-01,
          4.52602774e-01, 2.97998875e-01, 1.79252088e-01, 3.03413451e-01,
          4.52602774e-01, 4.52602774e-01, 6.71039075e-02, 2.01826245e-02,
          3.03094149e-01, 7.27905869e-01, 1.31567612e-01, 2.33294647e-02,
          4.02562767e-02, 3.70868504e-01, 4.57266569e-01, 1.09650329e-01,
          1.12462953e-01, 1.02282673e-01, 4.43887055e-01, 4.43887055e-01,
          2.43605167e-01, 3.36075574e-01, 4.43887055e-01, 4.43887055e-01,
          4.65135545e-01, 3.11665773e-01, 9.09830704e-02, 3.92167240e-01,
          4.26129460e-01, 1.56962588e-01, 1.20458752e-01, 2.87592590e-01,
          4.65135545e-01, 3.65089208e-01, 9.45415348e-02, 1.42946169e-01,
          4.03259575e-01, 1.42190650e-01, 4.03259575e-01, 4.03259575e-01,
          4.03259575e-01, 4.03259575e-01, 3.52529705e-01, 2.58766115e-01,
          3.41598034e-01, 3.52529705e-01, 3.52529705e-01, 3.52529705e-01,
          2.59163469e-01, 3.52529705e-01, 3.52529705e-01, 4.03566450e-01,
          1.97814867e-01, 1.93555027e-01, 4.03566450e-01, 4.03566450e-01,
          4.03566450e-01, 2.75707334e-01, 1.70382604e-01, 4.03566450e-01,
          4.40146834e-01, 1.95930079e-02, 3.51115838e-02, 1.11743897e-01,
          1.13375030e-01, 4.40146834e-01, 4.40146834e-01, 4.40146834e-01,
          4.40146834e-01 ]
      - [ 5.05859733e-01, 1.03450447e-01, 7.80722732e-03, 3.92655283e-02,
          5.05859733e-01, 4.63035673e-01, 2.36368012e-02, 1.27159423e-04,
          5.05859733e-01, 4.92722601e-01, 8.59984010e-02, 3.70471515e-02,
          9.55147147e-02, 4.92722601e-01, 4.92722601e-01, 7.80040696e-02,
          8.82011140e-04, 4.92722601e-01, 4.81931359e-01, 1.08226081e-02,
          1.17224520e-02, 5.33634089e-02, 4.81931359e-01, 4.81931359e-01,
          3.39753568e-01, 2.41311863e-02, 4.23433661e-01, 1.44357488e-01,
          3.95866215e-01, 5.32413982e-02, 1.54450938e-01, 5.23586810e-01,
          5.23586810e-01, 4.84987825e-01, 1.39475632e-02, 8.26933458e-02,
          1.77280977e-01, 2.84465998e-01, 7.56798685e-02, 7.82346502e-02,
          5.35529315e-01, 5.35529315e-01, 5.35529315e-01, 4.23412919e-02,
          9.10301283e-02, 2.60943085e-01, 3.22047949e-01, 1.47675827e-01,
          3.21722686e-01, 4.67192709e-01, 4.67192709e-01, 4.67192709e-01,
          1.52567700e-01, 1.41879797e-01, 4.14710015e-01, 2.83159539e-02,
          1.13540906e-02, 4.97032665e-02, 4.14710015e-01, 4.14710015e-01,
          3.73010665e-01, 4.06671107e-01, 4.14710015e-01, 3.85580570e-01,
          2.83436507e-01, 1.45689875e-01, 5.05170375e-02, 3.85580570e-01,
          3.85580570e-01, 3.85580570e-01, 3.85580570e-01, 3.85580570e-01,
          5.28641522e-01, 5.28641522e-01, 2.80964356e-02, 1.64486002e-02,
          3.58908772e-02, 2.83535391e-01, 2.28056669e-01, 1.46917522e-01,
          5.28641522e-01 ]
      - [ 4.52433340e-02, 2.93787103e-02, 1.09455287e-02, 1.21683143e-02,
          6.35021865e-01, 6.35021865e-01, 4.26902652e-01, 5.12417266e-03,
          4.12816964e-02, 3.05419505e-01, 4.47891116e-01, 2.32603788e-01,
          3.11362296e-01, 4.75215822e-01, 4.75215822e-01, 2.91710526e-01,
          5.41630797e-02, 1.03083231e-01, 4.25794840e-01, 4.25794840e-01,
          3.37555408e-01, 3.64979535e-01, 4.25794840e-01, 4.25794840e-01,
          3.92215066e-02, 5.81381619e-02, 1.35902181e-01, 6.12471461e-01,
          1.12942770e-01, 2.58706082e-02, 1.19242975e-02, 3.89457256e-01,
          2.73681790e-01, 1.79562569e-02, 5.63337170e-02, 6.12471461e-01,
          5.29725015e-01, 5.29725015e-01, 8.28901306e-02, 1.99143309e-02,
          2.62878481e-02, 6.10441305e-02, 6.74628094e-02, 3.69659424e-01,
          5.29725015e-01, 7.00454593e-01, 7.00454593e-01, 1.02765605e-01,
          1.42197274e-02, 8.98625609e-03, 7.32462341e-03, 1.13524869e-02,
          2.06943415e-02, 1.67356655e-02, 6.91532016e-01, 4.41168174e-02,
          6.61068335e-02, 6.95446804e-02, 1.16742566e-01, 3.10721043e-02,
          3.13342549e-02, 9.96723995e-02, 6.91532016e-01, 5.17340183e-01,
          3.58967632e-01, 1.83915704e-01, 6.63785338e-02, 6.32475242e-02,
          1.23707987e-02, 1.43765375e-01, 5.17340183e-01, 5.17340183e-01,
          5.38622320e-01, 5.38622320e-01, 3.27355117e-01, 4.35538366e-02,
          4.94435951e-02, 1.42778531e-02, 1.17927641e-02, 1.39383957e-01,
          5.32089472e-01 ]
      - [ 6.47289634e-01, 1.75955631e-02, 3.67205520e-03, 1.06761893e-02,
          5.94648607e-02, 9.98891294e-02, 1.37456626e-01, 3.50320846e-01,
          6.47289634e-01, 5.15822947e-01, 7.17738271e-02, 1.12828835e-04,
          2.46595289e-03, 5.15822947e-01, 4.34779227e-01, 4.88936231e-02,
          6.87563419e-03, 5.15822947e-01, 4.71477717e-01, 4.71477717e-01,
          2.36569289e-02, 8.56559910e-03, 4.71477717e-01, 4.71477717e-01,
          0., 0., 3.24796736e-01, 5.61500609e-01, 6.13143435e-03, 0.,
          4.50940989e-03, 1.06243521e-01, 1.44241974e-01, 2.54619330e-01,
          5.16570032e-01, 5.61500609e-01, 6.08296990e-01, 8.91220698e-04,
          5.05707227e-03, 1.60723105e-02, 3.57245356e-01, 3.44761193e-01,
          8.32783580e-02, 1.30969714e-02, 6.08296990e-01, 6.73226237e-01,
          3.04337721e-02, 1.37971248e-02, 2.08408181e-02, 2.56746054e-01,
          1.39041543e-01, 7.70868617e-04, 3.06638819e-03, 6.73226237e-01,
          4.07322943e-01, 2.14099418e-02, 0., 8.28917604e-04,
          4.07322943e-01, 4.07322943e-01, 4.07322943e-01, 4.07322943e-01,
          4.07322943e-01, 4.26712245e-01, 2.86586851e-01, 3.66852134e-01,
          1.77498907e-01, 4.26712245e-01, 4.26712245e-01, 8.79975706e-02,
          1.06968075e-01, 4.26712245e-01, 4.10364836e-01, 1.31045640e-01,
          3.54261667e-01, 4.10364836e-01, 4.10364836e-01, 4.10364836e-01,
          7.25581571e-02, 7.72344097e-02, 4.10364836e-01 ]
      - [ 3.67590398e-01, 4.17755932e-01, 4.17755932e-01, 8.56185481e-02,
          3.71926427e-01, 4.17755932e-01, 4.17755932e-01, 9.52946320e-02,
          8.87864456e-02, 4.13546771e-01, 4.13546771e-01, 3.48670810e-01,
          1.40303493e-01, 6.95212707e-02, 4.13546771e-01, 4.13546771e-01,
          2.66798019e-01, 3.07431996e-01, 4.46355820e-01, 4.46355820e-01,
          4.46355820e-01, 4.46355820e-01, 1.55043989e-01, 2.91610304e-02,
          6.68156818e-02, 4.68361899e-02, 4.08730060e-01, 4.31203127e-01,
          2.54391342e-01, 4.31203127e-01, 2.92739987e-01, 2.88713008e-01,
          2.48925209e-01, 3.29120070e-01, 1.83938786e-01, 4.31203127e-01,
          4.46528971e-01, 4.46528971e-01, 2.41955876e-01, 1.32364854e-01,
          9.53724682e-02, 3.01298290e-01, 4.46528971e-01, 1.48484290e-01,
          4.46528971e-01, 4.22646493e-01, 2.93417573e-01, 2.73497254e-01,
          4.22646493e-01, 4.22646493e-01, 4.22646493e-01, 6.85275197e-02,
          4.38314267e-02, 3.37262481e-01, 3.41736376e-01, 8.48989785e-02,
          4.61748362e-01, 5.05826175e-01, 5.05826175e-01, 1.68870628e-01,
          9.60631296e-03, 1.51205277e-02, 3.42325449e-01, 3.67160976e-01,
          1.54212087e-01, 1.73806384e-01, 3.67160976e-01, 3.67160976e-01,
          3.67160976e-01, 3.67160976e-01, 3.67160976e-01, 3.65374655e-01,
          1.88931972e-01, 3.55306007e-02, 1.59939397e-02, 6.61611855e-02,
          4.78406668e-01, 4.78406668e-01, 4.78406668e-01, 4.78406668e-01,
          1.95292175e-01 ]
      - [ 4.60093379e-01, 4.55621770e-03, 0., 1.56716779e-02,
          5.08571327e-01, 5.08571327e-01, 4.78217788e-02, 6.89001232e-02,
          5.08571327e-01, 4.24577951e-01, 1.84090231e-02, 8.51432502e-04,
          6.43019080e-02, 5.57878435e-01, 3.49776477e-01, 2.97674108e-02,
          2.52986163e-01, 5.57878435e-01, 3.81052017e-01, 4.34316602e-03,
          1.39871394e-04, 6.13130704e-02, 4.06738013e-01, 1.49130121e-01,
          4.05134168e-03, 3.16845894e-01, 7.45317876e-01, 1.97458327e-01,
          0., 0., 2.37633591e-03, 4.85057175e-01, 4.85057175e-01,
          2.76688397e-01, 4.16847855e-01, 4.85057175e-01, 2.73837417e-01,
          0., 1.73464101e-02, 4.78157490e-01, 4.78157490e-01,
          4.40461516e-01, 3.26270722e-02, 1.97387248e-01, 4.78157490e-01,
          1.13975853e-01, 0., 3.74744437e-03, 4.91442770e-01,
          4.91442770e-01, 4.91442770e-01, 2.42913831e-02, 1.24229468e-01,
          4.91442770e-01, 3.87070179e-01, 1.16203735e-02, 0.,
          1.93617418e-01, 6.10772789e-01, 5.64222261e-02, 2.16035154e-02,
          2.38156602e-01, 6.10772789e-01, 5.90520680e-01, 3.72547912e-03,
          3.46268644e-04, 1.53216287e-01, 1.18971430e-01, 2.51188688e-02,
          5.10466751e-03, 3.67255390e-01, 6.86480463e-01, 1.88410625e-01,
          2.34805234e-03, 3.00182855e-05, 2.28878446e-02, 9.88215953e-02,
          5.84629625e-02, 8.05045012e-03, 6.86973691e-01, 6.86973691e-01 ]
      - [ 4.07472044e-01, 2.65621156e-01, 8.48422423e-02, 3.34820226e-02,
          2.94768274e-01, 4.07472044e-01, 4.07472044e-01, 4.07472044e-01,
          4.07472044e-01, 5.45190752e-01, 1.09790899e-01, 0.,
          6.98269904e-02, 3.42777371e-01, 3.18831235e-01, 1.73445821e-01,
          3.65960121e-01, 5.45190752e-01, 4.96794701e-01, 4.25608426e-01,
          3.32934596e-02, 9.25472006e-02, 1.50664851e-01, 6.87791705e-02,
          1.90727130e-01, 4.96794701e-01, 4.96794701e-01, 3.64197612e-01,
          2.31543005e-01, 4.14162353e-02, 4.76959627e-03, 3.45019639e-01,
          4.69755411e-01, 4.69755411e-01, 4.69755411e-01, 1.62076652e-01,
          3.81502032e-01, 2.90142983e-01, 3.33983488e-02, 1.93977818e-01,
          3.81502032e-01, 3.81502032e-01, 3.81502032e-01, 3.81502032e-01,
          3.81502032e-01, 4.53155905e-01, 4.53155905e-01, 1.10738032e-01,
          2.05548748e-01, 1.78515300e-01, 4.60095853e-02, 2.92531490e-01,
          4.53155905e-01, 4.53155905e-01, 3.46053354e-02, 1.05789647e-01,
          3.94531302e-02, 1.70109526e-03, 1.83346316e-01, 4.86717194e-01,
          4.86717194e-01, 4.86717194e-01, 4.86717194e-01, 2.79812157e-01,
          4.91114229e-01, 2.50181288e-01, 9.47124884e-02, 5.45338988e-02,
          2.30279893e-01, 2.56235510e-01, 4.91114229e-01, 4.91114229e-01,
          3.48094851e-01, 3.48094851e-01, 3.48094851e-01, 3.48094851e-01,
          2.82848895e-01, 2.61396885e-01, 3.48094851e-01, 3.48094851e-01,
          3.48094851e-01 ]
      - [ 5.59625268e-01, 1.74431115e-01, 5.15974909e-02, 5.59625268e-01,
          5.59625268e-01, 1.06685966e-01, 4.91254125e-03, 1.63751375e-03,
          1.01848893e-01, 5.37463963e-01, 1.69435352e-01, 1.12099692e-01,
          5.37463963e-01, 5.37463963e-01, 2.67713100e-01, 9.61762443e-02,
          1.83323547e-02, 7.41565377e-02, 3.66209984e-01, 2.15205416e-01,
          2.85579592e-01, 3.66209984e-01, 3.66209984e-01, 3.66209984e-01,
          3.66209984e-01, 2.52613634e-01, 3.66209984e-01, 4.45184231e-01,
          3.79875392e-01, 2.96731263e-01, 4.45184231e-01, 4.45184231e-01,
          8.73341784e-02, 8.35441425e-02, 7.59723112e-02, 3.85035992e-01,
          5.84611073e-02, 1.06204692e-02, 2.29763821e-01, 6.57369792e-01,
          6.57369792e-01, 9.25905854e-02, 1.40523538e-01, 1.62506804e-01,
          1.34598538e-01, 5.58317639e-02, 2.50326693e-02, 4.59067345e-01,
          6.23619854e-01, 6.23619854e-01, 2.18080152e-02, 1.57052353e-02,
          1.52046382e-02, 2.30247136e-02, 3.83926600e-01, 2.00669825e-01,
          3.83926600e-01, 3.83926600e-01, 3.83926600e-01, 2.44822457e-01,
          1.07517980e-01, 3.83926600e-01, 3.83926600e-01, 3.15106362e-01,
          3.33088011e-01, 3.35178316e-01, 3.35178316e-01, 3.35178316e-01,
          3.35178316e-01, 3.35178316e-01, 3.35178316e-01, 3.35178316e-01,
          2.77848244e-01, 1.40754044e-01, 4.21334535e-01, 6.67520881e-01,
          4.81987000e-01, 7.21800327e-02, 8.67884383e-02, 5.59134819e-02,
          1.58233494e-01 ]
      - [ 2.59785689e-02, 6.63220212e-02, 4.87654470e-02, 2.24487670e-02,
          8.63284394e-02, 6.88407779e-01, 6.88407779e-01, 1.72523886e-01,
          1.20297084e-02, 3.96236867e-01, 3.96236867e-01, 3.96236867e-01,
          2.49571458e-01, 2.36052111e-01, 3.96236867e-01, 3.96236867e-01,
          1.79461628e-01, 2.46597126e-01, 6.23842776e-01, 6.63100183e-01,
          2.10155755e-01, 2.39827540e-02, 6.29198253e-02, 2.29515702e-01,
          2.33792379e-01, 8.52443129e-02, 3.45823169e-02, 2.19544917e-01,
          5.10597646e-01, 3.92676145e-01, 7.43122771e-02, 2.01291610e-02,
          5.10597646e-01, 5.10597646e-01, 6.49160817e-02, 1.53193567e-02,
          6.25111759e-01, 6.25111759e-01, 3.94858658e-01, 7.27071092e-02,
          2.50439122e-02, 8.39792490e-02, 1.96137607e-01, 5.59593849e-02,
          4.18133661e-02, 6.66760802e-01, 6.66760802e-01, 1.04874410e-01,
          3.04364990e-02, 1.47159165e-02, 1.80895105e-01, 2.37796783e-01,
          5.18994965e-02, 9.90569592e-03, 4.60274190e-01, 4.60274190e-01,
          4.60274190e-01, 3.03702831e-01, 5.86039238e-02, 1.46657303e-01,
          3.13788086e-01, 2.59374261e-01, 2.77361780e-01, 4.93816316e-01,
          7.59299159e-01, 3.84370595e-01, 8.94706044e-03, 4.60377242e-03,
          1.31924912e-01, 8.08487982e-02, 1.51666850e-02, 4.34493506e-03,
          4.74956244e-01, 4.74956244e-01, 2.52853423e-01, 1.05875162e-02,
          8.78338702e-03, 4.74956244e-01, 4.74956244e-01, 1.63503557e-01,
          4.54403348e-02 ]
      - [ 4.95978266e-01, 4.95978266e-01, 4.95978266e-01, 4.95978266e-01,
          9.31252763e-02, 4.28234152e-02, 2.74101691e-03, 3.31374700e-03,
          2.33226065e-02, 2.53578693e-01, 4.24679518e-01, 4.24679518e-01,
          4.24679518e-01, 4.24679518e-01, 4.24679518e-01, 8.98529217e-03,
          2.12376565e-02, 1.70764148e-01, 2.73689628e-01, 1.50636807e-01,
          3.16391677e-01, 5.32792985e-01, 5.32792985e-01, 3.61985505e-01,
          8.56083760e-04, 8.46700892e-02, 3.01725268e-01, 4.60329771e-01,
          4.60329771e-01, 4.60329771e-01, 4.60329771e-01, 1.64476082e-01,
          1.14676982e-01, 3.12735364e-02, 5.75605147e-02, 3.21393162e-01,
          4.38914627e-01, 2.29962498e-01, 2.13445812e-01, 2.75198519e-01,
          4.38914627e-01, 4.38914627e-01, 9.70228463e-02, 2.03573212e-01,
          4.38914627e-01, 5.03584564e-01, 1.16765730e-01, 1.01529667e-03,
          3.58309001e-01, 5.03584564e-01, 2.61451572e-01, 5.88265015e-03,
          1.54162943e-01, 5.03584564e-01, 4.84266818e-01, 2.78986037e-01,
          1.28630936e-01, 3.49274203e-02, 2.39655226e-02, 6.45677969e-02,
          4.37353253e-01, 4.84266818e-01, 4.84266818e-01, 3.99074048e-01,
          1.74447298e-01, 4.44159321e-02, 8.97113904e-02, 3.99074048e-01,
          3.99074048e-01, 3.99074048e-01, 3.99074048e-01, 3.99074048e-01,
          5.00218749e-01, 5.00218749e-01, 4.32831720e-02, 3.68854642e-01,
          5.00218749e-01, 7.21822754e-02, 1.20738512e-02, 3.47021185e-02,
          3.16006839e-01 ]
      - [ 4.40493494e-01, 3.37869823e-01, 1.04683720e-01, 4.40493494e-01,
          4.40493494e-01, 3.07141036e-01, 0., 3.38601600e-03,
          4.40493494e-01, 4.36995804e-01, 4.36995804e-01, 1.43407404e-01,
          4.36995804e-01, 4.11787599e-01, 2.04026297e-01, 0.,
          3.46424384e-03, 4.36995804e-01, 4.91134167e-01, 4.91134167e-01,
          1.42271221e-01, 4.91134167e-01, 4.47274745e-01, 2.22363263e-01,
          3.53370272e-02, 0., 2.15966888e-02, 1.87667739e-02,
          1.09635480e-02, 1.63734108e-02, 6.85829461e-01, 6.85829461e-01,
          2.23446146e-01, 3.67591693e-03, 9.98699179e-05, 4.18002903e-02,
          6.79662898e-02, 4.44485173e-02, 6.10427186e-02, 7.00190246e-01,
          7.00190246e-01, 2.83430610e-02, 4.94378328e-04, 8.23580194e-04,
          3.67710516e-02, 4.85628136e-02, 7.70711526e-02, 5.09194471e-02,
          7.00437546e-01, 7.00437546e-01, 2.94581819e-02, 2.01606471e-03,
          3.57128587e-03, 2.59158923e-03, 2.76985224e-02, 2.45941919e-03,
          2.61315014e-02, 5.49836814e-01, 5.49836814e-01, 5.49836814e-01,
          1.93501592e-01, 7.58485049e-02, 2.07112566e-01, 2.48265918e-02,
          4.94656116e-02, 2.77388871e-01, 6.74931109e-01, 6.74931109e-01,
          3.80160026e-02, 1.72698833e-02, 1.54590048e-02, 1.44143440e-02,
          8.90443847e-02, 2.11693998e-02, 1.31612629e-01, 6.93285942e-01,
          6.93285942e-01, 2.33622566e-02, 2.18742769e-02, 5.81991635e-02,
          4.09659110e-02 ]
      - [ 1.86924353e-01, 1.79026853e-02, 8.21300521e-02, 6.86006546e-01,
          6.86006546e-01, 8.39716941e-03, 7.70293782e-03, 1.19302869e-02,
          9.83008742e-02, 4.35226381e-01, 2.41297577e-02, 1.42988518e-01,
          5.02296150e-01, 5.02296150e-01, 1.43251166e-01, 4.52273525e-02,
          7.11527988e-02, 5.02296150e-01, 4.39491332e-01, 7.99719840e-02,
          4.22895961e-02, 9.64953080e-02, 4.39491332e-01, 4.39491332e-01,
          4.39491332e-01, 1.11137502e-01, 4.39491332e-01, 2.34947249e-01,
          6.20148890e-03, 2.84009296e-02, 6.69062495e-01, 6.69062495e-01,
          2.36843079e-02, 4.62413809e-05, 2.09023133e-02, 2.02455446e-01,
          5.16339503e-02, 5.05624451e-02, 1.62249684e-01, 6.91984296e-01,
          6.91984296e-01, 1.01112826e-02, 1.80733111e-03, 2.05597910e-03,
          6.12395555e-02, 3.14747822e-03, 4.98288758e-02, 3.79168510e-01,
          5.73304594e-01, 5.73304594e-01, 1.80257991e-01, 3.92823875e-01,
          6.18935712e-02, 4.78164060e-03, 4.80892152e-01, 5.36069572e-02,
          7.97831826e-03, 2.49468952e-01, 4.82539266e-01, 4.82539266e-01,
          1.03344081e-03, 1.47463335e-02, 4.82539266e-01, 6.14983551e-02,
          1.04620062e-01, 5.38550556e-01, 5.38550556e-01, 5.38550556e-01,
          3.21937233e-01, 1.67745457e-03, 2.39594514e-03, 7.83088431e-02,
          5.63079864e-02, 1.77889720e-01, 5.65510571e-01, 5.65510571e-01,
          5.65510571e-01, 9.64188296e-03, 4.71263472e-03, 2.92909611e-03,
          2.69479793e-03 ]
      - [ 4.06661123e-01, 4.06661123e-01, 4.06661123e-01, 4.06661123e-01,
          5.45860380e-02, 1.79800461e-03, 2.67402790e-02, 4.06661123e-01,
          4.06661123e-01, 6.13120019e-01, 4.54622000e-01, 1.51804790e-01,
          6.39949813e-02, 1.81682691e-01, 2.39303447e-02, 4.64620767e-03,
          1.10349029e-01, 5.81688106e-01, 6.36002541e-01, 1.65109217e-01,
          1.47094755e-02, 2.82110516e-02, 3.34045202e-01, 2.11270332e-01,
          2.95843161e-03, 1.21759493e-02, 6.36002541e-01, 9.13515761e-02,
          4.43792582e-01, 5.13014972e-01, 5.13014972e-01, 5.13014972e-01,
          4.78654983e-04, 0., 0., 5.13011729e-03, 9.33429077e-02,
          9.34268683e-02, 2.25927278e-01, 6.78252876e-01, 6.78252876e-01,
          6.78181648e-02, 0., 0., 9.56143346e-03, 2.49247886e-02,
          2.25196918e-03, 4.68909042e-03, 1.29110575e-01, 6.97650850e-01,
          6.97650850e-01, 2.85082933e-04, 2.16524163e-03, 4.77440916e-02,
          4.37755972e-01, 4.22734410e-01, 4.37755972e-01, 4.37755972e-01,
          2.21610725e-01, 2.65534571e-03, 0., 3.58208679e-02,
          4.37755972e-01, 1.67655319e-01, 4.40729558e-02, 3.19388628e-01,
          5.28161287e-01, 5.28161287e-01, 1.43610880e-01, 0.,
          7.19604865e-02, 5.28161287e-01, 7.14012310e-02, 2.87617072e-02,
          1.06484164e-02, 6.87638402e-01, 6.87638402e-01, 1.65852144e-01,
          0., 8.82096402e-03, 1.17553674e-01 ]
      - [ 4.24475431e-01, 3.60474497e-01, 1.46498948e-01, 1.31951541e-01,
          4.24475431e-01, 3.05492908e-01, 1.13583557e-01, 4.24475431e-01,
          4.24475431e-01, 4.26634073e-01, 4.26634073e-01, 4.26634073e-01,
          4.26634073e-01, 1.79788306e-01, 6.77900761e-02, 7.26089776e-02,
          2.08479285e-01, 4.26634073e-01, 4.37789112e-01, 2.47992992e-01,
          2.86692142e-01, 3.79691422e-01, 2.54013002e-01, 1.43414170e-01,
          2.18403891e-01, 4.37789112e-01, 4.37789112e-01, 6.27237111e-02,
          6.02262169e-02, 2.49348164e-01, 3.94065559e-01, 4.50285971e-01,
          4.50285971e-01, 3.53817433e-01, 4.50285971e-01, 1.92404553e-01,
          4.64486852e-02, 2.27659628e-01, 4.84448105e-01, 4.84448105e-01,
          4.84448105e-01, 4.84448105e-01, 1.64110195e-02, 3.98290120e-02,
          2.36522425e-02, 1.47638604e-01, 3.76278669e-01, 3.76278669e-01,
          3.76278669e-01, 3.76278669e-01, 3.76278669e-01, 3.76278669e-01,
          2.99948156e-01, 1.86978161e-01, 2.22679839e-01, 2.66494397e-02,
          1.02049872e-01, 2.37878501e-01, 4.59888309e-01, 4.59888309e-01,
          1.79222256e-01, 4.59888309e-01, 4.59888309e-01, 3.51839513e-01,
          3.51839513e-01, 3.51839513e-01, 3.51839513e-01, 3.51839513e-01,
          3.51839513e-01, 7.84631968e-02, 3.51839513e-01, 3.51839513e-01,
          6.83759749e-02, 5.05532205e-01, 5.05532205e-01, 2.08125263e-01,
          2.10772499e-01, 2.69312918e-01, 5.05532205e-01, 2.49565691e-01,
          3.21523845e-02 ]
      - [ 4.94135529e-01, 4.94135529e-01, 4.94135529e-01, 7.58985728e-02,
          4.55498695e-03, 8.09811875e-02, 7.34723583e-02, 2.54470166e-02,
          4.94135529e-01, 5.16503572e-01, 5.16503572e-01, 7.21580461e-02,
          2.25851219e-02, 5.37207071e-03, 9.71022099e-02, 3.15883577e-01,
          2.82057971e-01, 5.16503572e-01, 2.63438195e-01, 1.16831020e-01,
          2.45767012e-01, 1.65259957e-01, 4.12506796e-02, 1.57329693e-01,
          5.60273826e-01, 5.60273826e-01, 4.11553234e-01, 8.93215835e-02,
          2.34830856e-01, 6.28586352e-01, 6.28586352e-01, 2.77746350e-01,
          1.59006268e-01, 7.39749894e-02, 1.18703134e-01, 1.35535657e-01,
          2.17548415e-01, 2.00521275e-02, 1.09297015e-01, 4.20373738e-01,
          4.30593878e-01, 4.30593878e-01, 4.30593878e-01, 3.07901531e-01,
          3.29048336e-01, 8.16808268e-02, 4.58835177e-02, 8.39747339e-02,
          7.98654407e-02, 4.63085949e-01, 4.63085949e-01, 4.63085949e-01,
          4.63085949e-01, 3.39665771e-01, 5.26473701e-01, 2.20054299e-01,
          5.26473701e-01, 5.26473701e-01, 1.78672403e-01, 5.94925061e-02,
          2.89121047e-02, 1.36860773e-01, 2.44468570e-01, 3.38752806e-01,
          3.38752806e-01, 3.38752806e-01, 3.38752806e-01, 3.38752806e-01,
          3.38752806e-01, 2.80334890e-01, 3.38752806e-01, 3.38752806e-01,
          3.73197287e-01, 2.61387080e-01, 1.16672672e-01, 2.61608362e-01,
          4.03378397e-01, 4.03378397e-01, 2.35505670e-01, 4.03378397e-01,
          4.03378397e-01 ]
      - [ 3.75561625e-01, 3.75561625e-01, 3.75561625e-01, 3.75561625e-01,
          6.23769648e-02, 7.09324777e-02, 3.75561625e-01, 3.75561625e-01,
          3.75561625e-01, 7.53481686e-02, 3.84052187e-01, 3.84052187e-01,
          3.84052187e-01, 3.84052187e-01, 1.40464157e-01, 3.84052187e-01,
          3.84052187e-01, 2.92880863e-01, 2.02322483e-01, 4.21218306e-01,
          4.21218306e-01, 4.21218306e-01, 4.21218306e-01, 4.21218306e-01,
          1.52882889e-01, 8.77825264e-03, 2.10435927e-01, 4.07744557e-01,
          4.07744557e-01, 4.07744557e-01, 1.97483972e-01, 2.31145099e-02,
          6.18537739e-02, 3.48264903e-01, 4.07744557e-01, 4.07744557e-01,
          2.85044730e-01, 4.49140310e-01, 2.68506318e-01, 1.10125460e-01,
          8.37598294e-02, 1.26948714e-01, 4.49140310e-01, 4.49140310e-01,
          4.49140310e-01, 3.88262659e-01, 3.88298482e-01, 3.88298482e-01,
          3.88298482e-01, 2.89042562e-01, 8.32947791e-02, 3.17921601e-02,
          3.88298482e-01, 3.88298482e-01, 4.39110756e-01, 4.39110756e-01,
          2.38255709e-02, 1.02484087e-02, 9.68975388e-03, 1.75373435e-01,
          4.39110756e-01, 4.39110756e-01, 4.39110756e-01, 4.24841166e-01,
          4.24841166e-01, 1.55385837e-01, 7.41152093e-03, 8.44203110e-04,
          2.62879312e-01, 4.24841166e-01, 4.24841166e-01, 4.24841166e-01,
          5.00927269e-01, 5.00927269e-01, 3.12777311e-01, 9.78100821e-02,
          4.70040679e-01, 2.41403326e-01, 1.18352465e-01, 1.64309353e-01,
          2.55979776e-01 ]
      - [ 5.07640064e-01, 2.78022513e-02, 1.05411083e-01, 5.07640064e-01,
          3.13824475e-01, 2.43223995e-01, 8.59835893e-02, 2.11927816e-01,
          5.07640064e-01, 2.64744371e-01, 8.14169347e-02, 1.43171232e-02,
          5.47650516e-01, 5.47650516e-01, 5.80528826e-02, 4.01568562e-02,
          1.13409959e-01, 5.47650516e-01, 4.16830510e-01, 1.22960791e-01,
          2.46770307e-02, 6.18845165e-01, 6.18845165e-01, 1.25777943e-03,
          0., 2.10428657e-03, 1.95960686e-01, 6.96827590e-01,
          1.11618042e-01, 5.44888377e-02, 5.33657288e-03, 4.90700305e-02,
          4.98682521e-02, 9.87397134e-03, 3.81878801e-02, 6.96827590e-01,
          6.98873103e-01, 3.65875167e-04, 1.11181615e-03, 2.18968857e-02,
          1.14086211e-01, 3.64408977e-02, 8.59553088e-03, 3.57461162e-02,
          6.98873103e-01, 6.49931848e-01, 0., 0., 1.27863571e-01,
          3.63349408e-01, 1.76844466e-02, 3.07794719e-04, 1.92453235e-03,
          6.49931848e-01, 4.55252796e-01, 1.70238584e-01, 3.70454520e-01,
          4.55252796e-01, 4.55252796e-01, 1.46453455e-02, 0., 0.,
          4.55252796e-01, 5.37915409e-01, 8.35084124e-04, 7.45969638e-03,
          1.21566936e-01, 5.37915409e-01, 3.34046155e-01, 1.21361511e-02,
          0., 5.37915409e-01, 5.49810529e-01, 0., 0., 1.98309332e-01,
          5.49810529e-01, 2.19776198e-01, 2.55742460e-03, 0.,
          5.49810529e-01 ]
      - [ 4.45843905e-01, 4.45843905e-01, 4.45843905e-01, 4.45843905e-01,
          4.75732610e-02, 6.47260919e-02, 4.24273580e-01, 1.02527693e-01,
          5.88782243e-02, 4.29868311e-01, 4.29868311e-01, 2.38578081e-01,
          5.69471978e-02, 9.50097665e-02, 5.08213416e-02, 4.29868311e-01,
          4.29868311e-01, 4.29868311e-01, 3.91155452e-01, 3.58058870e-01,
          3.91155452e-01, 3.91155452e-01, 2.23485216e-01, 6.57155812e-02,
          2.20474333e-01, 3.91155452e-01, 3.91155452e-01, 1.24591952e-02,
          4.97608870e-01, 4.97608870e-01, 4.97608870e-01, 2.33729333e-01,
          2.97723979e-01, 3.27526778e-01, 3.81466225e-02, 5.77105256e-03,
          2.60281742e-01, 4.13296223e-01, 4.13296223e-01, 2.38035262e-01,
          1.75392359e-01, 2.83592790e-01, 4.13296223e-01, 4.13296223e-01,
          2.77527779e-01, 3.50955427e-01, 3.50955427e-01, 3.50955427e-01,
          3.26784104e-01, 1.65884808e-01, 3.50955427e-01, 3.50955427e-01,
          3.50955427e-01, 3.50955427e-01, 8.25587884e-02, 5.26661575e-01,
          5.26661575e-01, 5.26661575e-01, 7.95402974e-02, 2.81448096e-01,
          1.75080389e-01, 1.94911718e-01, 4.02964391e-02, 2.05694120e-02,
          5.05449116e-01, 5.05449116e-01, 2.81834573e-01, 2.52160951e-02,
          3.24545652e-01, 5.05449116e-01, 2.05641717e-01, 2.01907028e-02,
          2.76672523e-02, 1.40039086e-01, 4.33779448e-01, 4.33779448e-01,
          3.52555364e-01, 4.33779448e-01, 4.33779448e-01, 3.09913814e-01,
          4.78573851e-02 ]
      - [ 7.00396299e-01, 5.62470295e-02, 2.81464588e-02, 3.49545963e-02,
          8.04052949e-02, 1.54644493e-02, 1.34358974e-03, 3.82430549e-03,
          7.00396299e-01, 7.01655746e-01, 7.21763223e-02, 3.62963881e-03,
          3.49698612e-03, 5.55170514e-02, 4.55899490e-03, 1.43999315e-03,
          3.80426506e-03, 7.01655746e-01, 7.01779842e-01, 8.88403505e-02,
          3.82464932e-05, 2.85478635e-03, 8.47763754e-03, 3.30106239e-03,
          8.77265702e-04, 4.50790208e-03, 7.01779842e-01, 5.17062843e-01,
          6.79978132e-02, 1.29147738e-01, 5.17062843e-01, 5.17062843e-01,
          2.18732865e-03, 0., 0., 4.14085150e-01, 5.14017940e-01,
          4.04864401e-02, 3.52058746e-02, 5.14017940e-01, 5.14017940e-01,
          2.12923288e-01, 5.88218821e-03, 0., 3.92394781e-01,
          4.57691848e-01, 3.03012300e-02, 9.20501444e-03, 9.85300243e-02,
          6.15428627e-01, 6.15428627e-01, 1.75805818e-02, 2.83394828e-02,
          1.22659199e-01, 6.45407569e-03, 1.29430350e-02, 9.65233296e-02,
          7.00861096e-01, 7.00861096e-01, 2.47958973e-02, 9.77742113e-03,
          4.67990572e-03, 1.82481166e-02, 1.68287642e-02, 3.04984972e-02,
          2.79977415e-02, 6.20653808e-01, 6.62038743e-01, 3.67360324e-01,
          9.00114179e-02, 1.53676629e-01, 3.48531194e-02, 1.50200561e-01,
          4.92277257e-02, 2.61536390e-02, 5.57216890e-02, 6.80798888e-01,
          6.80798888e-01, 4.90910634e-02, 6.14284091e-02, 1.76843524e-01 ]
      - [ 5.68338275e-01, 5.68338275e-01, 5.68338275e-01, 8.90116319e-02,
          4.31690514e-02, 0., 0., 0., 1.24550641e-01, 5.35098612e-01,
          5.35098612e-01, 3.34926814e-01, 1.31039873e-01, 7.21297786e-02,
          2.66565084e-02, 6.53916039e-03, 1.90022402e-02, 5.35098612e-01,
          5.00522852e-01, 1.88418046e-01, 1.14678945e-02, 7.68926963e-02,
          2.06044436e-01, 5.00522852e-01, 3.81379724e-01, 1.18243217e-01,
          5.00522852e-01, 6.64699197e-01, 4.79160339e-01, 1.41552851e-01,
          8.32296908e-02, 5.98845184e-02, 0., 1.00198877e-03,
          1.24373659e-03, 5.39806724e-01, 6.97705626e-01, 1.13755591e-01,
          5.36473133e-02, 4.81243804e-02, 1.98053252e-02, 1.44649772e-02,
          9.25888307e-03, 2.50491481e-02, 6.97705626e-01, 6.51872575e-01,
          7.03069149e-03, 1.68699329e-03, 9.02148522e-03, 9.73244663e-03,
          7.83034787e-02, 3.49906385e-02, 3.68825108e-01, 6.51872575e-01,
          5.49502730e-01, 5.49502730e-01, 2.78836608e-01, 1.03336506e-01,
          3.92221957e-01, 2.47373641e-01, 8.92270207e-02, 6.43009767e-02,
          2.73952663e-01, 4.84180540e-01, 5.04466519e-02, 8.73069167e-02,
          1.20150648e-01, 4.84180540e-01, 4.84180540e-01, 2.43504807e-01,
          2.14226127e-01, 4.02592391e-01, 9.06645209e-02, 3.20088305e-03,
          5.61189698e-03, 1.63650382e-02, 5.02258182e-01, 5.02258182e-01,
          1.14197895e-01, 5.02258182e-01, 4.65427935e-01 ]
      - [ 3.29516202e-01, 5.41869938e-01, 5.41869938e-01, 2.34396160e-01,
          2.78125614e-01, 3.97829622e-01, 7.18135685e-02, 1.69273671e-02,
          5.24788089e-02, 2.12576002e-01, 7.80760422e-02, 8.67450908e-02,
          3.96367460e-01, 3.96367460e-01, 3.96367460e-01, 3.96367460e-01,
          3.96367460e-01, 3.89480948e-01, 4.12734896e-01, 9.22077000e-02,
          5.29442951e-02, 1.10759325e-01, 4.12734896e-01, 4.12734896e-01,
          4.12734896e-01, 3.47207934e-01, 4.12734896e-01, 2.00953469e-01,
          4.11712319e-01, 2.54327118e-01, 2.12873414e-01, 4.90941137e-01,
          4.90941137e-01, 4.36640918e-01, 4.49118540e-02, 2.21612230e-02,
          1.26284346e-01, 1.51803121e-02, 5.11713661e-02, 5.36537111e-01,
          5.36537111e-01, 5.36537111e-01, 3.22217971e-01, 5.69485016e-02,
          7.18444958e-02, 1.35934263e-01, 1.62779823e-01, 1.26625150e-01,
          2.67928988e-01, 5.48180282e-01, 5.48180282e-01, 3.53552550e-01,
          2.87255436e-01, 2.30677456e-01, 4.07546848e-01, 3.40919673e-01,
          8.39717090e-02, 1.55423701e-01, 4.07546848e-01, 4.07546848e-01,
          4.07546848e-01, 4.05916840e-01, 1.39098600e-01, 1.81634083e-01,
          3.88165802e-01, 3.88165802e-01, 2.74782330e-01, 3.88165802e-01,
          3.88165802e-01, 3.88165802e-01, 3.51713508e-01, 1.02761477e-01,
          2.33538419e-01, 3.46598625e-01, 3.46598625e-01, 3.46598625e-01,
          3.46598625e-01, 3.46598625e-01, 3.17934841e-01, 3.46598625e-01,
          3.46598625e-01 ]
      - [ 2.56649256e-01, 2.21360192e-01, 2.44883940e-01, 3.94749165e-01,
          3.94749165e-01, 3.53994519e-01, 3.92510295e-01, 3.94749165e-01,
          2.72693783e-01, 4.09585238e-01, 1.91750884e-01, 2.58221254e-02,
          2.84440160e-01, 4.09585238e-01, 1.96892604e-01, 4.09585238e-01,
          4.09585238e-01, 4.09585238e-01, 3.68741512e-01, 6.70753196e-02,
          3.75298671e-02, 1.66626364e-01, 2.15567440e-01, 3.95466872e-02,
          4.68448400e-01, 5.28018713e-01, 5.28018713e-01, 3.48212868e-01,
          3.46511990e-01, 1.66388497e-01, 3.48212868e-01, 3.48212868e-01,
          3.48212868e-01, 3.48212868e-01, 3.48212868e-01, 3.48212868e-01,
          6.40331730e-02, 2.32093856e-02, 7.81482644e-03, 4.85365540e-01,
          4.85365540e-01, 4.85365540e-01, 4.85365540e-01, 2.15669811e-01,
          4.02477495e-02, 1.47617059e-02, 7.24069262e-03, 1.97144076e-01,
          4.78168070e-01, 4.78168070e-01, 1.87038749e-01, 4.78168070e-01,
          4.78168070e-01, 8.07811171e-02, 3.71151268e-01, 7.54966438e-02,
          1.09855294e-01, 2.58350372e-01, 3.93396407e-01, 3.93396407e-01,
          3.93396407e-01, 3.93396407e-01, 3.93396407e-01, 7.26212263e-02,
          8.07211846e-02, 1.04486733e-03, 1.44999385e-01, 4.78077382e-01,
          4.78077382e-01, 4.78077382e-01, 4.78077382e-01, 2.19493881e-01,
          3.43366861e-02, 8.16279426e-02, 4.37290400e-01, 4.37290400e-01,
          4.37290400e-01, 3.60941917e-01, 3.88651967e-01, 3.53331387e-01,
          8.91553164e-02 ]
      - [ 4.93729636e-02, 4.25077885e-01, 4.25077885e-01, 1.02553099e-01,
          1.30751446e-01, 2.49493197e-01, 4.25077885e-01, 4.25077885e-01,
          4.25077885e-01, 4.54831034e-01, 4.54831034e-01, 4.54831034e-01,
          1.09600842e-01, 2.41982579e-01, 2.76817888e-01, 4.54831034e-01,
          1.43681854e-01, 1.14636701e-02, 2.05214247e-01, 4.45683450e-01,
          4.45683450e-01, 2.06446886e-01, 1.51162297e-01, 1.63057312e-01,
          4.45683450e-01, 4.45683450e-01, 2.58538842e-01, 4.20639604e-01,
          4.20639604e-01, 6.84570223e-02, 1.17172115e-02, 5.11958711e-02,
          3.21970224e-01, 4.20639604e-01, 4.20639604e-01, 4.20639604e-01,
          4.79503870e-01, 4.79503870e-01, 3.89929175e-01, 1.38792574e-01,
          2.52318293e-01, 4.63417113e-01, 2.48708367e-01, 1.22241288e-01,
          9.40001383e-02, 1.95392504e-01, 3.78571600e-01, 3.78571600e-01,
          3.57887000e-01, 2.71347046e-01, 1.99361652e-01, 3.78571600e-01,
          3.78571600e-01, 3.78571600e-01, 3.91988486e-01, 1.93534657e-01,
          5.03263064e-02, 3.68593365e-01, 3.91988486e-01, 3.91988486e-01,
          2.27946490e-01, 3.91988486e-01, 3.91988486e-01, 4.09338802e-01,
          1.45043537e-01, 4.07272093e-02, 3.10367256e-01, 4.09338802e-01,
          4.09338802e-01, 3.20345789e-01, 3.22540194e-01, 4.09338802e-01,
          1.59699216e-01, 3.78143847e-01, 4.24778759e-01, 4.24778759e-01,
          4.24778759e-01, 4.24778759e-01, 9.66665521e-02, 1.30684033e-01,
          2.81228095e-01 ]
      - [ 5.89044131e-02, 3.87575895e-01, 3.87575895e-01, 3.87575895e-01,
          3.87575895e-01, 3.87575895e-01, 3.87575895e-01, 3.02177370e-01,
          7.52524193e-03, 4.02742982e-01, 2.82414466e-01, 4.07286167e-01,
          2.82636434e-01, 4.62728739e-02, 9.17538553e-02, 4.07286167e-01,
          4.07286167e-01, 4.07286167e-01, 6.35696769e-01, 2.21572548e-01,
          9.45621729e-03, 2.18205694e-02, 7.40870610e-02, 8.47270712e-02,
          1.45852327e-01, 3.19111466e-01, 6.35696769e-01, 1.64940745e-01,
          4.88474220e-01, 4.88474220e-01, 2.33590513e-01, 4.88474220e-01,
          4.07987833e-01, 1.72071248e-01, 3.66384424e-02, 1.11864461e-02,
          5.74604213e-01, 5.74604213e-01, 4.96298969e-01, 6.80492073e-02,
          5.64611144e-03, 1.28808454e-01, 9.37271491e-02, 6.40723854e-02,
          2.31225774e-01, 6.82585120e-01, 2.44923919e-01, 1.52382895e-03,
          1.10446115e-03, 4.63324226e-03, 2.09889915e-02, 1.25637064e-02,
          2.70174481e-02, 6.82585120e-01, 2.45041829e-02, 6.06243670e-01,
          6.06243670e-01, 4.62266892e-01, 1.81489855e-01, 1.03795871e-01,
          2.96726935e-02, 0., 5.62563655e-04, 5.58349490e-01,
          5.58349490e-01, 5.58349490e-01, 2.30326243e-02, 3.83133395e-03,
          1.46159843e-01, 1.90617248e-01, 1.71369477e-03, 3.02710012e-02,
          5.58429003e-01, 5.58429003e-01, 8.85730460e-02, 0.,
          1.64050120e-03, 8.82787704e-02, 5.89821637e-02, 1.99435875e-01,
          5.58429003e-01 ]
      - [ 5.74096441e-01, 5.74096441e-01, 0., 6.13051876e-02,
          2.96628252e-02, 1.72935762e-02, 6.46475470e-03, 2.29801871e-02,
          5.74096441e-01, 6.95468485e-01, 6.95468485e-01, 0.,
          2.06748419e-03, 7.20021722e-04, 4.39468829e-04, 4.61139204e-03,
          1.94815975e-02, 1.59055829e-01, 6.20445251e-01, 4.54030544e-01,
          2.35349359e-03, 6.67592627e-04, 3.19617032e-03, 1.33237736e-02,
          1.06316179e-01, 7.91210234e-02, 6.20445251e-01, 6.07871413e-01,
          6.07871413e-01, 1.77648632e-04, 4.09718929e-03, 2.89978925e-03,
          1.00525220e-04, 3.81818507e-03, 1.03524048e-02, 5.04745722e-01,
          5.22319496e-01, 5.22319496e-01, 0., 6.72177586e-04,
          1.49135792e-03, 3.34212370e-02, 3.19975168e-01, 2.69864529e-01,
          5.22319496e-01, 4.57798630e-01, 2.03397632e-01, 2.78673763e-03,
          2.90168822e-02, 8.79639909e-02, 3.27339143e-01, 4.57798630e-01,
          4.57798630e-01, 4.57798630e-01, 4.92029399e-01, 1.72441885e-01,
          3.28783179e-03, 2.90200561e-01, 4.92029399e-01, 3.75508696e-01,
          1.03555150e-01, 5.57951219e-02, 4.92029399e-01, 1.36647686e-01,
          1.18531268e-02, 0., 1.14456033e-02, 4.85977769e-01,
          5.24004340e-01, 5.24004340e-01, 3.93723369e-01, 1.88332692e-01,
          2.84216832e-03, 0., 7.60194380e-04, 1.13572218e-01,
          5.45253098e-01, 5.45253098e-01, 5.45253098e-01, 2.92245537e-01,
          6.58586323e-02 ]
      - [ 4.63562012e-01, 4.63562012e-01, 3.42055559e-01, 1.32159829e-01,
          3.74970143e-03, 2.66059618e-02, 2.49123201e-02, 4.63562012e-01,
          4.63562012e-01, 4.40581858e-01, 4.40581858e-01, 4.05702710e-01,
          5.86562641e-02, 1.46682993e-01, 2.29132146e-01, 1.16507418e-01,
          3.97033244e-01, 4.40581858e-01, 4.21780914e-01, 2.58452177e-01,
          7.06210732e-02, 4.21780914e-01, 4.21780914e-01, 4.21780914e-01,
          8.57545137e-02, 1.64779037e-01, 4.21780914e-01, 4.18389142e-01,
          3.29184562e-01, 4.18389142e-01, 4.18389142e-01, 2.55812764e-01,
          8.43744725e-02, 2.18587458e-01, 2.58690149e-01, 4.18389142e-01,
          3.27702016e-01, 1.32591978e-01, 2.26390496e-01, 4.21849817e-01,
          2.90141046e-01, 2.09057003e-01, 3.97247583e-01, 4.21849817e-01,
          4.21849817e-01, 4.21473086e-01, 3.81625742e-01, 3.31800610e-01,
          2.20075727e-01, 3.44624341e-01, 1.76246777e-01, 9.42282751e-02,
          4.21473086e-01, 4.21473086e-01, 4.22341198e-01, 4.22341198e-01,
          2.33776361e-01, 3.66594285e-01, 1.19707517e-01, 8.95816535e-02,
          2.66261399e-01, 4.22341198e-01, 4.22341198e-01, 3.89014125e-01,
          3.28309238e-01, 3.19782436e-01, 3.89014125e-01, 3.79214376e-01,
          1.26962289e-01, 1.44274428e-01, 3.89014125e-01, 3.89014125e-01,
          4.47830975e-01, 4.47830975e-01, 4.47830975e-01, 2.24510297e-01,
          3.20444942e-01, 4.15059738e-02, 6.51249215e-02, 1.85101897e-01,
          4.47830975e-01 ]
      - [ 5.25519788e-01, 5.25519788e-01, 3.32832038e-02, 3.37132020e-03,
          1.00526458e-03, 4.69286414e-03, 1.39458198e-02, 4.06081289e-01,
          5.25519788e-01, 6.18773341e-01, 3.21225673e-01, 8.15262944e-02,
          1.94003545e-02, 2.51040217e-02, 4.26003225e-02, 3.01299989e-01,
          1.56925112e-01, 6.18773341e-01, 5.54816484e-01, 1.48734391e-01,
          7.57904258e-03, 4.12059162e-04, 2.07211869e-03, 1.19309269e-01,
          4.98944134e-01, 3.05701017e-01, 5.54816484e-01, 5.25951743e-01,
          5.25951743e-01, 5.25951743e-01, 1.96843207e-01, 1.98444992e-01,
          1.38958365e-01, 1.62285388e-01, 1.52545497e-01, 1.33521244e-01,
          3.76056284e-01, 2.77608782e-01, 2.15665177e-01, 1.55417725e-01,
          3.76056284e-01, 3.76056284e-01, 3.76056284e-01, 3.76056284e-01,
          3.76056284e-01, 4.56454188e-01, 4.56454188e-01, 4.56454188e-01,
          2.46431269e-02, 3.49652469e-02, 1.28205195e-01, 3.54440123e-01,
          2.93866307e-01, 3.74349982e-01, 4.89849567e-01, 4.89849567e-01,
          2.36925349e-01, 3.44612241e-01, 4.89849567e-01, 2.82383382e-01,
          4.56203409e-02, 1.46821178e-02, 1.35356709e-01, 4.02913719e-01,
          1.22308083e-01, 4.87198569e-02, 6.78610057e-02, 4.02913719e-01,
          4.02913719e-01, 4.02913719e-01, 4.02913719e-01, 4.02913719e-01,
          1.95997909e-01, 4.46485370e-01, 4.46485370e-01, 1.60157129e-01,
          9.03031677e-02, 1.72022402e-01, 4.46485370e-01, 4.46485370e-01,
          3.10373127e-01 ]
      - [ 5.94895542e-01, 5.94895542e-01, 4.90960062e-01, 3.32141854e-02,
          2.42257267e-02, 3.68552394e-02, 1.49547696e-01, 1.25549570e-01,
          6.35702908e-02, 1.98734388e-01, 3.48152637e-01, 2.82019954e-02,
          2.71793408e-03, 5.09173125e-02, 5.24775386e-01, 5.24775386e-01,
          5.24775386e-01, 6.70116618e-02, 1.99027527e-02, 4.10877615e-01,
          4.10877615e-01, 4.10877615e-01, 3.45503449e-01, 4.10877615e-01,
          4.10877615e-01, 1.78954214e-01, 0., 2.97734831e-02,
          5.40923774e-01, 5.80342233e-01, 5.80342233e-01, 1.08263202e-01,
          3.90535127e-03, 2.90255547e-02, 1.09833442e-01, 4.98367809e-02,
          5.74072897e-02, 1.44810125e-01, 2.17677101e-01, 4.07802984e-02,
          9.80430283e-03, 8.68824795e-02, 6.38141811e-01, 6.38141811e-01,
          3.13404173e-01, 3.00373305e-02, 1.07960008e-01, 4.89249051e-01,
          4.89249051e-01, 6.81943372e-02, 1.35984853e-01, 4.89249051e-01,
          4.89249051e-01, 4.42151874e-02, 4.12453339e-03, 6.32202506e-01,
          6.32202506e-01, 4.37028706e-01, 5.68335615e-02, 9.88598564e-04,
          8.96858517e-03, 9.85146151e-04, 2.10318062e-03, 2.11063519e-01,
          4.70574230e-01, 4.70574230e-01, 7.54487235e-03, 0., 0.,
          4.70574230e-01, 4.70574230e-01, 2.54822761e-01, 1.93168834e-01,
          3.07345957e-01, 1.37884557e-01, 3.15041319e-02, 0., 0.,
          6.42276943e-01, 6.42276943e-01, 1.29490852e-01 ]
      - [ 6.19615257e-01, 1.74644105e-02, 4.97721252e-04, 3.27048488e-02,
          7.98129290e-02, 1.72614800e-05, 2.10997462e-02, 4.66666102e-01,
          6.19615257e-01, 5.02302706e-01, 8.14511180e-02, 3.22693586e-03,
          2.77550090e-02, 1.18955160e-02, 9.56547774e-06, 1.64594539e-02,
          6.05729520e-01, 6.05729520e-01, 5.74957788e-01, 5.74957788e-01,
          1.87061389e-03, 9.26447450e-04, 2.71180354e-04, 0.,
          3.02738249e-02, 4.01026905e-02, 5.74957788e-01, 5.70167780e-01,
          6.81934296e-04, 0., 5.98596176e-03, 1.66648962e-02, 0.,
          1.36815429e-01, 5.70167780e-01, 5.70167780e-01, 6.87234819e-01,
          4.91282297e-03, 0., 8.23292474e-04, 1.66297855e-03, 0.,
          8.45839083e-03, 2.20129445e-01, 6.87234819e-01, 6.99557841e-01,
          1.16126366e-01, 0., 0., 0., 0., 1.56611449e-03, 2.76848488e-02,
          6.99557841e-01, 6.41899586e-01, 4.12248969e-02, 4.07138839e-02,
          3.37730706e-01, 2.15307295e-01, 1.02025755e-02, 1.12723922e-02,
          7.42529780e-02, 6.41899586e-01, 6.99133515e-01, 1.91107839e-02,
          8.23659264e-03, 3.70164514e-02, 1.14376776e-01, 2.14481130e-02,
          2.06595566e-03, 9.80670564e-03, 6.99133515e-01, 6.67964876e-01,
          2.13305056e-01, 7.19167339e-03, 1.45398621e-02, 2.09942356e-01,
          1.05092257e-01, 9.74725559e-03, 0., 6.67964876e-01 ]
      - [ 3.09406489e-01, 6.49656713e-01, 6.49656713e-01, 2.13434145e-01,
          5.33877276e-02, 3.57050821e-02, 5.91898337e-02, 2.07527857e-02,
          7.78612262e-03, 4.01728004e-01, 4.01728004e-01, 4.01728004e-01,
          1.91780180e-02, 7.50696613e-03, 1.65076554e-01, 4.01728004e-01,
          4.01728004e-01, 4.01728004e-01, 4.00561571e-01, 4.00561571e-01,
          1.33874893e-01, 4.46543917e-02, 1.15691148e-01, 4.00561571e-01,
          4.00561571e-01, 4.00561571e-01, 4.00561571e-01, 3.18969131e-01,
          6.64801717e-01, 6.64801717e-01, 2.48816423e-02, 3.14457971e-03,
          1.41378201e-03, 1.54407611e-02, 2.82723475e-02, 7.76567534e-02,
          3.92896146e-01, 3.92896146e-01, 3.13856393e-01, 3.38180095e-01,
          2.16991842e-01, 1.45474588e-02, 3.44146103e-01, 3.92896146e-01,
          3.92896146e-01, 4.80298758e-01, 3.49361032e-01, 1.38467476e-01,
          1.83674544e-01, 3.46632063e-01, 1.56756677e-02, 8.96705985e-02,
          4.80027050e-01, 4.80298758e-01, 2.91209549e-01, 6.36929631e-01,
          6.36929631e-01, 6.21788278e-02, 7.60870054e-02, 2.20275581e-01,
          1.36240438e-01, 6.18607476e-02, 1.30054995e-01, 3.04150164e-01,
          2.80440122e-01, 2.37558976e-01, 2.89815187e-01, 3.70059937e-01,
          3.70059937e-01, 3.70059937e-01, 3.70059937e-01, 3.70059937e-01,
          2.66862303e-01, 4.13622290e-01, 4.13622290e-01, 4.13622290e-01,
          4.13622290e-01, 1.67098045e-01, 1.93065479e-01, 2.18983427e-01,
          3.56607944e-01 ]
      - [ 5.43960035e-01, 2.15909213e-01, 1.35584474e-01, 3.34727287e-01,
          3.28047693e-01, 2.17130274e-01, 8.97625983e-02, 2.50842988e-01,
          5.43960035e-01, 3.06765646e-01, 1.38373878e-02, 1.00739310e-02,
          5.68387471e-02, 1.03132777e-01, 4.71553326e-01, 4.71553326e-01,
          4.71553326e-01, 4.68974710e-01, 0., 0., 0., 0., 4.92036968e-01,
          4.92036968e-01, 4.92036968e-01, 4.92036968e-01, 1.63353294e-01,
          4.35155481e-01, 2.60503650e-01, 1.24198914e-01, 2.64880717e-01,
          4.35155481e-01, 4.35155481e-01, 1.98658630e-01, 2.12831885e-01,
          4.35155481e-01, 1.66139647e-01, 8.02468974e-03, 2.66444893e-03,
          2.18811855e-02, 8.87505263e-02, 4.89663184e-01, 4.89663184e-01,
          4.89663184e-01, 4.89663184e-01, 4.20173317e-01, 1.10007025e-01,
          2.35004067e-01, 1.34222522e-01, 1.66525096e-01, 4.20173317e-01,
          4.20173317e-01, 4.20173317e-01, 4.20173317e-01, 5.73133051e-01,
          5.73133051e-01, 8.06003213e-02, 5.05018746e-03, 2.83071641e-02,
          1.62211750e-02, 7.84868281e-03, 3.44161615e-02, 5.73133051e-01,
          6.68261170e-01, 4.26776037e-02, 2.01077759e-03, 9.73169110e-04,
          1.23872410e-03, 7.62749743e-03, 5.98175414e-02, 3.07763577e-01,
          6.68261170e-01, 5.99118292e-01, 1.47891361e-02, 2.00139061e-02,
          5.48975449e-03, 1.11719349e-03, 3.71834962e-03, 2.26401761e-02,
          5.24361730e-01, 5.99118292e-01 ]
      - [ 4.63994980e-01, 5.71284473e-01, 5.71284473e-01, 1.39137600e-02,
          1.81774218e-02, 2.32101977e-02, 2.09660947e-01, 2.51736671e-01,
          1.33716717e-01, 1.09367790e-02, 6.99299574e-01, 6.99299574e-01,
          1.19371682e-01, 0., 1.66012338e-04, 9.30468924e-03,
          2.28765644e-02, 6.02240791e-04, 1.17774606e-01, 4.35304493e-01,
          4.35304493e-01, 4.19661254e-01, 2.88832784e-01, 3.60372990e-01,
          4.35304493e-01, 1.20451033e-01, 9.69216451e-02, 4.07308877e-01,
          4.07308877e-01, 4.07308877e-01, 1.51794339e-02, 0.,
          1.72436684e-02, 4.07308877e-01, 4.07308877e-01, 4.07308877e-01,
          3.14207282e-03, 6.28083646e-01, 6.28083646e-01, 3.98094445e-01,
          7.30295479e-03, 3.46402153e-02, 1.42017528e-01, 1.57437459e-01,
          7.29166763e-03, 0., 1.00924991e-01, 4.46887404e-01,
          4.46887404e-01, 4.46887404e-01, 4.46887404e-01, 4.15657908e-01,
          1.14370160e-01, 2.57872194e-02, 2.40938761e-03, 1.61869735e-01,
          5.62452912e-01, 1.11911505e-01, 0., 7.01083317e-02,
          5.62452912e-01, 5.62452912e-01, 4.09463830e-02, 8.33151862e-03,
          2.57297903e-01, 6.18262470e-01, 6.18262470e-01, 4.18359004e-02,
          5.83004244e-02, 3.54692906e-01, 1.77240133e-01, 2.62323488e-02,
          2.74043769e-01, 2.29544699e-01, 4.03081715e-01, 4.03081715e-01,
          4.03081715e-01, 3.67695451e-01, 4.03081715e-01, 1.98504329e-01,
          2.08995908e-01 ]
      - [ 6.59073651e-01, 6.59073651e-01, 3.30697112e-02, 0.,
          2.46393215e-02, 1.92663223e-01, 4.64569815e-02, 0.,
          2.89285213e-01, 4.92558300e-01, 4.92558300e-01, 1.52285829e-01,
          1.24164246e-04, 3.47723216e-02, 4.92558300e-01, 4.92558300e-01,
          9.86436149e-04, 1.49912098e-02, 5.82110137e-02, 4.47700471e-01,
          3.98808658e-01, 1.76013857e-01, 4.47700471e-01, 4.47700471e-01,
          4.47700471e-01, 1.69248618e-02, 9.00787115e-03, 5.23224056e-01,
          5.23224056e-01, 3.94022973e-05, 4.76602018e-02, 3.18958551e-01,
          5.23224056e-01, 2.42322922e-01, 4.71176719e-03, 1.03613645e-01,
          3.06694537e-01, 2.58528799e-01, 1.81668103e-02, 3.92783284e-02,
          8.50162879e-02, 6.41404390e-01, 6.41404390e-01, 1.76344868e-02,
          2.20643245e-02, 9.87815186e-02, 5.49837649e-01, 5.49837649e-01,
          1.04152828e-01, 5.58819696e-02, 5.49837649e-01, 2.41128877e-01,
          6.55173883e-02, 3.71597521e-02, 8.04015696e-02, 1.33031517e-01,
          7.33327270e-02, 1.80833057e-01, 6.76621735e-01, 6.76621735e-01,
          1.19262256e-01, 1.12385880e-02, 3.19609903e-02, 8.37172642e-02,
          4.12786543e-01, 4.12786543e-01, 3.13894957e-01, 3.42479140e-01,
          4.12786543e-01, 4.12786543e-01, 2.43349880e-01, 1.79599091e-01,
          1.91644743e-01, 7.89148748e-01, 4.46635485e-01, 1.56114139e-02,
          7.42874369e-02, 2.90390491e-01, 1.97656959e-01, 6.17999136e-02,
          1.34525299e-02 ]
      - [ 4.32706892e-01, 4.32706892e-01, 2.50341833e-01, 7.10143670e-02,
          1.16016097e-01, 3.63771856e-01, 4.32706892e-01, 4.32706892e-01,
          1.82298735e-01, 2.25103632e-01, 3.88345689e-01, 4.35330600e-01,
          4.35330600e-01, 3.11543187e-03, 3.05476580e-02, 4.35330600e-01,
          4.35330600e-01, 1.87546030e-01, 5.38757592e-02, 4.06218320e-01,
          4.91657466e-01, 3.16407412e-01, 3.56536321e-02, 2.36727167e-02,
          4.91657466e-01, 4.91657466e-01, 6.86134025e-03, 4.68731642e-01,
          4.68731642e-01, 3.36678624e-02, 1.54866725e-01, 2.61530638e-01,
          1.17696397e-01, 9.54609290e-02, 4.68731642e-01, 4.68731642e-01,
