%YAML:1.0
---
opencv_ml_svm:
   format: 3
   svmType: C_SVC
   kernel:
      type: RBF
      gamma: 5.0624999999999998e-01
   C: 1.2500000000000000e+01
   term_criteria: { epsilon:1.1920928955078125e-07, iterations:1000 }
   var_count: 144
   class_count: 2
   class_labels: !!opencv-matrix
      rows: 2
      cols: 1
      dt: i
      data: [ 0, 1 ]
   sv_total: 318
   support_vectors:
      - [ 3.97309244e-01, 1.34676486e-01, 2.59535998e-01, 2.99147040e-01,
          4.31278318e-01, 4.31278318e-01, 2.38199979e-01, 2.97766477e-01,
          3.81373405e-01, 2.75485605e-01, 8.99642110e-02, 4.32290107e-01,
          3.42577428e-01, 4.50720698e-01, 4.50720698e-01, 2.96701491e-01,
          2.25389421e-01, 2.49293938e-01, 3.80047858e-01, 3.80047858e-01,
          1.60038963e-01, 2.64424771e-01, 3.80047858e-01, 3.80047858e-01,
          3.15988898e-01, 2.80427277e-01, 3.80047858e-01, 2.25607604e-01,
          2.97011197e-01, 2.11558267e-01, 4.03005183e-01, 4.03005183e-01,
          4.03005183e-01, 4.03005183e-01, 1.65821731e-01, 3.67359638e-01,
          3.69395107e-01, 1.86019659e-01, 1.41717568e-01, 3.50579292e-01,
          3.69395107e-01, 3.69395107e-01, 3.69395107e-01, 3.69395107e-01,
          3.69395107e-01, 1.33257776e-01, 7.89091811e-02, 3.88836354e-01,
          3.88836354e-01, 3.88836354e-01, 2.54889697e-01, 3.88836354e-01,
          3.88836354e-01, 3.88836354e-01, 2.14981318e-01, 1.52813807e-01,
          1.89824164e-01, 4.84256029e-01, 4.84256029e-01, 1.57300740e-01,
          2.15117589e-01, 3.39161098e-01, 4.84256029e-01, 9.28502083e-02,
          1.61344204e-02, 3.82398777e-02, 4.23111111e-01, 4.23111111e-01,
          3.00523996e-01, 4.23111111e-01, 4.23111111e-01, 4.23111111e-01,
          1.15081161e-01, 1.51346639e-01, 1.06274702e-01, 5.71142375e-01,
          5.71142375e-01, 3.15751672e-01, 1.08254336e-01, 2.81392068e-01,
          3.22251827e-01, 1.48620099e-01, 2.30796382e-01, 2.27780715e-01,
          3.05105805e-01, 4.02256578e-01, 4.02256578e-01, 4.02256578e-01,
          4.02256578e-01, 3.58345449e-01, 3.80126119e-01, 3.55176270e-01,
          2.16113269e-01, 3.80126119e-01, 3.80126119e-01, 3.80126119e-01,
          2.52882332e-01, 1.92141548e-01, 3.80126119e-01, 3.65318030e-01,
          3.65318030e-01, 3.24356735e-01, 2.79912293e-01, 3.65318030e-01,
          3.22759032e-01, 2.03303143e-01, 3.65318030e-01, 3.65318030e-01,
          5.27737439e-01, 8.13773796e-02, 1.27977459e-02, 1.08976491e-01,
          3.45757723e-01, 3.31334472e-02, 1.41071320e-01, 5.27737439e-01,
          5.27737439e-01, 5.85628986e-01, 2.74157971e-01, 2.53498167e-01,
          2.39591122e-01, 3.10899764e-01, 5.34554645e-02, 1.72686726e-02,
          1.07645914e-01, 5.85628986e-01, 4.69821930e-01, 4.36127663e-01,
          1.48100585e-01, 2.07068920e-01, 2.75759250e-01, 4.43069369e-01,
          8.78435150e-02, 1.36942610e-01, 4.69821930e-01, 4.67192560e-01,
          4.67192560e-01, 4.67192560e-01, 2.30121002e-01, 2.34679431e-01,
          2.88534045e-01, 1.35768637e-01, 2.09246814e-01, 2.95004308e-01 ]
      - [ 5.04575312e-01, 1.40245473e-02, 5.86229041e-02, 4.61664230e-01,
          5.04575312e-01, 1.16448984e-01, 1.33645805e-02, 2.58003753e-02,
          5.04575312e-01, 3.86954635e-01, 6.50803968e-02, 1.59721896e-01,
          5.01708388e-01, 1.19210765e-01, 1.18747458e-03, 1.08050555e-03,
          5.11922419e-01, 5.35890281e-01, 6.12233341e-01, 2.26885125e-01,
          1.32780924e-01, 2.49378696e-01, 1.53768852e-01, 8.43881816e-03,
          1.20712165e-02, 2.98443437e-01, 6.12233341e-01, 5.76593578e-01,
          6.58913031e-02, 5.71371503e-02, 1.06545083e-01, 4.80969131e-01,
          1.27838448e-01, 9.17606205e-02, 2.32958972e-01, 5.76593578e-01,
          3.11284482e-01, 3.85975480e-01, 3.85975480e-01, 3.85975480e-01,
          3.85975480e-01, 3.85975480e-01, 4.68517356e-02, 5.64671084e-02,
          3.85975480e-01, 7.80025870e-02, 2.14337245e-01, 4.46996778e-01,
          4.46996778e-01, 3.54514539e-01, 9.94783863e-02, 9.33220685e-02,
          4.46996778e-01, 4.46996778e-01, 4.39273834e-01, 1.60878882e-01,
          2.78233796e-01, 3.84802371e-01, 3.70773941e-01, 1.21160641e-01,
          2.08594233e-01, 4.03305501e-01, 4.39273834e-01, 4.26447630e-01,
          6.64320663e-02, 4.15792838e-02, 4.14134622e-01, 4.26447630e-01,
          8.68007243e-02, 2.88315415e-01, 4.26447630e-01, 4.26447630e-01,
          3.82371098e-01, 3.82371098e-01, 3.82371098e-01, 3.82371098e-01,
          3.82371098e-01, 2.82141417e-01, 4.04255986e-02, 1.94154724e-01,
          3.82371098e-01, 3.68862331e-01, 3.65782380e-01, 3.68862331e-01,
          3.68862331e-01, 3.68862331e-01, 3.68862331e-01, 1.39212728e-01,
          2.29448214e-01, 3.31955433e-01, 1.60873592e-01, 1.62343919e-01,
          2.54832774e-01, 4.25513357e-01, 4.25513357e-01, 3.43428552e-01,
          3.89210463e-01, 3.29094857e-01, 3.72450113e-01, 1.16233602e-01,
          1.51849717e-01, 1.99459910e-01, 4.64642674e-01, 4.64642674e-01,
          6.95268661e-02, 4.27716345e-01, 4.64642674e-01, 2.89054215e-01,
          3.82703096e-01, 3.82703096e-01, 3.82703096e-01, 3.82703096e-01,
          3.82703096e-01, 6.11158758e-02, 1.35508806e-01, 3.08721304e-01,
          3.82703096e-01, 3.41712236e-01, 2.65420318e-01, 3.70729983e-01,
          3.70729983e-01, 3.70729983e-01, 3.70729983e-01, 3.04703504e-01,
          1.70390949e-01, 3.70729983e-01, 3.45637262e-01, 3.45637262e-01,
          3.45637262e-01, 3.45637262e-01, 3.45637262e-01, 2.02054039e-01,
          3.45637262e-01, 3.45637262e-01, 3.45637262e-01, 3.54950637e-01,
          3.45703185e-01, 1.81784332e-01, 3.54950637e-01, 3.54950637e-01,
          3.54950637e-01, 2.96576709e-01, 3.54950637e-01, 3.54950637e-01 ]
      - [ 4.92138207e-01, 4.73441392e-01, 2.09165961e-01, 3.00291151e-01,
          3.65567327e-01, 1.11442450e-02, 2.45988648e-02, 1.35069907e-01,
          4.92138207e-01, 4.88835394e-01, 3.22899401e-01, 3.03158075e-01,
          2.61188984e-01, 4.70103592e-01, 4.91214218e-03, 5.18582463e-02,
          1.70581743e-01, 4.88835394e-01, 5.15766203e-01, 1.18740365e-01,
          6.68712035e-02, 1.96960449e-01, 2.33129516e-01, 3.51177864e-02,
          2.89581716e-01, 5.15766203e-01, 5.15766203e-01, 6.37865722e-01,
          1.26608983e-01, 3.71122845e-02, 3.45603734e-01, 1.73877358e-01,
          1.37497694e-03, 6.80530490e-03, 1.12940833e-01, 6.37865722e-01,
          5.76790035e-01, 5.55839352e-02, 3.07420567e-02, 2.62747884e-01,
          5.03564179e-01, 4.69168238e-02, 0., 4.21438226e-03,
          5.76790035e-01, 5.59459567e-01, 1.36083722e-01, 7.81077147e-02,
          2.91965723e-01, 5.07189870e-01, 1.97937507e-02, 3.94723518e-03,
          3.01772971e-02, 5.59459567e-01, 6.39499843e-01, 3.69351953e-01,
          2.65091751e-02, 1.10344037e-01, 9.20036584e-02, 1.06555223e-01,
          5.14091402e-02, 6.27222732e-02, 6.39499843e-01, 6.70384824e-01,
          2.38949776e-01, 5.39292470e-02, 1.63414761e-01, 5.43574803e-02,
          1.72427832e-03, 2.41582934e-03, 6.92999810e-02, 6.70384824e-01,
          6.91390157e-01, 0., 0., 1.73903275e-02, 1.90912694e-01,
          1.75288450e-02, 0., 0., 6.91390157e-01, 6.55852437e-01,
          6.18484395e-04, 0., 8.23390931e-02, 3.55510056e-01, 0., 0., 0.,
          6.55852437e-01, 6.10335290e-01, 6.85009873e-03, 0.,
          5.60546964e-02, 4.90949631e-01, 6.81428388e-02, 0.,
          4.85056965e-03, 6.10335290e-01, 6.17458880e-01, 1.02827779e-03,
          0., 1.87696278e-01, 4.29692775e-01, 1.24158571e-02,
          2.05679219e-02, 1.04307257e-01, 6.17458880e-01, 5.60581982e-01,
          0., 1.42447315e-02, 1.46352634e-01, 5.60581982e-01,
          1.73252240e-01, 2.70479615e-03, 0., 5.60581982e-01,
          5.47633231e-01, 5.61802834e-03, 0., 3.06497663e-01,
          5.47633231e-01, 2.91934889e-02, 0., 0., 5.47633231e-01,
          5.58086634e-01, 1.39293015e-01, 1.07334005e-02, 1.58659056e-01,
          5.58086634e-01, 1.18921630e-01, 1.79681443e-02, 2.98173334e-02,
          5.58086634e-01, 4.37394291e-01, 3.43981497e-02, 2.67996942e-03,
          1.16643474e-01, 4.37394291e-01, 1.55775174e-01, 4.37394291e-01,
          4.37394291e-01, 4.37394291e-01 ]
      - [ 2.48770118e-01, 2.92849600e-01, 3.65104407e-01, 3.65104407e-01,
          3.65104407e-01, 2.74346352e-01, 3.65104407e-01, 3.27005833e-01,
          3.65104407e-01, 3.67409438e-01, 3.67409438e-01, 3.67409438e-01,
          2.20409080e-01, 2.11359277e-01, 3.67409438e-01, 3.67409438e-01,
          3.67409438e-01, 3.05185646e-01, 3.63253325e-01, 3.63253325e-01,
          3.63253325e-01, 3.63253325e-01, 3.63253325e-01, 3.37737471e-01,
          2.58737832e-01, 1.53756827e-01, 3.63253325e-01, 3.62680674e-01,
          2.08895773e-01, 3.62680674e-01, 3.62680674e-01, 3.62680674e-01,
          3.62680674e-01, 1.78824663e-01, 3.62680674e-01, 3.62680674e-01,
          2.38297865e-01, 3.57682407e-01, 3.57682407e-01, 3.57682407e-01,
          3.57682407e-01, 3.57682407e-01, 3.22551996e-01, 2.83728570e-01,
          3.39728296e-01, 3.43041569e-01, 3.43041569e-01, 3.43041569e-01,
          3.43041569e-01, 3.43041569e-01, 2.34845489e-01, 3.43041569e-01,
          3.43041569e-01, 3.43041569e-01, 3.36649865e-01, 3.36649865e-01,
          3.36649865e-01, 2.99952149e-01, 3.36649865e-01, 3.36649865e-01,
          3.36649865e-01, 3.36649865e-01, 3.36649865e-01, 3.46931517e-01,
          3.46931517e-01, 3.46931517e-01, 3.46931517e-01, 3.46931517e-01,
          2.95370281e-01, 3.42248619e-01, 2.64550775e-01, 3.46931517e-01,
          3.79880875e-01, 3.79880875e-01, 3.79880875e-01, 2.36180454e-01,
          1.22300452e-02, 3.79880875e-01, 3.23981106e-01, 3.37287843e-01,
          3.79880875e-01, 3.32778692e-01, 3.32778692e-01, 3.32778692e-01,
          3.32778692e-01, 3.32778692e-01, 3.32778692e-01, 3.32778692e-01,
          3.32778692e-01, 3.32778692e-01, 3.37863654e-01, 3.37863654e-01,
          3.37863654e-01, 3.37863654e-01, 3.37863654e-01, 3.37863654e-01,
          3.37863654e-01, 2.88807005e-01, 3.37863654e-01, 3.49172324e-01,
          3.49172324e-01, 2.37083703e-01, 2.94709057e-01, 3.49172324e-01,
          3.49172324e-01, 3.49172324e-01, 3.49172324e-01, 3.49172324e-01,
          3.46649855e-01, 3.46649855e-01, 3.44897151e-01, 3.46649855e-01,
          3.46649855e-01, 3.46649855e-01, 1.90839723e-01, 3.46649855e-01,
          3.46649855e-01, 3.49811137e-01, 3.49811137e-01, 3.49811137e-01,
          3.49811137e-01, 1.88896731e-01, 3.49811137e-01, 3.49811137e-01,
          3.49811137e-01, 3.22874695e-01, 3.35427970e-01, 3.35427970e-01,
          3.35427970e-01, 3.10730010e-01, 3.35427970e-01, 3.35427970e-01,
          3.35427970e-01, 3.35427970e-01, 3.35427970e-01, 3.77301872e-01,
          3.77301872e-01, 3.77301872e-01, 7.52054974e-02, 3.77301872e-01,
          3.77301872e-01, 3.29537332e-01, 1.66852430e-01, 3.77301872e-01 ]
      - [ 5.05534746e-03, 7.34254718e-02, 3.30928192e-02, 2.96958297e-01,
          5.46844184e-01, 5.46844184e-01, 5.46844184e-01, 4.15785350e-02,
          3.15960310e-02, 3.70990820e-02, 3.99484672e-02, 3.17333676e-02,
          1.32413357e-02, 1.36836290e-01, 6.86512232e-01, 6.86512232e-01,
          9.16918665e-02, 1.38789266e-01, 4.28963862e-02, 6.37214705e-02,
          7.68797919e-02, 3.61682959e-02, 2.66549975e-01, 6.73231006e-01,
          6.73231006e-01, 4.31467593e-02, 2.77378950e-02, 8.63191262e-02,
          3.86735022e-01, 3.86735022e-01, 2.27138966e-01, 3.86735022e-01,
          3.86735022e-01, 3.86735022e-01, 3.86735022e-01, 1.99272051e-01,
          2.09499821e-01, 1.78458840e-01, 6.80310726e-02, 5.53382576e-01,
          5.53382576e-01, 5.44184029e-01, 4.95054908e-02, 6.52080541e-03,
          5.48982956e-02, 7.75702074e-02, 1.51456639e-01, 2.86072254e-01,
          3.84137303e-01, 3.84137303e-01, 3.84137303e-01, 3.84137303e-01,
          3.84137303e-01, 3.84137303e-01, 4.66718674e-01, 1.05678536e-01,
          1.16498135e-01, 4.49713543e-02, 7.75254145e-02, 3.02093625e-01,
          4.66718674e-01, 4.66718674e-01, 4.66718674e-01, 4.31991577e-01,
          2.74304241e-01, 3.47274691e-01, 1.44839749e-01, 1.08060993e-01,
          4.31991577e-01, 4.31991577e-01, 1.43943369e-01, 4.31991577e-01,
          2.50476226e-02, 2.34120026e-01, 4.10300016e-01, 4.10300016e-01,
          4.10300016e-01, 3.14207375e-01, 4.10300016e-01, 4.10300016e-01,
          2.21092696e-03, 1.42449997e-02, 4.48379904e-01, 4.69933599e-01,
          4.69933599e-01, 4.69933599e-01, 2.58495092e-01, 1.54681146e-01,
          1.75251305e-01, 1.00434087e-01, 4.42720503e-01, 1.12518268e-02,
          9.78240222e-02, 6.51802793e-02, 4.42720503e-01, 4.42720503e-01,
          2.00186685e-01, 3.96928877e-01, 4.42720503e-01, 4.81375754e-01,
          2.21209992e-02, 4.85168770e-02, 2.48698354e-01, 4.81375754e-01,
          4.81375754e-01, 4.94955257e-02, 3.40252034e-02, 4.81375754e-01,
          2.98263133e-01, 4.10589755e-01, 3.13076138e-01, 3.64866167e-01,
          8.69884063e-03, 3.71752381e-02, 4.10589755e-01, 4.10589755e-01,
          4.10589755e-01, 4.13943976e-01, 4.13943976e-01, 4.13943976e-01,
          4.13943976e-01, 3.19109298e-02, 2.20241994e-01, 3.19515318e-01,
          3.77888054e-01, 1.26697391e-01, 2.90607493e-02, 7.20292330e-02,
          7.49551281e-02, 2.61785649e-02, 4.95440066e-01, 4.95440066e-01,
          4.95440066e-01, 4.95440066e-01, 2.95328610e-02, 0., 0.,
          5.61617613e-02, 5.42702615e-01, 5.51737666e-01, 5.51737666e-01,
          2.57277757e-01, 1.46797165e-01, 1.54917855e-02 ]
      - [ 3.09718847e-02, 8.39729011e-02, 1.03231417e-02, 4.04871076e-01,
          5.21471500e-01, 5.21471500e-01, 5.21471500e-01, 5.40956520e-02,
          6.34833127e-02, 4.74824794e-02, 4.21924479e-02, 2.57110456e-03,
          1.94383655e-02, 1.33851796e-01, 6.56879485e-01, 6.56879485e-01,
          3.20848584e-01, 7.19805285e-02, 7.30271041e-02, 1.54553056e-01,
          1.27612770e-01, 1.04762338e-01, 2.93113947e-01, 6.48221433e-01,
          6.48221433e-01, 1.03651427e-01, 2.67442432e-03, 1.01959385e-01,
          3.91109556e-01, 3.91109556e-01, 3.25339854e-01, 3.16778213e-01,
          3.91109556e-01, 3.91109556e-01, 3.85361761e-01, 1.38319194e-01,
          1.89866781e-01, 1.39772058e-01, 1.12919427e-01, 5.80153644e-01,
          5.80153644e-01, 4.97336209e-01, 5.43924719e-02, 1.30751934e-02,
          4.73404191e-02, 1.86728537e-01, 7.97326639e-02, 2.13441297e-01,
          2.70634115e-01, 4.00653452e-01, 3.54300439e-01, 4.28037137e-01,
          4.28037137e-01, 4.28037137e-01, 4.73181695e-01, 1.40706107e-01,
          3.55475768e-02, 9.03119706e-03, 5.62299378e-02, 2.74526626e-01,
          4.73181695e-01, 4.73181695e-01, 4.73181695e-01, 5.54527998e-01,
          2.92494088e-01, 1.40302330e-01, 6.94845244e-02, 2.21522436e-01,
          3.96571368e-01, 2.18293890e-01, 1.24100350e-01, 5.54527998e-01,
          1.92678012e-02, 4.52783257e-01, 4.52783257e-01, 4.52783257e-01,
          4.52783257e-01, 2.27580279e-01, 2.93508917e-01, 1.90039709e-01,
          3.16219032e-02, 1.11451238e-01, 4.16189969e-01, 4.16189969e-01,
          4.16189969e-01, 4.16189969e-01, 4.16189969e-01, 1.21867679e-01,
          2.51522094e-01, 1.98079795e-01, 4.89937365e-01, 8.77107773e-03,
          4.88633336e-03, 1.47014428e-02, 4.89937365e-01, 4.89937365e-01,
          1.18054025e-01, 1.56339258e-01, 4.86102015e-01, 4.36425656e-01,
          4.09540115e-03, 0., 4.85134311e-02, 5.71492732e-01,
          5.71492732e-01, 1.45595428e-03, 4.34413180e-03, 3.85002315e-01,
          4.30116415e-01, 4.30116415e-01, 4.30116415e-01, 4.10429984e-01,
          2.32979897e-02, 8.90638754e-02, 2.11567655e-01, 4.30116415e-01,
          1.84428930e-01, 4.22791868e-01, 4.22791868e-01, 2.60612458e-01,
          3.99147749e-01, 7.47784153e-02, 1.63224995e-01, 4.22791868e-01,
          4.22791868e-01, 1.45920381e-01, 2.42871717e-02, 1.74944438e-02,
          4.52297609e-05, 7.59522384e-03, 3.78898531e-01, 5.29543102e-01,
          5.29543102e-01, 5.29543102e-01, 9.45837796e-02, 6.14098459e-03,
          0., 0., 4.14848477e-02, 5.82749307e-01, 5.82749307e-01,
          3.01714391e-01, 4.61613357e-01, 9.54491273e-02 ]
      - [ 2.77517170e-01, 3.80431354e-01, 6.44519106e-02, 2.87360221e-01,
          5.74751735e-01, 5.74751735e-01, 4.61566038e-02, 7.74640217e-02,
          1.30295098e-01, 3.28528464e-01, 3.77596170e-02, 9.72244591e-02,
          2.24219903e-01, 4.30021018e-01, 3.99341017e-01, 4.30021018e-01,
          3.35250795e-01, 4.30021018e-01, 4.20308828e-01, 1.19283095e-01,
          4.20308828e-01, 4.20308828e-01, 4.20308828e-01, 8.72204900e-02,
          2.85612047e-01, 9.53607932e-02, 4.20308828e-01, 5.34677327e-01,
          7.19976723e-02, 1.46146744e-01, 2.36748248e-01, 5.34677327e-01,
          7.06823468e-02, 2.05667600e-01, 8.44597891e-02, 5.34677327e-01,
          2.15070322e-02, 4.24605934e-03, 2.84969397e-02, 3.08510005e-01,
          5.58011711e-01, 5.58011711e-01, 5.15782297e-01, 8.77220035e-02,
          3.84171419e-02, 4.03070077e-03, 2.09854887e-04, 1.52357798e-02,
          4.92968559e-01, 5.91069937e-01, 5.91069937e-01, 2.24320635e-01,
          4.07546647e-02, 1.11167943e-02, 6.88283471e-03, 3.68941552e-03,
          1.56879038e-01, 6.90204561e-01, 6.90204561e-01, 1.24398060e-01,
          1.14738028e-02, 5.85384062e-03, 5.68762794e-03, 5.02153449e-02,
          8.17964226e-02, 6.42563283e-01, 6.42563283e-01, 3.89525414e-01,
          2.00119168e-02, 5.42538203e-02, 2.72120237e-02, 5.27518839e-02,
          7.45866522e-02, 2.35688269e-01, 3.91663432e-01, 3.91663432e-01,
          3.91663432e-01, 3.91663432e-01, 3.91663432e-01, 3.91663432e-01,
          1.20721020e-01, 1.82456374e-02, 6.52045831e-02, 2.10989535e-01,
          2.25355208e-01, 4.62268889e-01, 4.76098746e-01, 4.76098746e-01,
          4.76098746e-01, 4.06951420e-02, 0., 1.54667333e-01,
          5.63940942e-01, 5.63940942e-01, 5.63940942e-01, 9.21163633e-02,
          8.87260064e-02, 9.68988403e-04, 0., 5.70786558e-03,
          5.75016737e-01, 5.75016737e-01, 5.75016737e-01, 4.78764437e-02,
          5.66418690e-04, 0., 0., 5.71235083e-04, 1.86256634e-03,
          5.62766492e-02, 2.17467174e-01, 4.07857269e-01, 5.01570523e-01,
          5.01570523e-01, 5.01570523e-01, 1.53172001e-01, 0.,
          1.75715089e-02, 8.89653563e-02, 2.53225058e-01, 2.12902233e-01,
          4.68414158e-01, 4.68414158e-01, 4.68414158e-01, 4.68414158e-01,
          0., 1.41636640e-01, 6.38331831e-01, 6.38331831e-01,
          3.28298092e-01, 6.19925261e-02, 1.77551627e-01, 1.24419570e-01,
          1.81592803e-03, 0., 2.09981296e-03, 7.01223910e-01,
          7.01223910e-01, 9.77647826e-02, 2.79348018e-03, 0., 0., 0., 0. ]
      - [ 8.31553563e-02, 3.27820703e-02, 6.50992198e-03, 4.29374665e-01,
          5.15996039e-01, 5.15996039e-01, 5.15996039e-01, 5.55430315e-02,
          2.47295685e-02, 8.12103748e-02, 4.58737835e-02, 3.51740484e-04,
          3.84469256e-02, 1.50150970e-01, 6.85637176e-01, 6.85637176e-01,
          1.40748546e-01, 2.06271447e-02, 8.23955014e-02, 2.16115087e-01,
          2.30650961e-01, 8.12465623e-02, 3.45298678e-01, 6.02252305e-01,
          6.02252305e-01, 1.89604089e-01, 9.71655827e-03, 1.64579049e-01,
          3.82269949e-01, 3.82269949e-01, 1.93765312e-01, 3.82269949e-01,
          3.82269949e-01, 3.82269949e-01, 3.82269949e-01, 2.34025210e-01,
          1.54621109e-01, 1.18413337e-01, 1.15676433e-01, 5.50451279e-01,
          5.50451279e-01, 5.50451279e-01, 1.71604618e-01, 1.13721741e-02,
          6.80098161e-02, 3.91886920e-01, 2.84193695e-01, 4.88133803e-02,
          1.73502058e-01, 3.90751630e-01, 3.40360016e-01, 3.91886920e-01,
          3.91886920e-01, 3.91886920e-01, 4.70626265e-01, 2.88913578e-01,
          3.01552843e-02, 6.98571000e-03, 5.73111735e-02, 2.52782136e-01,
          4.23343122e-01, 4.70626265e-01, 4.70626265e-01, 5.04065692e-01,
          3.44324738e-01, 1.08034164e-01, 3.15708518e-02, 2.81089216e-01,
          4.62958485e-01, 7.15184957e-02, 2.38991737e-01, 5.04065692e-01,
          8.56421217e-02, 4.81632799e-01, 4.81632799e-01, 4.81632799e-01,
          4.81632799e-01, 1.82898849e-01, 9.62235704e-02, 9.38884467e-02,
          9.19133946e-02, 3.85544866e-01, 3.85544866e-01, 3.85544866e-01,
          3.85544866e-01, 3.85544866e-01, 3.85544866e-01, 1.48506403e-01,
          2.28779331e-01, 1.72873080e-01, 5.22216380e-01, 4.31988724e-02,
          7.31642311e-03, 5.22300601e-03, 5.22216380e-01, 5.22216380e-01,
          1.14886858e-01, 1.36714786e-01, 3.77912849e-01, 2.85175860e-01,
          1.51828174e-02, 0., 5.17535470e-02, 6.39415026e-01,
          6.39415026e-01, 1.40371569e-03, 5.13937743e-03, 3.02737862e-01,
          4.83237803e-01, 4.83237803e-01, 4.83237803e-01, 3.76799911e-01,
          1.10131010e-01, 2.65629813e-02, 8.92901346e-02, 2.71002859e-01,
          2.41638988e-01, 4.67637151e-01, 4.67637151e-01, 1.55087307e-01,
          2.01024473e-01, 2.04713494e-01, 1.12977535e-01, 4.67637151e-01,
          4.67637151e-01, 3.81645188e-02, 1.94375664e-02, 7.13428576e-03,
          2.90728128e-03, 4.13874164e-03, 4.11569834e-01, 5.23814499e-01,
          5.23814499e-01, 5.23814499e-01, 4.21872027e-02, 0., 0., 0.,
          8.31926391e-02, 4.95374441e-01, 4.95374441e-01, 4.95374441e-01,
          4.95374441e-01, 8.09187219e-02 ]
      - [ 1.52027830e-01, 1.11681402e-01, 6.11044206e-02, 3.66241604e-01,
          5.12307763e-01, 5.12307763e-01, 5.12307763e-01, 5.10731153e-02,
          1.77328721e-01, 6.40650690e-02, 6.52767122e-02, 1.00183986e-01,
          4.29719947e-02, 1.20842643e-01, 6.61961973e-01, 6.61961973e-01,
          2.72508711e-01, 8.88329372e-02, 2.20687598e-01, 1.63388789e-01,
          1.66746736e-01, 1.77213982e-01, 4.28687215e-01, 5.73935330e-01,
          5.73935330e-01, 8.81265178e-02, 9.65310037e-02, 2.70881891e-01,
          3.71606022e-01, 3.71606022e-01, 2.98007697e-01, 2.74842203e-01,
          3.71606022e-01, 2.86716342e-01, 3.63338143e-01, 3.60651433e-01,
          1.54461071e-01, 2.00916708e-01, 2.32415915e-01, 5.05847394e-01,
          5.05847394e-01, 5.05847394e-01, 2.91829079e-01, 7.67600536e-02,
          1.34178892e-01, 4.34595823e-01, 1.14067405e-01, 4.92109433e-02,
          2.55499810e-01, 2.86387771e-01, 2.78268754e-01, 4.34595823e-01,
          4.34595823e-01, 4.34595823e-01, 5.85665524e-01, 1.94503993e-01,
          1.33893192e-02, 9.30232648e-03, 1.31329939e-01, 3.33154291e-01,
          2.74040878e-01, 2.58279681e-01, 5.85665524e-01, 5.21449685e-01,
          2.45773613e-01, 6.37790486e-02, 3.24060433e-02, 3.09526473e-01,
          5.21449685e-01, 5.51341921e-02, 1.21218771e-01, 5.21449685e-01,
          2.00592175e-01, 4.67311591e-01, 4.67311591e-01, 4.67311591e-01,
          4.67311591e-01, 2.24060863e-01, 2.30016187e-02, 5.37011400e-02,
          1.67208388e-01, 3.74634117e-01, 3.74634117e-01, 3.38270038e-01,
          3.74634117e-01, 3.74634117e-01, 3.74634117e-01, 1.80504635e-01,
          3.00855905e-01, 2.38706380e-01, 5.30137956e-01, 1.37876011e-02,
          0., 2.16827006e-03, 5.30137956e-01, 5.30137956e-01,
          2.59301543e-01, 2.02253908e-01, 2.07913965e-01, 1.80398807e-01,
          1.02512818e-02, 0., 8.90798680e-03, 6.83848143e-01,
          6.83848143e-01, 2.29090676e-02, 0., 1.56919152e-01,
          5.14687479e-01, 5.14687479e-01, 5.14687479e-01, 3.22949022e-01,
          1.66978851e-01, 2.59331968e-02, 1.41253307e-01, 1.63945198e-01,
          1.43070295e-01, 4.58000392e-01, 4.58000392e-01, 1.76419616e-01,
          1.37821198e-01, 1.71906844e-01, 2.45250702e-01, 4.58000392e-01,
          4.58000392e-01, 1.28644556e-01, 1.63360890e-02, 0., 0.,
          5.49541274e-03, 2.86335528e-01, 5.20228386e-01, 5.65366685e-01,
          5.65366685e-01, 4.63973172e-02, 2.80911149e-03, 0., 0.,
          4.36311886e-02, 4.69377756e-01, 4.69377756e-01, 4.69377756e-01,
          4.69377756e-01, 3.34870368e-01 ]
      - [ 3.07734519e-01, 2.13752776e-01, 3.57813329e-01, 2.96398520e-01,
          3.57813329e-01, 3.57813329e-01, 3.57813329e-01, 3.57813329e-01,
          3.57813329e-01, 3.24054867e-01, 3.62731606e-01, 3.67955655e-01,
          3.67955655e-01, 3.67955655e-01, 3.67955655e-01, 3.67955655e-01,
          8.69689137e-02, 2.74258405e-01, 3.50368261e-01, 3.50368261e-01,
          3.50368261e-01, 3.50368261e-01, 3.50368261e-01, 3.50368261e-01,
          3.50368261e-01, 1.68681771e-01, 3.29758108e-01, 1.43031463e-01,
          3.70746791e-01, 4.18462992e-01, 4.18462992e-01, 2.96177626e-01,
          4.18462992e-01, 4.18462992e-01, 1.46173149e-01, 1.68450594e-01,
          4.36096102e-01, 3.96672815e-01, 1.11844450e-01, 2.04783201e-01,
          4.36096102e-01, 1.53103739e-01, 2.43259653e-01, 3.61515880e-01,
          4.36096102e-01, 3.81408244e-01, 3.81408244e-01, 2.22760126e-01,
          1.90935075e-01, 3.73421818e-01, 3.81408244e-01, 3.81408244e-01,
          2.08101481e-01, 3.81408244e-01, 3.66156161e-01, 3.66156161e-01,
          2.56208152e-01, 1.01768769e-01, 3.66156161e-01, 3.66156161e-01,
          3.66156161e-01, 3.40470672e-01, 3.66156161e-01, 3.52961600e-01,
          3.24498117e-01, 3.52961600e-01, 3.52961600e-01, 3.52961600e-01,
          3.19576323e-01, 3.13732028e-01, 2.60208189e-01, 3.52961600e-01,
          4.20488417e-01, 4.20488417e-01, 1.65451899e-01, 2.23504588e-01,
          4.20488417e-01, 3.68126214e-01, 2.25262702e-01, 1.58014372e-01,
          4.20488417e-01, 4.22392368e-01, 4.22392368e-01, 3.85958195e-01,
          3.17614585e-01, 2.89104313e-01, 2.73366183e-01, 1.76049158e-01,
          1.46246895e-01, 4.22392368e-01, 3.66072416e-01, 3.66072416e-01,
          3.66072416e-01, 2.39759237e-01, 3.66072416e-01, 3.18377525e-01,
          1.82865649e-01, 3.66072416e-01, 3.66072416e-01, 4.27505940e-01,
          4.27505940e-01, 4.27505940e-01, 2.33467907e-01, 1.64055988e-01,
          2.87401080e-01, 1.22818060e-01, 2.92538673e-01, 4.27505940e-01,
          4.63428408e-01, 4.63428408e-01, 4.63428408e-01, 3.31309438e-01,
          2.22015411e-01, 2.38662899e-01, 3.38738486e-02, 6.16553659e-03,
          3.65884215e-01, 3.69141757e-01, 3.69141757e-01, 3.48110259e-01,
          1.47601083e-01, 3.69141757e-01, 3.69141757e-01, 3.69141757e-01,
          1.89080209e-01, 3.69141757e-01, 3.68608266e-01, 3.68608266e-01,
          3.68608266e-01, 1.29462764e-01, 3.68608266e-01, 1.68678612e-01,
          3.68608266e-01, 3.68608266e-01, 3.68608266e-01, 4.11585718e-01,
          4.11585718e-01, 4.11585718e-01, 3.51728141e-01, 4.11585718e-01,
          4.11585718e-01, 4.85764034e-02, 1.36687964e-01, 6.41735271e-02 ]
      - [ 7.16965422e-02, 1.76780596e-01, 1.15956567e-01, 5.89378059e-01,
          5.89378059e-01, 4.89095390e-01, 9.15256515e-02, 2.87186932e-02,
          3.35911922e-02, 6.97605386e-02, 1.05938442e-01, 1.00235030e-01,
          3.61488104e-01, 5.14946401e-01, 5.14946401e-01, 5.14946401e-01,
          2.06085205e-01, 8.15747678e-03, 1.90044031e-01, 5.55269867e-02,
          1.08136144e-03, 6.01434242e-03, 1.26560554e-01, 5.90735018e-01,
          5.90735018e-01, 4.90387052e-01, 2.07638871e-02, 4.55302298e-01,
          3.08278829e-01, 0., 0., 4.54474062e-01, 4.55302298e-01,
          4.55302298e-01, 1.35437965e-01, 2.31572345e-01, 8.33039060e-02,
          1.27861440e-01, 3.98601964e-02, 4.21645224e-01, 6.28905714e-01,
          6.28905714e-01, 2.87132268e-03, 5.63295267e-04, 2.42970092e-03,
          1.48718432e-01, 1.43550307e-01, 6.53555617e-02, 4.20532256e-01,
          5.81543386e-01, 5.81543386e-01, 2.08721787e-01, 4.02226970e-02,
          2.20867634e-01, 1.09226316e-01, 1.32066384e-01, 2.89185569e-02,
          1.35065347e-01, 5.31623542e-01, 5.31623542e-01, 5.31623542e-01,
          3.04382712e-01, 7.56336674e-02, 3.02829206e-01, 8.34673494e-02,
          2.95615308e-02, 1.07574034e-02, 3.53063047e-01, 4.91174906e-01,
          4.91174906e-01, 4.91174906e-01, 2.16842368e-01, 4.86376584e-01,
          4.86376584e-01, 3.41799669e-02, 1.07339308e-01, 4.86376584e-01,
          4.86376584e-01, 0., 9.17868502e-03, 1.90050438e-01,
          3.84472817e-01, 3.84472817e-01, 6.95996061e-02, 3.84472817e-01,
          3.84472817e-01, 3.84472817e-01, 2.05589265e-01, 2.49262795e-01,
          3.84472817e-01, 8.32375586e-02, 1.08981602e-01, 2.08104104e-02,
          1.16782144e-01, 4.59648222e-01, 4.59648222e-01, 4.59648222e-01,
          4.59648222e-01, 3.42675060e-01, 6.48869947e-02, 2.84071621e-02,
          1.59606904e-01, 1.63815320e-01, 3.06144267e-01, 5.31586647e-01,
          5.31586647e-01, 5.20491600e-01, 8.69452134e-02, 5.45653999e-01,
          2.46857435e-01, 1.47851899e-01, 1.58109531e-01, 4.14568007e-01,
          2.16421768e-01, 2.44970359e-02, 2.68275708e-01, 5.45653999e-01,
          3.18869352e-01, 2.48380542e-01, 1.36065990e-01, 3.87696177e-01,
          3.87696177e-01, 3.87631625e-01, 2.50500977e-01, 3.87696177e-01,
          3.87696177e-01, 4.22744602e-01, 7.64294490e-02, 7.73260603e-03,
          1.25120327e-01, 4.22744602e-01, 4.22744602e-01, 4.22744602e-01,
          4.22744602e-01, 2.83999324e-01, 4.69487906e-01, 1.00643851e-01,
          5.55481808e-03, 1.97658055e-02, 2.06295416e-01, 4.69487906e-01,
          4.69487906e-01, 2.46021226e-01, 4.69487906e-01 ]
      - [ 2.96109259e-01, 6.44140780e-01, 6.44140780e-01, 4.37100884e-03,
          1.08640175e-03, 7.37216920e-02, 2.55491793e-01, 7.28970692e-02,
          2.92162085e-03, 4.64613259e-01, 4.64613259e-01, 4.61492389e-01,
          2.14955341e-02, 8.06448460e-02, 3.83695543e-01, 4.29995656e-01,
          8.73104781e-02, 6.28151819e-02, 2.11170778e-01, 3.56610864e-01,
          3.56610864e-01, 3.33300203e-01, 3.56610864e-01, 3.56610864e-01,
          3.56610864e-01, 3.56610864e-01, 2.78795868e-01, 2.06244066e-01,
          3.56359273e-01, 3.56359273e-01, 3.53228092e-01, 3.56359273e-01,
          3.56359273e-01, 3.56359273e-01, 2.59193718e-01, 3.56359273e-01,
          5.52544892e-01, 5.52544892e-01, 3.96750540e-01, 5.29167056e-03,
          8.28996999e-04, 7.81112984e-02, 4.65160757e-01, 6.28590211e-02,
          1.89207413e-03, 3.41572553e-01, 4.54563141e-01, 4.54563141e-01,
          1.19182337e-02, 2.27801546e-01, 4.54563141e-01, 4.54563141e-01,
          1.52927237e-02, 2.76369927e-03, 3.88029903e-01, 3.88029903e-01,
          3.88029903e-01, 1.36049956e-01, 3.39858592e-01, 3.88029903e-01,
          3.88029903e-01, 3.07621717e-01, 1.21007986e-01, 3.58538210e-01,
          3.58538210e-01, 3.58538210e-01, 1.99455604e-01, 2.87417442e-01,
          3.58538210e-01, 3.58538210e-01, 3.58538210e-01, 3.20513040e-01,
          3.90980929e-01, 4.35187399e-01, 4.35187399e-01, 6.55609556e-03,
          6.15023710e-02, 4.00548011e-01, 4.35187399e-01, 3.07757497e-01,
          1.25074506e-01, 4.15350020e-01, 4.15350020e-01, 4.15350020e-01,
          6.95691109e-02, 1.14349321e-01, 4.15350020e-01, 4.15350020e-01,
          3.34924459e-01, 5.64152822e-02, 4.24580544e-01, 4.24580544e-01,
          4.24580544e-01, 4.43500876e-02, 2.91967630e-01, 4.24580544e-01,
          4.24580544e-01, 8.22957456e-02, 2.07566079e-02, 3.73337924e-01,
          3.73337924e-01, 3.73337924e-01, 2.87635297e-01, 3.73337924e-01,
          3.17463458e-01, 2.78631210e-01, 3.73337924e-01, 1.95478141e-01,
          1.05763108e-01, 4.40711260e-01, 3.44275206e-01, 1.60526037e-01,
          4.40711260e-01, 4.40711260e-01, 4.40711260e-01, 2.48689100e-01,
          3.69574539e-02, 3.61094445e-01, 3.61094445e-01, 3.24225694e-01,
          2.28717297e-01, 3.54004860e-01, 3.61094445e-01, 3.61094445e-01,
          2.99504638e-01, 3.19967687e-01, 4.02900279e-01, 4.02900279e-01,
          2.11165220e-01, 2.39219684e-02, 3.19521606e-01, 4.02900279e-01,
          3.74583691e-01, 2.43085399e-01, 4.02900279e-01, 2.97119319e-01,
          3.36963177e-01, 3.36963177e-01, 3.36963177e-01, 3.36963177e-01,
          3.36963177e-01, 3.36963177e-01, 3.36963177e-01, 3.36963177e-01 ]
      - [ 7.53385108e-03, 7.03800619e-01, 7.03800619e-01, 4.74038012e-02,
          0., 0., 0., 0., 0., 7.45803211e-03, 7.04457760e-01,
          7.04457760e-01, 1.97694637e-02, 0., 0., 0., 0., 0.,
          7.03592151e-02, 7.01397002e-01, 7.01397002e-01, 6.42846376e-02,
          0., 0., 0., 0., 0., 1.42192855e-01, 6.81942344e-01,
          6.81942344e-01, 1.98262364e-01, 0., 4.29758709e-03,
          5.11508621e-02, 3.06290369e-02, 1.41318084e-03, 1.81320228e-03,
          5.75687468e-01, 5.75687468e-01, 5.75687468e-01, 0., 0., 0., 0.,
          0., 2.23486163e-02, 7.00542748e-01, 7.00542748e-01,
          1.04819909e-01, 0., 0., 0., 0., 0., 4.50131565e-01,
          6.26603007e-01, 6.26603007e-01, 7.53916577e-02, 0., 0., 0., 0.,
          1.33777177e-02, 5.06547153e-01, 5.06547153e-01, 5.06547153e-01,
          3.90483111e-01, 0., 1.04876561e-03, 1.02365911e-02,
          1.94982020e-03, 2.69414693e-01, 5.81439495e-01, 5.81439495e-01,
          5.27265668e-01, 6.99162707e-02, 0., 0., 0., 0., 1.87490836e-01,
          6.67501092e-01, 6.67501092e-01, 3.17204028e-01, 4.58305236e-03,
          0., 0., 0., 0., 3.97672765e-02, 7.01753259e-01, 7.01753259e-01,
          5.67451902e-02, 0., 0., 0., 0., 0., 6.97115436e-02,
          8.28410327e-01, 4.96955931e-01, 1.23416018e-02, 1.25163998e-02,
          0., 0., 0., 0., 2.41236895e-01, 7.64768958e-01, 7.02450871e-02,
          1.35461669e-02, 1.88108578e-01, 3.84190589e-01, 0., 0.,
          2.58824904e-03, 4.68383968e-01, 7.16530502e-01, 4.85817730e-01,
          9.50686634e-02, 3.64148617e-01, 2.03783080e-01, 0., 0.,
          3.28840339e-04, 2.45444283e-01, 5.79358995e-01, 5.79358995e-01,
          5.22250116e-01, 1.97568536e-01, 1.04415556e-02, 0., 0., 0.,
          1.04945689e-01, 6.69258535e-01, 6.69258535e-01, 3.03854823e-01,
          6.90576881e-02, 0., 0., 0., 0., 2.01977920e-02 ]
      - [ 8.54260251e-02, 1.66440561e-01, 4.73445892e-01, 6.69280410e-01,
          3.77072573e-01, 2.94869661e-01, 1.35182574e-01, 1.07836522e-01,
          1.64913207e-01, 2.10441146e-02, 7.56191686e-02, 2.06191823e-01,
          2.72160888e-01, 6.30341947e-01, 6.30341947e-01, 2.46927679e-01,
          4.88194488e-02, 1.13756016e-01, 2.22913008e-02, 3.60081047e-02,
          8.34550932e-02, 2.29271613e-02, 5.72598636e-01, 5.72598636e-01,
          5.72598636e-01, 3.71042900e-02, 3.74826696e-03, 3.05881977e-01,
          1.16355926e-01, 1.97868153e-01, 4.52894196e-02, 2.10449293e-01,
          4.80356455e-01, 4.80356455e-01, 3.32236111e-01, 4.80356455e-01,
          1.76867008e-01, 1.51731685e-01, 4.19930637e-01, 4.59383160e-01,
          4.59383160e-01, 4.59383160e-01, 3.46715093e-01, 7.99420327e-02,
          7.11652562e-02, 1.58337764e-02, 1.73769861e-01, 6.54281452e-02,
          1.94883570e-02, 2.68249750e-01, 6.64181769e-01, 6.64181769e-01,
          6.32990450e-02, 4.74391831e-03, 6.87382966e-02, 4.71362323e-01,
          4.14630830e-01, 4.58668545e-02, 4.71362323e-01, 4.71362323e-01,
          3.87180537e-01, 9.38293338e-03, 6.26235327e-04, 3.41808423e-02,
          2.28000298e-01, 3.95170867e-01, 3.95170867e-01, 3.95170867e-01,
          3.95170867e-01, 3.95170867e-01, 3.95170867e-01, 7.70683885e-02,
          1.03043381e-03, 3.35284889e-01, 4.44341093e-01, 4.44341093e-01,
          4.44341093e-01, 3.92832696e-01, 3.67566049e-01, 3.74856815e-02,
          7.49683168e-05, 7.15968851e-03, 2.66015083e-01, 7.80730993e-02,
          1.19752139e-02, 3.30919549e-02, 5.72563589e-01, 5.72563589e-01,
          5.10366380e-01, 1.17506832e-03, 2.55635232e-01, 4.00397748e-01,
          4.00397748e-01, 2.25621268e-01, 2.83458203e-01, 3.90164733e-01,
          4.00397748e-01, 4.00397748e-01, 7.67810866e-02, 3.72730494e-01,
          1.05130017e-01, 1.82008564e-01, 3.72730494e-01, 3.72730494e-01,
          3.72730494e-01, 3.44279826e-01, 3.72730494e-01, 3.72730494e-01,
          1.58648733e-02, 3.73055488e-01, 4.40838337e-01, 4.40838337e-01,
          4.10465419e-01, 4.40838337e-01, 3.23537856e-01, 6.21913583e-04,
          3.10803618e-04, 2.11251453e-01, 3.28218728e-01, 2.02022150e-01,
          3.34565043e-02, 8.47890750e-02, 6.06569469e-01, 6.06569469e-01,
          2.37407193e-01, 1.58847403e-02, 4.03548144e-02, 3.75270784e-01,
          4.22858238e-01, 2.23595902e-01, 2.76027143e-01, 4.22858238e-01,
          4.22858238e-01, 4.22858238e-01, 1.09071605e-01, 3.56009305e-01,
          3.56009305e-01, 3.56009305e-01, 3.56009305e-01, 3.56009305e-01,
          3.56009305e-01, 3.44802856e-01, 1.54076993e-01, 3.05546343e-01 ]
      - [ 1.15503907e-01, 2.89948881e-01, 4.77895021e-01, 4.14647698e-01,
          1.27302393e-01, 4.77895021e-01, 4.77895021e-01, 1.41706914e-01,
          6.66685998e-02, 5.66812009e-02, 7.12100714e-02, 1.54841347e-02,
          1.04739770e-01, 5.68703055e-01, 5.68703055e-01, 5.68703055e-01,
          6.71468303e-02, 7.01051718e-03, 9.04656723e-02, 1.35247156e-01,
          1.88664854e-01, 4.83968526e-01, 4.98164237e-01, 4.98164237e-01,
          4.49831575e-01, 2.51555885e-03, 6.23178622e-03, 1.11048900e-01,
          1.49862796e-01, 2.72815019e-01, 3.84478033e-01, 3.84478033e-01,
          3.84478033e-01, 3.84478033e-01, 3.84478033e-01, 3.84478033e-01,
          4.05974239e-02, 2.10224122e-01, 1.94702908e-01, 2.03408718e-01,
          3.29278588e-01, 6.03411019e-01, 6.05119526e-01, 1.73073173e-01,
          1.33452835e-02, 1.04522564e-01, 2.53101707e-01, 1.10190533e-01,
          1.74986795e-02, 1.25909597e-01, 6.41747355e-01, 6.41747355e-01,
          2.53243476e-01, 4.99446169e-02, 3.74500841e-01, 3.74500841e-01,
          3.69833767e-01, 2.91836798e-01, 3.74500841e-01, 3.74500841e-01,
          3.74500841e-01, 2.60348469e-01, 7.26438314e-02, 4.99856435e-02,
          1.07176080e-01, 3.96408111e-01, 3.96408111e-01, 3.96408111e-01,
          1.98035941e-01, 3.96408111e-01, 3.96408111e-01, 3.96408111e-01,
          1.50102668e-03, 3.08796555e-01, 4.22792286e-01, 4.22792286e-01,
          4.22792286e-01, 4.22792286e-01, 4.22792286e-01, 8.15604031e-02,
          3.54823133e-04, 2.75926944e-02, 1.77607894e-01, 1.48499593e-01,
          3.39853987e-02, 7.43868351e-02, 5.55337548e-01, 5.55337548e-01,
          5.15151799e-01, 2.26333663e-01, 3.48468214e-01, 3.79868984e-01,
          3.79868984e-01, 3.21313053e-01, 3.79868984e-01, 3.79868984e-01,
          3.79868984e-01, 2.04290822e-01, 9.10816118e-02, 3.31532508e-01,
          3.42582315e-01, 2.68235892e-01, 3.32471013e-01, 3.42582315e-01,
          3.42582315e-01, 3.42582315e-01, 3.42582315e-01, 3.42582315e-01,
          2.79089492e-02, 4.42711443e-01, 4.42711443e-01, 2.42820516e-01,
          3.84050101e-01, 4.42711443e-01, 4.42711443e-01, 2.94659194e-02,
          5.91661222e-02, 7.00058118e-02, 2.69316137e-01, 3.37804824e-01,
          1.35913447e-01, 1.27886131e-01, 4.99284089e-01, 4.99284089e-01,
          4.99284089e-01, 1.44181296e-01, 1.89030841e-01, 2.18556657e-01,
          3.68050337e-01, 3.68050337e-01, 3.68050337e-01, 3.68050337e-01,
          3.68050337e-01, 3.68050337e-01, 3.16317469e-01, 3.54852408e-01,
          3.54852408e-01, 3.54852408e-01, 3.54852408e-01, 2.89728284e-01,
          3.54852408e-01, 3.05536389e-01, 2.52266526e-01, 3.54852408e-01 ]
      - [ 5.62915087e-01, 2.86124080e-01, 3.25590372e-02, 1.28652984e-02,
          3.15160781e-01, 2.07126454e-01, 1.45232156e-01, 3.37963462e-01,
          5.62915087e-01, 6.40621305e-01, 5.39059222e-01, 2.24756561e-02,
          1.66849364e-02, 1.03398547e-01, 8.45731944e-02, 3.25732082e-02,
          4.18739431e-02, 5.20751119e-01, 6.80086374e-01, 6.80086374e-01,
          2.37076432e-01, 6.51979595e-02, 1.44813582e-02, 8.53354111e-03,
          6.96682790e-03, 0., 8.59575719e-02, 4.93007004e-01,
          4.93007004e-01, 4.93007004e-01, 3.61318171e-01, 9.49564800e-02,
          2.31546275e-02, 3.43530104e-02, 5.60407750e-02, 3.48545253e-01,
          4.57285434e-01, 4.68308449e-01, 3.17978114e-02, 6.96929172e-02,
          5.05761087e-01, 5.05761087e-01, 7.12636560e-02, 4.88071106e-02,
          2.03981653e-01, 4.91866589e-01, 4.91866589e-01, 1.58218041e-01,
          1.02730449e-02, 4.91866589e-01, 4.91866589e-01, 1.45709561e-02,
          1.08775822e-02, 4.34427969e-02, 6.88794553e-01, 6.88794553e-01,
          1.71946675e-01, 0., 3.95811647e-02, 2.60065496e-02, 0.,
          4.57710028e-02, 1.01707570e-01, 4.60878342e-01, 4.60878342e-01,
          3.76830965e-01, 2.38903984e-01, 9.66403112e-02, 1.91035569e-01,
          7.58337229e-02, 3.27885002e-01, 4.60878342e-01, 6.81672752e-01,
          6.81672752e-01, 6.41713962e-02, 6.26410590e-03, 1.01606123e-01,
          5.76768592e-02, 5.80667257e-02, 1.91957250e-01, 7.62403980e-02,
          5.59307337e-01, 5.59307337e-01, 5.59307337e-01, 1.82264045e-01,
          4.02988456e-02, 7.71327242e-02, 1.40235592e-02, 1.01237662e-01,
          6.85660988e-02, 5.61235070e-01, 5.61235070e-01, 5.61235070e-01,
          4.32477258e-02, 6.29111892e-04, 3.13433893e-02, 1.63470939e-01,
          5.77630475e-02, 1.28563628e-01, 4.29133177e-01, 2.18693435e-01,
          1.23416811e-01, 7.49851111e-03, 1.08730026e-01, 4.29133177e-01,
          4.29133177e-01, 4.29133177e-01, 4.29133177e-01, 4.66779411e-01,
          4.68985617e-01, 4.68985617e-01, 8.00518394e-02, 3.98514140e-03,
          5.22234477e-02, 2.91152954e-01, 4.56175357e-01, 1.88468233e-01,
          4.79077488e-01, 4.79077488e-01, 4.79077488e-01, 4.71530706e-01,
          2.56648332e-01, 9.42279771e-03, 2.60576475e-02, 1.00493103e-01,
          8.71381089e-02, 2.75043488e-01, 5.02110422e-01, 5.02110422e-01,
          5.02110422e-01, 2.23556519e-01, 3.02875452e-02, 2.37407312e-01,
          2.32048795e-01, 4.34511825e-02, 1.21151760e-01, 1.59752965e-01,
          1.70532078e-01, 1.50202289e-01, 1.04886487e-01, 5.43422759e-01,
          5.43422759e-01, 5.43422759e-01, 7.61992633e-02 ]
      - [ 1.25824213e-01, 1.75263375e-01, 5.03535569e-01, 3.38456005e-01,
          1.05389230e-01, 5.03535569e-01, 5.03535569e-01, 2.48930201e-01,
          1.23361005e-02, 9.03726742e-02, 4.15950604e-02, 3.19951326e-02,
          5.17612547e-02, 5.52453876e-01, 5.75706184e-01, 5.75706184e-01,
          1.11890979e-01, 7.13176187e-03, 1.06158845e-01, 2.31237680e-01,
          4.31390673e-01, 4.31390673e-01, 4.31390673e-01, 4.31390673e-01,
          4.31390673e-01, 2.13693827e-02, 2.00765254e-03, 7.53355920e-02,
          9.95940641e-02, 1.73806384e-01, 4.26832497e-01, 4.26832497e-01,
          4.26832497e-01, 4.26832497e-01, 4.26832497e-01, 1.97492570e-01,
          3.11316503e-03, 6.23073354e-02, 1.25470400e-01, 1.37739584e-01,
          5.10435879e-01, 5.70962846e-01, 5.70962846e-01, 2.07723647e-01,
          7.34370202e-04, 1.48554146e-01, 2.09735826e-01, 8.47858042e-02,
          1.14804571e-02, 3.63522694e-02, 6.30585313e-01, 6.30585313e-01,
          3.47888768e-01, 5.19858599e-02, 3.97922158e-01, 3.97922158e-01,
          3.52524698e-01, 2.17127666e-01, 3.97922158e-01, 3.97922158e-01,
          3.97922158e-01, 1.80978715e-01, 1.19691482e-02, 1.78131387e-01,
          3.09404224e-01, 2.89005578e-01, 3.88885468e-01, 2.93826967e-01,
          3.06377470e-01, 3.88885468e-01, 3.88885468e-01, 3.88885468e-01,
          8.54208041e-03, 3.10633510e-01, 4.22524512e-01, 4.22524512e-01,
          4.22524512e-01, 4.22524512e-01, 4.22524512e-01, 8.11067894e-02,
          0., 7.44633749e-02, 7.01636896e-02, 7.77945891e-02,
          5.64345382e-02, 9.99905765e-02, 5.65155149e-01, 5.65155149e-01,
          5.65155149e-01, 8.03286433e-02, 3.82598370e-01, 3.82598370e-01,
          3.82598370e-01, 3.12572181e-01, 3.82598370e-01, 3.82598370e-01,
          3.82598370e-01, 1.21450230e-01, 7.37360194e-02, 3.26825202e-01,
          4.14472550e-01, 3.60499591e-01, 1.43329084e-01, 4.14472550e-01,
          4.14472550e-01, 3.65080148e-01, 1.70057565e-01, 2.46933609e-01,
          1.01360910e-01, 4.17066664e-01, 4.17066664e-01, 3.38799596e-01,
          4.02928174e-01, 4.17066664e-01, 4.17066664e-01, 5.38144447e-03,
          1.12320654e-01, 1.41796261e-01, 2.40182236e-01, 7.26515353e-02,
          9.24595892e-02, 3.43584478e-01, 4.95493978e-01, 4.95493978e-01,
          4.95493978e-01, 2.20991492e-01, 3.36787313e-01, 3.36787313e-01,
          3.36787313e-01, 2.98713118e-01, 3.36787313e-01, 3.36787313e-01,
          3.36787313e-01, 3.36787313e-01, 3.36787313e-01, 2.56876796e-01,
          2.15518102e-01, 3.57841104e-01, 3.57841104e-01, 3.40131521e-01,
          3.57841104e-01, 3.57841104e-01, 3.57841104e-01, 3.57841104e-01 ]
      - [ 3.27007137e-02, 2.10573271e-01, 5.26017129e-01, 5.26017129e-01,
          1.60127506e-01, 2.49594182e-01, 5.26017129e-01, 1.76728040e-01,
          9.12759081e-03, 6.80580065e-02, 3.40925455e-02, 6.45243376e-03,
          7.70270126e-03, 6.21569455e-02, 6.96544290e-01, 6.96544290e-01,
          1.10310517e-01, 2.77806260e-02, 3.06973934e-01, 3.95090431e-01,
          3.95090431e-01, 3.45829368e-01, 3.95090431e-01, 3.95090431e-01,
          3.95090431e-01, 4.05506380e-02, 9.76592395e-03, 4.89598848e-02,
          2.50867158e-01, 3.11987907e-01, 4.06258672e-01, 4.06258672e-01,
          4.06258672e-01, 4.06258672e-01, 4.06258672e-01, 8.96844417e-02,
          1.01833101e-02, 5.76158278e-02, 2.56578535e-01, 4.07621950e-01,
          4.96376336e-01, 4.96376336e-01, 4.96376336e-01, 1.30300403e-01,
          5.90275601e-02, 6.21000342e-02, 7.91367441e-02, 1.06675804e-01,
          2.68152053e-03, 3.20513770e-02, 5.70255101e-01, 5.70255101e-01,
          5.66373169e-01, 2.47373730e-02, 4.17534828e-01, 4.17534828e-01,
          2.86269307e-01, 5.00466190e-02, 4.17534828e-01, 4.17534828e-01,
          4.17534828e-01, 1.98789731e-01, 1.34163406e-02, 3.66584450e-01,
          3.66584450e-01, 1.92633301e-01, 1.36165127e-01, 3.66584450e-01,
          3.66584450e-01, 3.66584450e-01, 3.66584450e-01, 3.66584450e-01,
          6.54487759e-02, 4.87923175e-02, 1.91137210e-01, 5.32827735e-01,
          5.32827735e-01, 5.32827735e-01, 3.11922938e-01, 4.92895171e-02,
          6.29361579e-03, 4.51640077e-02, 7.82298818e-02, 2.42581174e-01,
          4.37754951e-02, 3.12915742e-01, 5.24441898e-01, 5.24441898e-01,
          5.24441898e-01, 5.29789217e-02, 3.55388105e-01, 3.55388105e-01,
          3.55388105e-01, 3.11434567e-01, 2.37911567e-01, 3.55388105e-01,
          3.55388105e-01, 3.55388105e-01, 2.91636288e-01, 1.99909449e-01,
          3.95667136e-01, 2.90717751e-01, 3.95667136e-01, 3.95667136e-01,
          3.95667136e-01, 3.95667136e-01, 2.86499560e-01, 8.19899142e-02,
          3.84379417e-01, 3.84379417e-01, 3.06077242e-01, 3.84379417e-01,
          3.84379417e-01, 3.84379417e-01, 3.07955712e-01, 1.45743206e-01,
          2.18313918e-01, 2.81791270e-01, 9.97467637e-02, 1.07710935e-01,
          1.19890139e-01, 4.63904679e-01, 4.63904679e-01, 4.63904679e-01,
          4.63904679e-01, 1.38582811e-01, 3.69404405e-01, 2.84495503e-01,
          1.52225643e-01, 3.69404405e-01, 3.69404405e-01, 2.71000862e-01,
          3.69404405e-01, 3.69404405e-01, 3.69404405e-01, 2.91855752e-01,
          2.47433767e-01, 1.60182834e-01, 2.21884087e-01, 3.04680526e-01,
          4.12841141e-01, 4.12841141e-01, 4.12841141e-01, 4.12841141e-01 ]
      - [ 6.67374879e-02, 1.50373295e-01, 4.56386626e-01, 4.16406512e-01,
          3.21237519e-02, 4.32748705e-01, 5.96905887e-01, 2.01719522e-01,
          0., 7.32125118e-02, 1.82090420e-02, 1.65883396e-02,
          2.95756455e-03, 6.67223185e-02, 6.76348746e-01, 6.76348746e-01,
          2.57084936e-01, 4.28091884e-02, 4.31987584e-01, 4.31987584e-01,
          1.45234033e-01, 1.04343973e-01, 4.31987584e-01, 4.31987584e-01,
          4.31987584e-01, 1.55204490e-01, 8.09291527e-02, 3.65470588e-01,
          3.65470588e-01, 2.75839329e-01, 3.65470588e-01, 3.65470588e-01,
          3.65470588e-01, 3.65470588e-01, 3.38702857e-01, 6.42588660e-02,
          1.44360550e-02, 8.20917264e-02, 1.73910141e-01, 3.50886494e-01,
          5.16063988e-01, 5.16063988e-01, 5.16063988e-01, 1.88590795e-01,
          0., 9.16168019e-02, 1.01923738e-02, 6.78544538e-03,
          4.91568819e-04, 1.76328212e-01, 5.72027981e-01, 5.72027981e-01,
          5.41242421e-01, 8.53063390e-02, 2.86445886e-01, 4.45404351e-01,
          3.01836520e-01, 6.17746487e-02, 4.45404351e-01, 4.45404351e-01,
          4.45404351e-01, 1.53862312e-01, 3.69413607e-02, 3.90983760e-01,
          3.90983760e-01, 3.90983760e-01, 1.72258168e-01, 3.75329107e-01,
          3.90983760e-01, 3.90983760e-01, 2.44061470e-01, 4.05171700e-02,
          1.85316637e-01, 4.54852097e-02, 1.54013231e-01, 5.40398300e-01,
          5.40398300e-01, 5.40398300e-01, 1.93353534e-01, 1.60423554e-02,
          1.44007504e-01, 8.39739740e-02, 4.76440191e-02, 2.11150393e-01,
          6.48651272e-02, 4.60950732e-01, 4.70147938e-01, 4.70147938e-01,
          4.70147938e-01, 2.48188898e-01, 2.60381609e-01, 3.89051616e-01,
          3.89051616e-01, 1.76501498e-01, 2.61515379e-01, 2.68264383e-01,
          3.89051616e-01, 3.89051616e-01, 3.89051616e-01, 1.43659979e-01,
          3.70372444e-01, 3.59809130e-01, 3.70372444e-01, 3.70372444e-01,
          3.70372444e-01, 3.70372444e-01, 3.70372444e-01, 1.52133256e-01,
          3.54564756e-01, 3.54564756e-01, 2.64002383e-01, 3.54564756e-01,
          3.54564756e-01, 3.54564756e-01, 3.54564756e-01, 2.16210544e-01,
          3.54564756e-01, 2.19039157e-01, 5.75108938e-02, 8.97363126e-02,
          1.77613214e-01, 4.65569079e-01, 4.65569079e-01, 4.65569079e-01,
          4.65569079e-01, 1.93511918e-01, 3.95739913e-01, 2.23578259e-01,
          2.02235460e-01, 3.88132870e-01, 3.95739913e-01, 3.58082771e-01,
          3.02585542e-01, 3.95739913e-01, 2.54757375e-01, 3.79238725e-01,
          3.79238725e-01, 2.35987470e-01, 1.08154811e-01, 2.56693512e-01,
          3.79238725e-01, 3.79238725e-01, 3.79238725e-01, 3.79238725e-01 ]
      - [ 4.77726273e-02, 1.68802157e-01, 2.13056445e-01, 2.02429235e-01,
          6.99747354e-02, 4.17228013e-01, 6.61573887e-01, 5.09502292e-01,
          0., 1.98365852e-01, 1.43646657e-01, 6.74295425e-02,
          1.01406174e-03, 4.39684615e-02, 5.74671566e-01, 5.74671566e-01,
          5.15792787e-01, 3.54988910e-02, 4.65209723e-01, 4.65209723e-01,
          1.02820501e-01, 6.09061588e-03, 4.22218114e-01, 4.65209723e-01,
          3.85926694e-01, 6.39924556e-02, 6.46638200e-02, 4.01474237e-01,
          4.01474237e-01, 4.01474237e-01, 2.52921134e-01, 4.01474237e-01,
          4.01474237e-01, 3.02212179e-01, 1.58451110e-01, 9.83537734e-02,
          2.67918855e-02, 5.08979969e-02, 8.15315917e-02, 3.71602029e-01,
          5.22671521e-01, 5.22671521e-01, 5.22671521e-01, 1.64862841e-01,
          0., 7.12899715e-02, 9.28944871e-02, 3.38690393e-02,
          2.09230501e-02, 1.44690350e-01, 5.64765453e-01, 5.64765453e-01,
          5.64765453e-01, 3.53327543e-02, 3.98490518e-01, 4.62965220e-01,
          4.59010601e-02, 4.65057045e-03, 2.91938394e-01, 4.62965220e-01,
          4.62965220e-01, 3.08871865e-01, 1.03982292e-01, 4.31431293e-01,
          4.31431293e-01, 4.31431293e-01, 1.11227326e-01, 4.31431293e-01,
          4.31431293e-01, 2.29358956e-01, 2.69527966e-03, 6.41853409e-03,
          3.57691467e-01, 3.57691467e-01, 3.12840223e-01, 3.57691467e-01,
          3.57691467e-01, 3.57691467e-01, 3.57691467e-01, 5.43598793e-02,
          3.57691467e-01, 1.35155112e-01, 1.94023699e-02, 2.10949555e-01,
          3.94972235e-01, 3.72198433e-01, 4.51624006e-01, 4.51624006e-01,
          4.51624006e-01, 1.60991520e-01, 2.39795804e-01, 3.88888210e-01,
          2.83202976e-01, 2.78549701e-01, 3.02791566e-01, 2.90172756e-01,
          3.88888210e-01, 3.88888210e-01, 3.88888210e-01, 3.57089609e-01,
          3.80842417e-01, 1.25024468e-01, 8.43255967e-02, 3.60274255e-01,
          3.80842417e-01, 3.80842417e-01, 3.80842417e-01, 3.68753403e-01,
          3.74765724e-01, 3.45746875e-01, 3.30787227e-02, 2.41562545e-01,
          3.74765724e-01, 3.74765724e-01, 3.74765724e-01, 3.74765724e-01,
          3.39148015e-01, 4.32080701e-02, 2.79470300e-03, 8.09729844e-02,
          2.64945954e-01, 4.70097601e-01, 4.70097601e-01, 4.70097601e-01,
          4.70097601e-01, 1.80858493e-01, 3.77181143e-01, 3.42833251e-01,
          2.64981002e-01, 3.77181143e-01, 3.77181143e-01, 3.77181143e-01,
          2.40088046e-01, 2.84873873e-01, 3.17213058e-01, 3.74841511e-01,
          3.74841511e-01, 1.38611048e-01, 2.36247286e-01, 3.74841511e-01,
          3.74841511e-01, 3.74841511e-01, 2.79628873e-01, 3.74841511e-01 ]
      - [ 2.64875777e-02, 4.68856730e-02, 2.17721567e-01, 1.17915221e-01,
          1.05811834e-01, 5.54871619e-01, 5.54871619e-01, 5.50718844e-01,
          8.71801822e-05, 3.08161199e-01, 2.45130494e-01, 6.82170969e-03,
          1.08825858e-03, 1.40921893e-02, 5.31462133e-01, 5.31462133e-01,
          5.23777127e-01, 1.21449521e-02, 4.83667344e-01, 4.57630485e-01,
          1.48716487e-03, 0., 4.83667344e-01, 4.83667344e-01,
          2.64730066e-01, 2.31119525e-02, 1.15424745e-01, 3.80872846e-01,
          4.62099522e-01, 3.85412514e-01, 1.50992721e-01, 4.62099522e-01,
          4.62099522e-01, 1.93027690e-01, 2.38649622e-02, 2.32677869e-02,
          1.58519763e-02, 7.64726996e-02, 1.95359901e-01, 2.14492396e-01,
          5.47314525e-01, 5.47314525e-01, 5.47314525e-01, 6.38041496e-02,
          3.91409881e-02, 6.81205168e-02, 9.69269499e-02, 6.94753304e-02,
          9.24723316e-03, 6.87333718e-02, 5.90325594e-01, 5.90325594e-01,
          5.18264711e-01, 6.97606802e-02, 3.20939839e-01, 4.25421178e-01,
          1.92951169e-02, 0., 2.28475615e-01, 4.65500504e-01,
          4.65500504e-01, 4.65500504e-01, 9.33768675e-02, 4.89707083e-01,
          4.89707083e-01, 2.43018284e-01, 5.54705597e-02, 4.24607217e-01,
          4.89707083e-01, 1.81513160e-01, 1.72223970e-02, 0.,
          2.86428273e-01, 3.62227321e-01, 2.91367263e-01, 2.98993975e-01,
          3.62227321e-01, 3.62227321e-01, 3.62227321e-01, 2.89835095e-01,
          3.62227321e-01, 2.71530841e-02, 9.28259566e-02, 1.29227817e-01,
          8.04359838e-02, 3.87321025e-01, 5.33528984e-01, 5.33528984e-01,
          4.69394356e-01, 1.49976984e-01, 3.48723620e-01, 3.48723620e-01,
          3.48723620e-01, 3.24185699e-01, 3.48723620e-01, 3.48723620e-01,
          3.48723620e-01, 3.48723620e-01, 2.00405225e-01, 3.80552024e-01,
          3.80552024e-01, 1.75829843e-01, 1.57974109e-01, 2.67221361e-01,
          3.80552024e-01, 3.80552024e-01, 3.80552024e-01, 3.80552024e-01,
          2.17346206e-01, 1.25142574e-01, 7.69680785e-03, 4.14605230e-01,
          4.14605230e-01, 2.70945579e-01, 4.14605230e-01, 4.14605230e-01,
          4.14605230e-01, 1.49638787e-01, 1.59569666e-01, 3.95863689e-03,
          6.01969324e-02, 4.72796053e-01, 4.72796053e-01, 4.72796053e-01,
          4.72796053e-01, 2.22799048e-01, 3.43845516e-01, 2.25226060e-01,
          3.43845516e-01, 3.43845516e-01, 3.43845516e-01, 3.43845516e-01,
          3.43845516e-01, 3.43845516e-01, 3.43845516e-01, 3.54529351e-01,
          2.21960261e-01, 3.41394275e-01, 3.54529351e-01, 3.54529351e-01,
          3.54529351e-01, 3.54529351e-01, 2.76577085e-01, 3.54529351e-01 ]
      - [ 3.98542024e-02, 1.13427922e-01, 1.83449164e-01, 1.87480509e-01,
          2.68829852e-01, 6.02772653e-01, 6.02772653e-01, 3.34343165e-01,
          0., 2.10907310e-01, 6.38988242e-02, 2.65468787e-02,
          3.17779593e-02, 3.83544080e-02, 5.60083270e-01, 5.60083270e-01,
          5.60083270e-01, 3.97079848e-02, 4.40469354e-01, 2.39683241e-01,
          1.84492350e-01, 2.71482110e-01, 4.40469354e-01, 4.40469354e-01,
          4.40469354e-01, 2.28648067e-01, 4.55974638e-02, 3.08466554e-01,
          1.87753096e-01, 1.50877535e-02, 1.58134885e-02, 6.29457235e-01,
          6.29457235e-01, 2.58399069e-01, 4.54969443e-02, 3.95210274e-02,
          1.37348890e-01, 2.37592652e-01, 5.17687798e-02, 1.50874525e-01,
          5.22358835e-01, 5.22358835e-01, 5.22358835e-01, 4.08274084e-02,
          2.71628559e-01, 1.09916493e-01, 1.33635923e-01, 9.19076726e-02,
          7.07734674e-02, 2.23394036e-01, 6.46488547e-01, 6.46488547e-01,
          2.41487607e-01, 7.76753873e-02, 2.53459007e-01, 2.45179236e-01,
          9.51571837e-02, 1.51000306e-01, 3.15158695e-01, 4.96130198e-01,
          4.96130198e-01, 4.96130198e-01, 3.27730924e-02, 4.57163334e-01,
          4.57163334e-01, 1.30167156e-01, 1.62188767e-03, 1.63962260e-01,
          4.57163334e-01, 4.57163334e-01, 3.36462438e-01, 4.90277708e-02,
          3.78127426e-01, 3.78127426e-01, 1.53196035e-02, 1.52267367e-01,
          3.78127426e-01, 3.78127426e-01, 3.78127426e-01, 3.38998795e-01,
          3.78127426e-01, 2.18374003e-02, 2.28950568e-02, 2.53445935e-02,
          5.81333824e-02, 1.86850995e-01, 6.11284852e-01, 6.11284852e-01,
          3.85741472e-01, 2.40469709e-01, 6.15777448e-02, 6.79819807e-02,
          2.90652275e-01, 4.18792009e-01, 4.18792009e-01, 4.18792009e-01,
          4.18792009e-01, 4.18792009e-01, 1.61215737e-01, 3.68933707e-01,
          3.68933707e-01, 3.68933707e-01, 3.68933707e-01, 1.68416336e-01,
          2.70834625e-01, 3.68933707e-01, 3.68933707e-01, 2.79152751e-01,
          2.26985648e-01, 1.23118393e-01, 4.84213233e-02, 3.93075079e-01,
          3.93075079e-01, 3.93075079e-01, 3.93075079e-01, 3.93075079e-01,
          3.93075079e-01, 3.27125698e-01, 2.23230660e-01, 8.79991502e-02,
          1.11629643e-01, 1.77723885e-01, 4.22953039e-01, 4.50177819e-01,
          4.50177819e-01, 4.50177819e-01, 4.73486245e-01, 1.89682916e-02,
          1.14823371e-01, 5.38424365e-02, 1.01248480e-01, 2.67991662e-01,
          4.73486245e-01, 4.73486245e-01, 4.73486245e-01, 3.98838997e-01,
          3.69468212e-01, 3.98838997e-01, 3.98838997e-01, 1.19186841e-01,
          2.87936449e-01, 2.52308279e-01, 2.49892578e-01, 3.98838997e-01 ]
      - [ 0., 2.00116783e-02, 5.09086177e-02, 1.52394950e-01,
          2.21299469e-01, 6.53653085e-01, 6.53653085e-01, 2.52507150e-01,
          0., 2.38560334e-01, 1.56752989e-01, 3.86299528e-02,
          1.63608119e-02, 4.25021611e-02, 5.52309752e-01, 5.52309752e-01,
          5.46949863e-01, 1.37647325e-02, 3.58526409e-01, 2.65318245e-01,
          4.59157199e-01, 6.13337271e-02, 3.28395128e-01, 4.59157199e-01,
          4.59157199e-01, 2.25062832e-01, 4.17658426e-02, 1.87375724e-01,
          4.96268943e-02, 5.00947200e-02, 1.21048123e-01, 5.51814377e-01,
          5.51814377e-01, 5.51814377e-01, 1.43791109e-01, 7.47113898e-02,
          3.06853235e-01, 2.54989415e-01, 2.27937149e-03, 3.23141702e-02,
          6.11370265e-01, 6.11370265e-01, 2.53463149e-01, 2.70113666e-02,
          1.45421132e-01, 1.62143372e-02, 1.60719618e-01, 3.26836519e-02,
          1.90756191e-02, 1.07173227e-01, 6.77772582e-01, 6.77772582e-01,
          1.63024440e-01, 9.43063945e-02, 2.95286886e-02, 2.43604958e-01,
          3.41810256e-01, 1.02457423e-02, 3.52907121e-01, 4.84142363e-01,
          4.84142363e-01, 4.68788117e-01, 7.01172948e-02, 4.22133982e-01,
          4.22133982e-01, 2.19324946e-01, 3.89203653e-02, 1.70389742e-01,
          4.22133982e-01, 4.22133982e-01, 4.22133982e-01, 1.61699459e-01,
          4.14761126e-01, 1.91000268e-01, 2.43125577e-03, 2.62981176e-01,
          4.14761126e-01, 4.14761126e-01, 4.14761126e-01, 1.73426047e-01,
          4.14761126e-01, 8.37194640e-03, 1.93828028e-02, 1.91759001e-02,
          6.31129369e-02, 9.57688093e-02, 6.55828118e-01, 6.55828118e-01,
          3.01343292e-01, 1.68686986e-01, 3.50479484e-02, 1.42071560e-01,
          2.47588798e-01, 8.92840922e-02, 4.64530408e-01, 4.70512927e-01,
          4.70512927e-01, 4.70512927e-01, 1.57099426e-01, 1.10334590e-01,
          3.93016517e-01, 3.93016517e-01, 3.93016517e-01, 3.64195704e-01,
          3.54803920e-01, 2.06092566e-01, 3.93016517e-01, 2.55055845e-01,
          4.86963056e-02, 9.56569687e-02, 1.92843065e-01, 4.15123224e-01,
          4.15123224e-01, 3.53596032e-01, 3.64422530e-01, 4.15123224e-01,
          4.15123224e-01, 4.36220825e-01, 5.85488975e-02, 1.55745208e-01,
          2.24880353e-01, 8.30156878e-02, 3.61612260e-01, 4.43235546e-01,
          4.43235546e-01, 4.43235546e-01, 3.86609912e-01, 4.04423568e-03,
          4.12055030e-02, 5.09528406e-02, 4.99052331e-02, 2.33390287e-01,
          4.94986713e-01, 5.19164741e-01, 5.19164741e-01, 3.82202834e-01,
          3.73027414e-01, 3.82202834e-01, 3.82202834e-01, 1.54130518e-01,
          2.37190634e-01, 2.15920225e-01, 3.82202834e-01, 3.82202834e-01 ]
      - [ 5.11854768e-01, 5.11854768e-01, 4.04075176e-01, 1.57737598e-01,
          7.21633583e-02, 2.69741099e-02, 3.98414023e-02, 2.88246989e-01,
          4.38327223e-01, 5.69303870e-01, 5.69303870e-01, 8.58852640e-02,
          5.64447194e-02, 7.55787687e-03, 7.13574840e-03, 2.20662653e-02,
          1.04101866e-01, 5.69303870e-01, 4.72222626e-01, 4.72222626e-01,
          4.72222626e-01, 1.87777340e-01, 2.15422194e-02, 1.45531036e-02,
          7.16397315e-02, 3.16618323e-01, 4.30099100e-01, 5.27866244e-01,
          5.27866244e-01, 5.27866244e-01, 3.71719509e-01, 9.25155953e-02,
          7.82916024e-02, 8.11714400e-03, 7.10831210e-02, 2.85875760e-02,
          4.56999630e-01, 4.56999630e-01, 4.56999630e-01, 4.56999630e-01,
          3.88786495e-01, 8.30130428e-02, 4.05072533e-02, 8.60950071e-03,
          1.67174246e-02, 4.09661591e-01, 4.09661591e-01, 4.09661591e-01,
          3.81957054e-01, 4.41109538e-02, 7.50149116e-02, 4.09661591e-01,
          2.97719151e-01, 2.87256509e-01, 3.70769233e-01, 4.02604312e-01,
          3.74170393e-01, 2.20416114e-01, 1.14083111e-01, 2.31374085e-01,
          4.02604312e-01, 4.02604312e-01, 3.42201680e-01, 4.97882664e-01,
          4.97882664e-01, 4.97882664e-01, 4.97882664e-01, 5.05232289e-02,
          8.37839115e-03, 1.87651496e-02, 1.17968051e-02, 1.90991536e-02,
          5.30572057e-01, 5.30572057e-01, 5.30572057e-01, 2.93145716e-01,
          1.76271461e-02, 4.31665219e-03, 4.89145592e-02, 1.22004203e-01,
          2.15962484e-01, 2.58186668e-01, 4.93216127e-01, 4.93216127e-01,
          4.93216127e-01, 2.09797367e-01, 8.96593407e-02, 2.70637035e-01,
          1.82545260e-01, 2.00015530e-01, 4.43726301e-01, 4.43726301e-01,
          4.43726301e-01, 1.83498472e-01, 8.22239816e-02, 3.88515405e-02,
          3.16266924e-01, 2.56960899e-01, 4.43726301e-01, 5.15705347e-01,
          5.15705347e-01, 5.15705347e-01, 2.01988056e-01, 5.02784587e-02,
          4.72331978e-02, 1.79211855e-01, 2.28650793e-01, 2.58915931e-01,
          4.58909601e-01, 4.58909601e-01, 4.58909601e-01, 2.32276723e-01,
          5.43382131e-02, 0., 6.84448555e-02, 3.02381068e-01,
          4.58909601e-01, 5.53674459e-01, 5.53674459e-01, 4.57623780e-01,
          2.58798957e-01, 2.38080561e-01, 6.52260110e-02, 1.17564194e-01,
          9.81595889e-02, 1.43423796e-01, 4.50300545e-01, 4.50300545e-01,
          4.50300545e-01, 4.50300545e-01, 3.03906143e-01, 2.06345841e-02,
          2.04445571e-02, 6.81485282e-03, 3.01944613e-01, 3.57136011e-01,
          6.31268442e-01, 6.31268442e-01, 2.52953559e-01, 1.18994620e-02,
          0., 1.29218828e-02, 2.77371854e-02, 6.39365315e-02 ]
      - [ 1.29282214e-02, 3.12133543e-02, 1.07884947e-02, 1.41018571e-03,
          7.69796073e-02, 6.97459221e-01, 6.97459221e-01, 1.13809153e-01,
          7.94095162e-04, 9.59106311e-02, 7.22782388e-02, 4.34215255e-02,
          4.18904750e-03, 1.32992733e-02, 6.67242229e-01, 6.67242229e-01,
          2.85871267e-01, 6.84774444e-02, 1.11582637e-01, 2.98655331e-01,
          3.98516655e-01, 3.98516655e-01, 2.49564514e-01, 3.98516655e-01,
          3.98516655e-01, 2.77614385e-01, 3.46061856e-01, 7.72505952e-03,
          6.02471307e-02, 8.11322331e-02, 3.59843820e-01, 4.53149378e-01,
          4.53149378e-01, 4.53149378e-01, 4.53149378e-01, 1.85301647e-01,
          1.13841839e-01, 3.12523633e-01, 4.85696048e-02, 1.27321139e-01,
          5.10632277e-01, 5.10632277e-01, 5.10632277e-01, 1.31247222e-01,
          2.57367164e-01, 5.60415201e-02, 3.01687755e-02, 1.25075132e-02,
          1.54041061e-02, 9.25273001e-02, 6.53540790e-01, 6.53540790e-01,
          3.41039836e-01, 9.96504501e-02, 7.20906034e-02, 3.38044345e-01,
          3.79758090e-01, 2.38785058e-01, 3.79758090e-01, 3.79758090e-01,
          3.79758090e-01, 3.14063430e-01, 3.79758090e-01, 4.28582542e-02,
          7.96623752e-02, 7.44281933e-02, 7.38815144e-02, 4.41906035e-01,
          4.41906035e-01, 4.41906035e-01, 4.41906035e-01, 4.41906035e-01,
          1.00276977e-01, 7.67729655e-02, 4.13017362e-01, 4.13017362e-01,
          4.13017362e-01, 4.13017362e-01, 4.13017362e-01, 2.77074903e-01,
          2.24136949e-01, 1.10118441e-01, 1.33621804e-02, 7.60047361e-02,
          1.85282156e-01, 2.92582065e-02, 4.01484013e-01, 5.38583636e-01,
          5.38583636e-01, 4.47236627e-01, 1.38717562e-01, 1.92739189e-01,
          3.89840811e-01, 2.44935319e-01, 3.46181691e-01, 3.89840811e-01,
          3.89840811e-01, 3.89840811e-01, 3.89840811e-01, 1.41561672e-01,
          1.70575008e-01, 2.83142060e-01, 2.75525510e-01, 3.97695303e-01,
          3.97695303e-01, 3.97695303e-01, 3.97695303e-01, 3.97695303e-01,
          1.50383515e-02, 4.21594203e-01, 4.21594203e-01, 4.21594203e-01,
          1.19889431e-01, 2.40070716e-01, 3.57291192e-01, 4.21594203e-01,
          2.91429490e-01, 3.62060666e-01, 1.56385168e-01, 3.62060666e-01,
          2.33046710e-01, 3.62060666e-01, 3.62060666e-01, 3.62060666e-01,
          3.62060666e-01, 3.62060666e-01, 2.68108487e-01, 3.27149779e-03,
          7.63188815e-03, 3.66852768e-02, 4.77442503e-01, 4.03822482e-01,
          1.30947888e-01, 5.06690919e-01, 5.06690919e-01, 5.28000772e-01,
          1.21114932e-01, 4.64904495e-02, 2.39382423e-02, 3.11958015e-01,
          5.05684674e-01, 9.67364088e-02, 2.39502445e-01, 5.28000772e-01 ]
      - [ 4.05505657e-01, 4.05505657e-01, 3.20499569e-01, 4.05505657e-01,
          6.18652143e-02, 1.66043758e-01, 4.05505657e-01, 3.36245358e-01,
          3.01713437e-01, 3.71923417e-01, 3.71923417e-01, 3.53930324e-01,
          3.71923417e-01, 3.71923417e-01, 3.71923417e-01, 1.57671124e-01,
          1.27260536e-01, 3.71923417e-01, 1.97980523e-01, 4.34158802e-01,
          2.37184823e-01, 2.36966640e-01, 4.34158802e-01, 4.34158802e-01,
          4.34158802e-01, 2.82398760e-01, 1.01648562e-01, 1.89031109e-01,
          3.44322294e-01, 1.85204893e-01, 3.86797160e-01, 3.86797160e-01,
          3.86797160e-01, 3.86797160e-01, 3.86797160e-01, 2.43893623e-01,
          3.87657553e-01, 3.87657553e-01, 3.28557998e-01, 2.19307482e-01,
          3.11734170e-01, 3.87657553e-01, 3.87657553e-01, 2.48319253e-01,
          2.83067167e-01, 3.49830836e-01, 3.46889675e-01, 3.49830836e-01,
          3.49830836e-01, 3.22094142e-01, 3.11289281e-01, 2.52227634e-01,
          3.49830836e-01, 3.49830836e-01, 3.77766490e-01, 3.77766490e-01,
          1.29324093e-01, 3.77766490e-01, 2.37582251e-01, 3.42394054e-01,
          3.77766490e-01, 3.77766490e-01, 3.03783566e-01, 4.14652109e-01,
          4.14652109e-01, 2.73345053e-01, 4.13459480e-01, 1.02395713e-01,
          2.76674718e-01, 3.35187793e-01, 2.36031681e-01, 3.88874203e-01,
          3.54499340e-01, 2.60802299e-01, 3.60965341e-01, 3.60965341e-01,
          3.60965341e-01, 3.60965341e-01, 3.60965341e-01, 2.64220506e-01,
          2.85330594e-01, 4.07287359e-01, 4.07287359e-01, 4.07287359e-01,
          1.79223016e-01, 3.78309160e-01, 3.94021392e-01, 3.62618059e-01,
          6.54383227e-02, 1.78931847e-01, 4.37865585e-01, 4.37865585e-01,
          2.90468276e-01, 1.71977594e-01, 2.16362566e-01, 2.05467924e-01,
          1.60446391e-01, 4.37865585e-01, 4.37865585e-01, 4.86856788e-01,
          4.20470744e-01, 2.83898920e-01, 9.25090984e-02, 6.42802119e-02,
          3.38328816e-02, 1.13225847e-01, 4.86856788e-01, 4.86856788e-01,
          3.96226078e-01, 3.96226078e-01, 3.96226078e-01, 2.98143208e-01,
          2.98534572e-01, 2.08644494e-01, 1.93982869e-01, 3.29980642e-01,
          3.96226078e-01, 2.38198861e-01, 4.60946769e-01, 4.60946769e-01,
          1.92883089e-01, 4.60946769e-01, 4.60946769e-01, 2.20981255e-01,
          3.38145010e-02, 3.98675539e-02, 7.24529251e-02, 4.97697979e-01,
          4.97697979e-01, 2.23619506e-01, 2.42772132e-01, 1.36315510e-01,
          3.84281039e-01, 4.63707536e-01, 6.44258559e-02, 2.60003179e-01,
          2.87293762e-01, 4.34922129e-01, 4.34922129e-01, 2.91591465e-01,
          2.33398397e-02, 3.91488165e-01, 4.34922129e-01, 1.98018432e-01 ]
      - [ 3.12263370e-02, 3.12988311e-02, 2.57860981e-02, 1.25736918e-03,
          3.42335925e-02, 6.99293256e-01, 6.99293256e-01, 1.05801456e-01,
          3.17514176e-03, 5.08791991e-02, 5.21984510e-02, 4.97436114e-02,
          3.04993577e-02, 1.32910553e-02, 6.83286846e-01, 6.83286846e-01,
          2.09327981e-01, 8.18796158e-02, 2.85060942e-01, 4.03017968e-01,
          4.03017968e-01, 3.79678696e-01, 1.68918818e-01, 4.03017968e-01,
          4.03017968e-01, 2.42996708e-01, 1.82437435e-01, 1.20843835e-01,
          9.40557495e-02, 8.66706148e-02, 2.20040485e-01, 4.69531834e-01,
          4.69531834e-01, 4.69531834e-01, 4.69531834e-01, 1.84635729e-01,
          1.84405506e-01, 1.04399525e-01, 1.20394148e-01, 4.33287829e-01,
          4.34924752e-01, 4.34924752e-01, 4.34924752e-01, 4.05474246e-01,
          1.28956720e-01, 2.16696169e-02, 1.88070089e-02, 4.51300330e-02,
          1.35554612e-01, 1.70919836e-01, 5.59525430e-01, 5.59525430e-01,
          5.59525430e-01, 6.89768568e-02, 3.17168981e-01, 3.74030530e-01,
          3.74030530e-01, 2.82851487e-01, 3.74030530e-01, 3.74030530e-01,
          3.74030530e-01, 2.10250825e-01, 2.68258303e-01, 3.18365127e-01,
          1.30724296e-01, 1.79852948e-01, 5.71745373e-02, 4.10326630e-01,
          4.10326630e-01, 4.10326630e-01, 4.10326630e-01, 4.10326630e-01,
          2.73270570e-02, 1.53171122e-01, 4.33912665e-01, 4.33912665e-01,
          4.33912665e-01, 1.65746599e-01, 4.33912665e-01, 4.33912665e-01,
          5.08388877e-02, 4.76983696e-01, 1.89075377e-02, 7.52670988e-02,
          1.29320934e-01, 6.41348958e-02, 2.41500199e-01, 4.76983696e-01,
          4.76983696e-01, 4.76983696e-01, 3.74339104e-01, 2.90744990e-01,
          3.58171314e-01, 1.67674646e-01, 2.33831719e-01, 3.74339104e-01,
          3.74339104e-01, 3.74339104e-01, 3.74339104e-01, 3.35289001e-01,
          1.03616670e-01, 1.25256985e-01, 4.80982885e-02, 4.29523706e-01,
          4.29523706e-01, 4.29523706e-01, 3.41451436e-01, 4.29523706e-01,
          1.24221660e-01, 4.70353752e-01, 4.70353752e-01, 2.91856438e-01,
          2.45099157e-01, 3.92620534e-01, 3.13334286e-01, 3.73742968e-01,
          1.17885089e-02, 4.17915672e-01, 1.53230965e-01, 1.63769603e-01,
          4.17915672e-01, 4.17915672e-01, 4.17915672e-01, 2.30896756e-01,
          1.37637421e-01, 4.17915672e-01, 1.16355278e-01, 7.10998545e-04,
          2.58280914e-02, 2.42105216e-01, 4.78076190e-01, 4.78076190e-01,
          9.04247835e-02, 4.78076190e-01, 4.78076190e-01, 4.98752207e-01,
          2.16423366e-02, 1.28207658e-03, 1.51321059e-03, 4.35227871e-01,
          4.98752207e-01, 1.04217343e-01, 2.19089940e-01, 4.98752207e-01 ]
      - [ 5.56319654e-01, 5.56319654e-01, 1.70675054e-01, 1.05683267e-01,
          1.35222912e-01, 1.87707171e-02, 0., 8.38660300e-02,
          5.56319654e-01, 4.20935214e-01, 4.20935214e-01, 4.20935214e-01,
          4.20935214e-01, 3.19982827e-01, 1.51130324e-03, 0.,
          1.33756712e-01, 4.08371359e-01, 4.02624846e-01, 4.02624846e-01,
          4.02624846e-01, 4.02624846e-01, 4.02624846e-01, 9.72673018e-03,
          3.85469347e-02, 1.47501633e-01, 4.02624846e-01, 3.98974210e-01,
          3.98974210e-01, 8.69602785e-02, 3.98974210e-01, 2.91891843e-01,
          1.02675796e-01, 3.11138242e-01, 3.98974210e-01, 3.98974210e-01,
          4.22546774e-01, 2.21265659e-01, 2.01814264e-01, 4.22546774e-01,
          4.22546774e-01, 3.27835709e-01, 1.92549765e-01, 2.17615813e-01,
          4.22546774e-01, 4.07532185e-01, 3.77383381e-01, 1.15000844e-01,
          7.24442080e-02, 2.18273401e-01, 4.07532185e-01, 3.50804925e-01,
          4.07532185e-01, 4.07532185e-01, 5.51887691e-01, 5.75527132e-01,
          5.75527132e-01, 2.42872518e-02, 1.81297902e-02, 1.88853089e-02,
          1.60546005e-02, 5.50627299e-02, 1.50483713e-01, 4.29056466e-01,
          4.29056466e-01, 1.27334282e-01, 9.82604921e-02, 6.19772114e-02,
          2.13439494e-01, 4.29056466e-01, 4.29056466e-01, 4.29056466e-01,
          2.99182445e-01, 4.92543757e-01, 3.06714207e-01, 4.92543757e-01,
          4.92543757e-01, 2.79064596e-01, 4.02900316e-02, 2.27882974e-02,
          6.06567487e-02, 5.73690757e-02, 3.67360234e-01, 4.59290236e-01,
          4.59290236e-01, 4.59290236e-01, 4.59290236e-01, 8.80297124e-02,
          7.49670491e-02, 2.88170227e-03, 5.66406734e-02, 5.54014027e-01,
          5.54014027e-01, 5.54014027e-01, 2.51899272e-01, 3.44455317e-02,
          7.28942528e-02, 2.23419648e-02, 3.52695002e-03, 8.23390186e-02,
          2.60422796e-01, 2.23525092e-01, 3.00699621e-01, 2.40660250e-01,
          3.75043511e-01, 5.38662612e-01, 5.38662612e-01, 2.73390133e-02,
          4.98169482e-01, 4.98169482e-01, 3.57033573e-02, 8.32762197e-03,
          2.84404419e-02, 1.07042128e-02, 8.10205843e-03, 4.98169482e-01,
          4.98169482e-01, 4.65541929e-01, 4.65541929e-01, 1.07502677e-01,
          2.07934096e-01, 2.10314274e-01, 1.62099674e-01, 5.59555367e-02,
          4.65541929e-01, 4.65541929e-01, 2.83945143e-01, 5.44038236e-01,
          5.44038236e-01, 5.44038236e-01, 1.25944778e-01, 3.25945467e-02,
          9.65860765e-03, 2.62806341e-02, 9.11094174e-02, 3.23143691e-01,
          4.26687628e-01, 2.20468789e-01, 2.34979078e-01, 2.31760994e-01,
          4.26687628e-01, 4.26687628e-01, 3.68402153e-01, 2.27758363e-01 ]
      - [ 2.95379516e-02, 2.80105304e-02, 1.30233737e-02, 0.,
          5.29457927e-02, 7.00727820e-01, 7.00727820e-01, 7.75849670e-02,
          1.78000648e-02, 1.72398519e-02, 1.93240777e-01, 1.78993896e-01,
          5.69278300e-02, 2.92967349e-01, 5.82099617e-01, 5.82099617e-01,
          2.90654123e-01, 2.70701259e-01, 5.11027984e-02, 3.65216941e-01,
          3.65216941e-01, 3.65216941e-01, 2.45062813e-01, 3.65216941e-01,
          3.65216941e-01, 3.65216941e-01, 3.65216941e-01, 3.15463334e-01,
          1.36278674e-01, 2.28954136e-01, 2.01914057e-01, 8.03008303e-02,
          4.40984309e-01, 4.40984309e-01, 4.40984309e-01, 4.40984309e-01,
          5.70394211e-02, 1.16260909e-01, 1.16083704e-01, 4.37411785e-01,
          4.37411785e-01, 4.37411785e-01, 4.37411785e-01, 4.37411785e-01,
          9.34873447e-02, 7.30889887e-02, 6.23075962e-02, 1.39923096e-01,
          2.84630358e-01, 3.55820358e-01, 4.35666949e-01, 4.35666949e-01,
          4.35666949e-01, 4.35666949e-01, 1.74278975e-01, 4.06744808e-01,
          4.06744808e-01, 2.44144335e-01, 4.06744808e-01, 4.06744808e-01,
          3.70179236e-01, 2.41137430e-01, 2.21385986e-01, 2.62201905e-01,
          3.40559751e-01, 3.40559751e-01, 3.40559751e-01, 3.40559751e-01,
          3.40559751e-01, 3.40559751e-01, 3.40559751e-01, 3.40559751e-01,
          7.76580796e-02, 3.63503933e-01, 4.13433790e-01, 4.13433790e-01,
          4.13433790e-01, 2.59158254e-01, 3.16983432e-01, 3.91842157e-01,
          1.54077753e-01, 4.39509124e-01, 1.63467322e-03, 7.80533627e-02,
          1.12873808e-01, 1.47712305e-01, 4.26945418e-01, 4.39509124e-01,
          4.39509124e-01, 4.39509124e-01, 3.73628438e-01, 2.67830759e-01,
          3.20736617e-01, 1.55649081e-01, 9.19648781e-02, 2.95626581e-01,
          1.28619507e-01, 5.10698795e-01, 5.32022417e-01, 4.00113851e-01,
          4.04249355e-02, 8.76096115e-02, 1.04277797e-01, 4.37341183e-01,
          4.37341183e-01, 2.24248648e-01, 4.37341183e-01, 4.37341183e-01,
          3.94145921e-02, 4.71633404e-01, 4.71633404e-01, 4.71633404e-01,
          1.60965502e-01, 4.24453914e-01, 3.27106684e-01, 1.07258253e-01,
          4.29822281e-02, 6.58082440e-02, 7.10705528e-03, 1.02422141e-01,
          4.91693199e-01, 5.61150014e-01, 5.61150014e-01, 2.96815574e-01,
          1.23553975e-02, 1.40470088e-01, 3.80748250e-02, 2.40304717e-03,
          1.08314604e-01, 4.94639844e-01, 4.94639844e-01, 4.94639844e-01,
          9.74985026e-03, 1.22674420e-01, 4.82413143e-01, 3.05095226e-01,
          2.40432639e-02, 3.62672061e-02, 9.51207653e-02, 5.28916478e-01,
          5.28916478e-01, 4.60981391e-02, 2.22059891e-01, 5.28916478e-01 ]
      - [ 6.93028653e-03, 4.10320349e-02, 7.68729951e-03, 2.11923625e-02,
          5.22836372e-02, 6.91198528e-01, 6.91198528e-01, 1.80531651e-01,
          4.91249701e-03, 2.35918555e-02, 8.17395225e-02, 4.77235317e-01,
          1.23259775e-01, 2.28931725e-01, 5.59939921e-01, 5.59939921e-01,
          2.14007869e-01, 1.37657464e-01, 3.06079201e-02, 3.78378570e-01,
          3.78378570e-01, 3.32062393e-01, 1.61231309e-01, 3.78378570e-01,
          3.78378570e-01, 3.78378570e-01, 3.78378570e-01, 2.01469615e-01,
          2.14510888e-01, 4.14227545e-01, 2.45591015e-01, 1.04992799e-01,
          3.89333874e-01, 4.14227545e-01, 4.14227545e-01, 4.14227545e-01,
          5.71091399e-02, 1.18480474e-01, 1.67630345e-01, 5.10721982e-01,
          1.33280545e-01, 2.09819391e-01, 5.27540207e-01, 5.27540207e-01,
          2.64783651e-01, 4.16220427e-01, 2.93152124e-01, 3.77702832e-01,
          3.70493047e-02, 9.24197286e-02, 2.53717959e-01, 4.16220427e-01,
          4.16220427e-01, 4.16220427e-01, 3.31858218e-01, 3.77758712e-01,
          3.77758712e-01, 1.38518736e-01, 1.68802068e-01, 3.77758712e-01,
          3.77758712e-01, 3.53421062e-01, 3.77758712e-01, 1.71691328e-01,
          3.47679526e-01, 3.47679526e-01, 3.47679526e-01, 3.47679526e-01,
          3.47679526e-01, 3.47679526e-01, 3.47679526e-01, 3.47679526e-01,
          1.49769112e-01, 3.34368438e-01, 4.36588675e-01, 4.36588675e-01,
          2.20635965e-01, 1.14213392e-01, 4.36588675e-01, 4.36588675e-01,
          1.92982495e-01, 4.47779179e-01, 4.10369150e-02, 5.05837314e-02,
          5.44893704e-02, 2.42021516e-01, 4.47779179e-01, 3.57374102e-01,
          4.47779179e-01, 4.47779179e-01, 4.18367833e-01, 1.50065020e-01,
          2.02988431e-01, 3.94251347e-01, 3.35706145e-01, 2.62403548e-01,
          1.00675039e-01, 4.52548563e-01, 4.52548563e-01, 2.10455924e-01,
          3.50263938e-02, 3.97219695e-02, 1.90707460e-01, 3.53477120e-01,
          3.33164185e-01, 2.80703545e-01, 5.46050549e-01, 5.46050549e-01,
          1.39896691e-01, 4.65962470e-01, 4.65962470e-01, 4.65962470e-01,
          2.60366023e-01, 4.65962470e-01, 1.68891802e-01, 9.77113396e-02,
          3.77918556e-02, 4.15117443e-02, 1.30781094e-02, 5.31552844e-02,
          1.48796201e-01, 6.74229324e-01, 6.74229324e-01, 2.36287206e-01,
          3.60825844e-02, 1.02571696e-02, 4.64209123e-03, 2.71796634e-05,
          1.87231615e-01, 5.63832462e-01, 5.63832462e-01, 5.63832462e-01,
          3.04658525e-02, 1.58481579e-02, 6.62724599e-02, 3.94036137e-02,
          7.28787249e-03, 1.27926515e-02, 2.54840493e-01, 5.56589603e-01,
          5.56589603e-01, 2.84075320e-01, 2.23190233e-01, 4.21464324e-01 ]
      - [ 0., 3.30600626e-04, 3.62210162e-03, 2.65411120e-02,
          8.06574225e-02, 6.78111315e-01, 6.78111315e-01, 2.56143034e-01,
          2.69833710e-02, 1.02487482e-01, 4.26214337e-01, 4.73077148e-01,
          2.76026130e-01, 1.88622236e-01, 4.73077148e-01, 4.73077148e-01,
          1.39951721e-01, 1.87416393e-02, 9.26267058e-02, 4.13771480e-01,
          4.13771480e-01, 2.28536904e-01, 1.78159103e-01, 4.13771480e-01,
          4.13771480e-01, 4.13771480e-01, 2.17446133e-01, 1.01548009e-01,
          4.17941809e-01, 4.17941809e-01, 1.08883366e-01, 1.71675816e-01,
          4.17941809e-01, 4.17941809e-01, 4.17941809e-01, 2.66097575e-01,
          2.06318676e-01, 1.98087245e-02, 1.08268671e-01, 2.25662142e-01,
          1.84431836e-01, 2.20366046e-01, 5.81381619e-01, 5.81381619e-01,
          3.60560328e-01, 4.38733250e-01, 4.38733250e-01, 9.43944901e-02,
          4.15401608e-02, 3.60357687e-02, 1.45769119e-01, 4.38733250e-01,
          4.38733250e-01, 4.38733250e-01, 4.26386595e-01, 4.26386595e-01,
          1.78253487e-01, 8.49666223e-02, 8.00916553e-02, 4.22257334e-01,
          3.15189302e-01, 3.56749564e-01, 4.26386595e-01, 1.39926240e-01,
          3.98711413e-01, 2.59974390e-01, 3.11249457e-02, 3.36196661e-01,
          3.98711413e-01, 3.98711413e-01, 3.98711413e-01, 3.98711413e-01,
          2.66374171e-01, 2.56789327e-01, 3.86539102e-01, 3.86539102e-01,
          2.92685658e-01, 3.86539102e-01, 1.62834674e-01, 3.86539102e-01,
          3.86539102e-01, 4.96015757e-01, 1.38922378e-01, 0., 0.,
          4.96015757e-01, 4.96015757e-01, 9.27439556e-02, 1.53421313e-01,
          4.53334421e-01, 2.80270875e-01, 2.91165262e-02, 1.55366629e-01,
          4.59754318e-01, 4.59754318e-01, 4.59754318e-01, 3.26276869e-02,
          2.12858438e-01, 4.59754318e-01, 6.61773011e-02, 3.55303520e-03,
          1.26616761e-01, 2.79709607e-01, 4.88548368e-01, 3.78129005e-01,
          1.93491891e-01, 4.88548368e-01, 4.88548368e-01, 1.14549607e-01,
          3.74586910e-01, 3.74586910e-01, 3.74586910e-01, 3.74586910e-01,
          3.74586910e-01, 3.74586910e-01, 3.74586910e-01, 3.04729212e-02,
          0., 0., 0., 1.04151573e-02, 5.86061656e-01, 5.86061656e-01,
          5.16312301e-01, 2.01284856e-01, 3.00521869e-03, 0., 0.,
          7.01170340e-02, 5.71253717e-01, 5.71253717e-01, 5.71253717e-01,
          9.88340080e-02, 2.48761997e-02, 0., 5.31638134e-03, 0.,
          3.81867178e-02, 2.75076836e-01, 6.76034629e-01, 6.76034629e-01,
          2.02040654e-02, 3.26604433e-02, 2.40207091e-02 ]
      - [ 3.94709408e-02, 4.56014350e-05, 3.10725775e-02, 2.39526778e-02,
          6.26367778e-02, 6.58118665e-01, 6.58118665e-01, 3.46620828e-01,
          4.76807170e-03, 1.39557868e-01, 4.57635015e-01, 4.57635015e-01,
          2.09850237e-01, 2.53285766e-01, 4.57635015e-01, 4.57635015e-01,
          1.64622352e-01, 5.42400144e-02, 2.07011923e-01, 3.90649885e-01,
          3.90649885e-01, 1.95852444e-01, 2.29743972e-01, 3.90649885e-01,
          3.90649885e-01, 3.90649885e-01, 3.14748347e-01, 2.08040118e-01,
          3.74179274e-01, 3.74179274e-01, 1.75358444e-01, 3.74179274e-01,
          3.74179274e-01, 3.74179274e-01, 3.63361478e-01, 3.00247014e-01,
          4.67855543e-01, 2.02888057e-01, 9.47911441e-02, 1.53890550e-01,
          1.57226235e-01, 1.45671785e-01, 4.67855543e-01, 4.67855543e-01,
          4.67855543e-01, 5.12722671e-01, 5.12722671e-01, 3.57737876e-02,
          8.57100356e-03, 4.13146466e-02, 2.07446367e-01, 2.45559275e-01,
          3.15962464e-01, 5.12722671e-01, 4.79846239e-01, 3.29780102e-01,
          7.58182704e-02, 5.43286726e-02, 1.45686895e-01, 3.96249592e-01,
          1.90720886e-01, 4.50149477e-01, 4.79846239e-01, 1.70815378e-01,
          2.96825767e-01, 1.35962501e-01, 1.10136390e-01, 3.18761289e-01,
          4.36610669e-01, 4.17425454e-01, 4.36610669e-01, 4.36610669e-01,
          4.15753603e-01, 4.15753603e-01, 3.91710252e-01, 1.98849529e-01,
          4.15753603e-01, 4.15753603e-01, 8.42837095e-02, 2.08003178e-01,
          2.47175097e-01, 5.58319986e-01, 7.92097971e-02, 2.44123186e-03,
          0., 5.58319986e-01, 5.58319986e-01, 1.08760677e-01,
          3.06335092e-02, 2.00533286e-01, 1.10188276e-01, 9.23073292e-03,
          9.95854884e-02, 5.02793729e-01, 5.02793729e-01, 5.02793729e-01,
          4.76355888e-02, 1.10581927e-01, 4.47137743e-01, 4.19357456e-02,
          0., 1.29401326e-01, 4.40808266e-01, 4.40808266e-01,
          4.40808266e-01, 7.43896440e-02, 4.40808266e-01, 4.40808266e-01,
          2.47833118e-01, 4.11280781e-01, 3.32954019e-01, 2.13357508e-01,
          2.88198143e-01, 4.11280781e-01, 4.11280781e-01, 4.11280781e-01,
          1.35737330e-01, 0., 0., 0., 1.97198149e-02, 4.98601764e-01,
          4.98601764e-01, 4.98601764e-01, 4.98601764e-01, 1.47119733e-02,
          0., 0., 2.49338914e-02, 5.32024384e-01, 5.32024384e-01,
          5.32024384e-01, 3.72498959e-01, 7.84849748e-02, 0., 0., 0.,
          2.48774774e-02, 3.41283321e-01, 6.61603868e-01, 6.61603868e-01,
          2.84776166e-02, 5.71170123e-03, 4.35086666e-03 ]
      - [ 1.32646412e-01, 1.23205353e-02, 3.02311243e-03, 2.34622117e-02,
          3.28761190e-02, 5.86033762e-01, 5.86033762e-01, 5.33377290e-01,
          5.82968071e-02, 3.93554807e-01, 3.93554807e-01, 3.93554807e-01,
          2.42371827e-01, 1.61471188e-01, 3.93554807e-01, 3.93554807e-01,
          1.84720501e-01, 3.20472360e-01, 3.45377713e-01, 3.45377713e-01,
          3.45377713e-01, 3.45377713e-01, 2.05579653e-01, 3.45377713e-01,
          3.45377713e-01, 3.45377713e-01, 3.45377713e-01, 1.89079776e-01,
          4.02047217e-01, 4.02047217e-01, 2.18821257e-01, 2.44436249e-01,
          3.71856332e-01, 4.02047217e-01, 3.61610085e-01, 3.14063191e-01,
          4.93057936e-01, 2.82734841e-01, 9.87081751e-02, 1.19198054e-01,
          6.10596091e-02, 1.16069287e-01, 3.80350471e-01, 4.93057936e-01,
          4.93057936e-01, 5.55200458e-01, 4.37139750e-01, 1.55121582e-02,
          3.00947297e-02, 1.64130718e-01, 3.43507260e-01, 7.79717788e-02,
          1.86299473e-01, 5.55200458e-01, 4.64492172e-01, 2.34996647e-01,
          3.84233855e-02, 1.43337086e-01, 2.23779917e-01, 4.64492172e-01,
          1.32246464e-01, 4.50876564e-01, 4.64492172e-01, 6.27549142e-02,
          1.84862182e-01, 4.23461385e-02, 2.70415962e-01, 1.67557091e-01,
          2.70717472e-01, 2.79422164e-01, 5.92290282e-01, 5.92290282e-01,
          4.37289327e-01, 2.73143768e-01, 6.67872578e-02, 1.54370263e-01,
          4.37289327e-01, 4.37289327e-01, 4.37289327e-01, 3.22718859e-01,
          1.53942481e-01, 1.94955960e-01, 9.25424509e-03, 5.00745409e-06,
          4.52124216e-02, 6.85983956e-01, 6.85983956e-01, 8.06528181e-02,
          3.55314165e-02, 6.40227273e-02, 2.51818728e-03, 4.78368223e-04,
          1.19934333e-02, 5.74033678e-01, 5.74033678e-01, 5.74033678e-01,
          5.72220162e-02, 3.68694514e-02, 3.06597296e-02, 0., 0.,
          2.13675722e-02, 4.56167370e-01, 4.56167370e-01, 4.56167370e-01,
          1.76995739e-01, 4.56167370e-01, 3.62360030e-01, 7.42843077e-02,
          4.66488510e-01, 5.42293042e-02, 4.17000018e-02, 1.14342146e-01,
          3.15136105e-01, 5.68697870e-01, 5.68697870e-01, 8.53952318e-02,
          0., 0., 0., 5.65207303e-02, 4.96085852e-01, 4.96085852e-01,
          4.96085852e-01, 4.96085852e-01, 8.62911493e-02, 0., 0.,
          2.64608953e-02, 4.98979479e-01, 4.98979479e-01, 4.98979479e-01,
          3.83507580e-01, 3.00246954e-01, 1.00739866e-01, 0., 0.,
          2.78787743e-02, 5.63549936e-01, 5.63549936e-01, 5.63549936e-01,
          2.00656950e-01, 2.36534700e-02, 2.61495821e-03 ]
      - [ 1.90233216e-01, 1.48723125e-01, 3.66067022e-01, 3.66067022e-01,
          3.66067022e-01, 3.66067022e-01, 3.66067022e-01, 3.66067022e-01,
          3.66067022e-01, 5.78790978e-02, 1.82813257e-01, 2.52965450e-01,
          2.28462130e-01, 4.41718042e-01, 4.46649462e-01, 4.46649462e-01,
          4.46649462e-01, 2.21312568e-01, 4.50584292e-01, 5.74672282e-01,
          5.74672282e-01, 1.86939731e-01, 2.27125823e-01, 1.55383289e-01,
          8.40826109e-02, 8.97076502e-02, 7.03209639e-02, 3.75658125e-01,
          3.92523617e-01, 3.92523617e-01, 7.32920319e-02, 5.23347110e-02,
          3.60286295e-01, 3.92523617e-01, 3.17401409e-01, 3.92523617e-01,
          3.82370621e-01, 2.63012171e-01, 2.21392021e-01, 3.22235435e-01,
          3.82370621e-01, 3.82370621e-01, 3.82370621e-01, 3.82370621e-01,
          2.07648814e-01, 3.57596934e-01, 2.66917437e-01, 1.96405530e-01,
          2.09445760e-01, 2.90487498e-01, 3.96890730e-01, 3.96890730e-01,
          3.96890730e-01, 3.96890730e-01, 1.68069631e-01, 4.97169971e-01,
          4.97169971e-01, 4.97169971e-01, 1.39776558e-01, 1.64140046e-01,
          8.71946067e-02, 3.27534586e-01, 2.52768457e-01, 3.33948970e-01,
          3.78227800e-01, 4.20074552e-01, 1.84966266e-01, 1.51901335e-01,
          4.20074552e-01, 4.20074552e-01, 3.64284217e-01, 1.47810936e-01,
          3.63464445e-01, 2.40071625e-01, 2.64848322e-01, 2.93090254e-01,
          3.49507660e-01, 3.63464445e-01, 3.63464445e-01, 3.63464445e-01,
          3.63464445e-01, 3.73030782e-01, 3.73030782e-01, 3.31274956e-01,
          1.00134946e-01, 2.03939304e-01, 3.73030782e-01, 3.73030782e-01,
          3.73030782e-01, 3.73030782e-01, 4.24583822e-01, 4.24583822e-01,
          4.24583822e-01, 1.48797736e-01, 1.27383262e-01, 1.73321739e-01,
          2.55528152e-01, 3.75460356e-01, 4.24583822e-01, 4.02441323e-01,
          4.22667414e-01, 4.22667414e-01, 1.87054172e-01, 1.15188703e-01,
          4.22667414e-01, 4.22667414e-01, 1.47385225e-01, 2.21918061e-01,
          2.90545255e-01, 3.93388987e-01, 2.29800373e-01, 1.71789095e-01,
          2.35710323e-01, 3.93388987e-01, 3.93388987e-01, 3.93388987e-01,
          3.93388987e-01, 3.05368721e-01, 3.83845359e-01, 3.83845359e-01,
          3.83845359e-01, 1.80973604e-01, 3.83845359e-01, 3.35296482e-01,
          1.45098567e-01, 3.83845359e-01, 3.80973995e-01, 3.80973995e-01,
          3.80973995e-01, 1.72308862e-01, 1.23791862e-02, 3.80973995e-01,
          3.80973995e-01, 3.09036046e-01, 3.80973995e-01, 4.69941586e-01,
          4.69941586e-01, 4.69941586e-01, 1.32340789e-01, 2.90930993e-03,
          2.15487257e-01, 3.23935658e-01, 2.06519186e-01, 3.48179728e-01 ]
      - [ 4.25245732e-01, 4.25245732e-01, 4.25245732e-01, 4.25245732e-01,
          4.25245732e-01, 1.10201582e-01, 0., 5.28972596e-03,
          2.81798005e-01, 4.32172924e-01, 1.09576866e-01, 7.87605122e-02,
          1.00325346e-01, 4.32172924e-01, 4.32172924e-01, 1.83139816e-01,
          4.32172924e-01, 4.32172924e-01, 2.23861098e-01, 4.79033776e-02,
          1.58707842e-01, 3.72165263e-01, 4.17557776e-01, 4.17557776e-01,
          2.86892176e-01, 4.17557776e-01, 4.17557776e-01, 3.75129163e-01,
          6.26205802e-02, 8.53096843e-02, 3.75129163e-01, 3.75129163e-01,
          3.75129163e-01, 3.75129163e-01, 3.75129163e-01, 3.75129163e-01,
          2.42233574e-01, 3.66172969e-01, 3.66172969e-01, 3.66172969e-01,
          3.66172969e-01, 3.66172969e-01, 3.66172969e-01, 1.50443703e-01,
          3.32468748e-01, 4.66658980e-01, 2.72059441e-01, 1.14446104e-01,
          2.29534239e-01, 4.66658980e-01, 4.66658980e-01, 1.34359062e-01,
          8.72887895e-02, 4.20184731e-01, 4.25960213e-01, 1.77271500e-01,
          7.49840811e-02, 1.15881898e-01, 4.25960213e-01, 4.25960213e-01,
          1.95084915e-01, 4.25960213e-01, 4.25960213e-01, 3.77829164e-01,
          3.21436584e-01, 1.60626337e-01, 3.77829164e-01, 3.77829164e-01,
          3.60759944e-01, 1.52252704e-01, 3.77829164e-01, 3.77829164e-01,
          3.46664399e-01, 2.84780473e-01, 3.46664399e-01, 3.46664399e-01,
          3.46664399e-01, 3.07488233e-01, 3.46664399e-01, 3.15959483e-01,
          3.46664399e-01, 4.00586426e-01, 9.78275537e-02, 4.00586426e-01,
          3.94013137e-01, 4.00586426e-01, 4.00586426e-01, 1.07273959e-01,
          1.80317119e-01, 3.81158561e-01, 3.64485830e-01, 1.13759309e-01,
          3.36317807e-01, 3.64485830e-01, 3.64485830e-01, 3.64485830e-01,
          3.45155984e-01, 2.94831038e-01, 3.64485830e-01, 3.72071117e-01,
          1.18795797e-01, 3.72071117e-01, 3.72071117e-01, 3.72071117e-01,
          3.72071117e-01, 3.72071117e-01, 1.14507847e-01, 3.72071117e-01,
          4.24680054e-01, 1.00793846e-01, 8.40970799e-02, 4.24680054e-01,
          4.24680054e-01, 4.24680054e-01, 2.07875237e-01, 2.90348768e-01,
          3.59998524e-01, 4.36694443e-01, 5.42688966e-02, 1.52279004e-01,
          4.36694443e-01, 4.36694443e-01, 2.59027570e-01, 1.94274366e-01,
          4.36694443e-01, 3.19151878e-01, 3.78874660e-01, 2.69779414e-01,
          8.67187083e-02, 3.87177974e-01, 4.08131093e-01, 3.34797114e-01,
          2.87916422e-01, 4.08131093e-01, 3.06662977e-01, 3.91339928e-01,
          3.80490005e-01, 2.52761483e-01, 2.78039515e-01, 3.91339928e-01,
          2.62789667e-01, 3.91339928e-01, 1.68752268e-01, 3.91339928e-01 ]
      - [ 4.77824926e-01, 4.77824926e-01, 4.77824926e-01, 4.77824926e-01,
          7.12964311e-02, 6.30133599e-02, 1.44105986e-01, 1.65080428e-01,
          1.57762066e-01, 3.85058038e-02, 1.02836452e-01, 2.16537789e-01,
          4.58189219e-01, 4.58189219e-01, 4.58189219e-01, 4.58189219e-01,
          2.95247853e-01, 9.77545455e-02, 3.44560370e-02, 6.16982533e-03,
          9.66205746e-02, 4.46698576e-01, 4.46698576e-01, 4.46698576e-01,
          4.46698576e-01, 3.99670720e-01, 1.64566353e-01, 3.49227339e-01,
          3.49227339e-01, 3.49227339e-01, 3.49227339e-01, 3.49227339e-01,
          3.37952882e-01, 3.49227339e-01, 2.49781474e-01, 2.96899796e-01,
          3.80785018e-01, 3.80785018e-01, 3.80785018e-01, 3.80785018e-01,
          3.80785018e-01, 2.47173965e-01, 3.80785018e-01, 2.29693368e-01,
          1.11168265e-01, 4.22786102e-02, 7.48876184e-02, 2.68463213e-02,
          1.39385700e-01, 2.57876903e-01, 5.43839812e-01, 5.43839812e-01,
          5.43839812e-01, 1.15059063e-01, 7.97654986e-02, 1.87800661e-01,
          4.21578884e-01, 2.90288687e-01, 2.85607487e-01, 2.78213918e-01,
          4.21578884e-01, 4.21578884e-01, 4.21578884e-01, 2.25364700e-01,
          6.35850608e-01, 6.35850608e-01, 2.83222288e-01, 9.20131654e-02,
          2.97062378e-02, 9.14292410e-02, 1.41668081e-01, 1.27504691e-01,
          1.17566073e-02, 4.05420661e-02, 4.44499105e-01, 4.44499105e-01,
          4.44499105e-01, 4.44499105e-01, 4.03424650e-01, 2.00912043e-01,
          1.85256116e-02, 6.69350177e-02, 3.22925858e-02, 4.22775269e-01,
          4.22775269e-01, 4.22775269e-01, 2.17543274e-01, 4.22775269e-01,
          4.22775269e-01, 2.21887067e-01, 4.09281731e-01, 3.72283340e-01,
          2.52816528e-01, 1.50246784e-01, 1.40534818e-01, 2.52827764e-01,
          4.16162640e-01, 4.16162640e-01, 4.16162640e-01, 4.27159667e-01,
          6.17121220e-01, 6.17121220e-01, 6.90366328e-02, 3.48689072e-02,
          1.87671836e-02, 1.66928340e-02, 6.34173453e-02, 1.97639376e-01,
          3.21987569e-02, 2.97658056e-01, 4.53804463e-01, 1.77842468e-01,
          1.50927871e-01, 2.96011865e-01, 4.53804463e-01, 4.53804463e-01,
          3.82079303e-01, 3.65595929e-02, 3.04254830e-01, 4.85026091e-01,
          2.26106510e-01, 4.53199029e-01, 5.82918413e-02, 4.85026091e-01,
          4.10502374e-01, 4.82064970e-02, 4.46920455e-01, 4.46920455e-01,
          4.46920455e-01, 2.52966762e-01, 2.89505512e-01, 6.87044337e-02,
          2.22751006e-01, 2.36460865e-01, 3.71839434e-01, 4.06473309e-01,
          4.06473309e-01, 4.06473309e-01, 2.25656137e-01, 3.57723773e-01,
          4.06473309e-01, 1.88380569e-01, 1.98245227e-01, 2.85274863e-01 ]
      - [ 5.27024925e-01, 5.27024925e-01, 2.48185158e-01, 3.88310403e-01,
          2.98756987e-01, 1.66656867e-01, 4.56304885e-02, 9.58212763e-02,
          3.13928634e-01, 2.65911013e-01, 1.59006223e-01, 1.21338062e-01,
          1.12361200e-01, 4.92703587e-01, 4.92703587e-01, 4.92703587e-01,
          3.59567821e-01, 1.19080089e-01, 4.46415832e-03, 3.05592129e-03,
          1.23089604e-01, 2.75651421e-02, 8.51017013e-02, 5.68332076e-01,
          5.68332076e-01, 5.68332076e-01, 4.62429859e-02, 0.,
          1.06719718e-03, 2.04377342e-02, 1.52125582e-03, 1.63376098e-04,
          1.05893947e-02, 6.94012821e-01, 6.94012821e-01, 1.70970500e-01,
          2.49662325e-02, 9.95468255e-03, 1.89896915e-02, 5.73221684e-01,
          5.73221684e-01, 5.73221684e-01, 4.74768095e-02, 6.69219270e-02,
          2.66631544e-02, 2.52675428e-03, 1.05696516e-02, 5.82982153e-02,
          1.37609273e-01, 6.79663837e-01, 6.79663837e-01, 2.10003838e-01,
          3.21985856e-02, 4.16846946e-02, 5.43971453e-03, 7.06625432e-02,
          4.03874725e-01, 4.03874725e-01, 4.03874725e-01, 4.03874725e-01,
          4.03874725e-01, 4.03874725e-01, 1.10697038e-01, 0.,
          1.47398282e-03, 3.36391889e-02, 1.36871431e-02, 5.65479603e-03,
          2.97912559e-03, 7.00970352e-01, 7.00970352e-01, 9.44542512e-02,
          0., 5.83157390e-02, 5.64367473e-01, 5.64367473e-01,
          5.64367473e-01, 1.13297850e-01, 1.47335082e-02, 1.46738350e-01,
          2.90894117e-02, 3.08851361e-01, 3.76862615e-01, 3.76862615e-01,
          3.76862615e-01, 3.76862615e-01, 3.76862615e-01, 1.65130943e-01,
          1.46372870e-01, 3.76862615e-01, 3.63176823e-01, 3.04594606e-01,
          3.78253847e-01, 2.94606149e-01, 3.78253847e-01, 3.78253847e-01,
          2.10214555e-01, 2.61264354e-01, 3.78253847e-01, 8.84311497e-02,
          3.97840403e-02, 6.09467067e-02, 2.23326147e-01, 1.99574396e-01,
          5.50129972e-02, 5.44278264e-01, 5.44278264e-01, 5.44278264e-01,
          0., 2.93510687e-02, 4.94601816e-01, 4.94601816e-01,
          4.94601816e-01, 4.94601816e-01, 4.13062759e-02, 1.00579038e-01,
          6.20663539e-02, 2.52777915e-02, 1.12429112e-01, 4.93710190e-01,
          4.93710190e-01, 4.93710190e-01, 4.93710190e-01, 7.67778158e-02,
          1.85417011e-02, 2.34990176e-02, 5.41762896e-02, 7.17843045e-03,
          1.96568738e-03, 3.95351917e-01, 6.43900990e-01, 6.43900990e-01,
          5.85629120e-02, 1.45281171e-02, 3.76863219e-02, 3.10979448e-02,
          8.14879313e-03, 1.01448692e-01, 6.89994216e-01, 6.89994216e-01,
          9.66031179e-02, 0., 4.84540574e-02, 1.33876204e-01 ]
      - [ 5.39011180e-01, 5.39011180e-01, 5.39011180e-01, 2.63214380e-01,
          7.89876059e-02, 2.51028966e-02, 2.29157284e-02, 3.47002372e-02,
          2.12456599e-01, 4.15633053e-01, 2.02668235e-01, 1.34338900e-01,
          4.39248569e-02, 4.77775978e-03, 3.37365389e-01, 4.64657217e-01,
          4.64657217e-01, 4.64657217e-01, 4.07000452e-01, 9.36494544e-02,
          2.77668864e-01, 7.14124292e-02, 4.07000452e-01, 3.23989779e-01,
          4.07000452e-01, 3.70671391e-01, 4.07000452e-01, 4.10435915e-01,
          4.05386798e-02, 4.92277667e-02, 4.69088815e-02, 2.56615192e-01,
          2.97379661e-02, 4.16943789e-01, 5.38201928e-01, 5.38201928e-01,
          5.24400413e-01, 5.24400413e-01, 5.24400413e-01, 2.59603381e-01,
          2.41795093e-01, 7.36281052e-02, 2.73837484e-02, 1.88188814e-02,
          1.93369374e-01, 4.27508801e-01, 4.27508801e-01, 2.76672393e-01,
          1.62951753e-01, 4.38558646e-02, 1.15586512e-01, 4.27508801e-01,
          3.82478625e-01, 4.27508801e-01, 6.81672335e-01, 3.84037197e-02,
          3.51559334e-02, 1.32170897e-02, 5.10387942e-02, 9.50478390e-02,
          1.85401037e-01, 1.22239895e-01, 6.81672335e-01, 6.33040547e-01,
          1.04080457e-02, 6.42992498e-04, 3.09432461e-03, 1.09951407e-01,
          2.90272504e-01, 1.54607490e-01, 2.68010914e-01, 6.33040547e-01,
          3.19618642e-01, 4.16243374e-01, 4.16243374e-01, 4.16243374e-01,
          4.16243374e-01, 4.16243374e-01, 1.03860758e-01, 8.92541651e-03,
          1.28555015e-01, 1.48329154e-01, 6.87686130e-02, 5.65171659e-01,
          5.65171659e-01, 5.65171659e-01, 5.88780046e-02, 0.,
          1.12288108e-03, 7.68162310e-02, 2.35914573e-01, 4.49852012e-02,
          9.12852660e-02, 4.96133715e-01, 5.55187166e-01, 5.55187166e-01,
          2.28665829e-01, 4.28770110e-03, 1.16288729e-01, 4.57840078e-02,
          1.07076368e-03, 9.90763874e-05, 4.01104242e-03, 6.39161170e-01,
          6.57141924e-01, 3.45043033e-01, 1.30253062e-01, 1.22241117e-01,
          1.75098866e-01, 6.84790984e-02, 4.83184099e-01, 4.83184099e-01,
          4.83184099e-01, 4.83184099e-01, 1.38581857e-01, 7.49196857e-02,
          3.37566249e-02, 2.47133728e-02, 1.64398979e-02, 4.07560170e-01,
          6.04918599e-01, 6.04918599e-01, 2.79258251e-01, 6.61098585e-02,
          1.00186847e-01, 5.22266552e-02, 2.64682230e-02, 0.,
          9.40634590e-03, 3.79504502e-01, 6.20562851e-01, 6.20562851e-01,
          2.63234615e-01, 9.10073146e-02, 3.49290892e-02, 2.50152946e-02,
          1.93862058e-02, 2.57532131e-02, 1.06139602e-02, 5.78381181e-01,
          5.78381181e-01, 3.19764942e-01, 4.58542377e-01, 1.04340099e-01 ]
      - [ 0., 7.06105530e-02, 4.22841817e-01, 6.36300981e-01,
          6.36300981e-01, 1.03997560e-02, 0., 0., 0., 5.19189462e-02,
          1.30755097e-01, 1.93514630e-01, 6.82389379e-01, 6.82389379e-01,
          3.13167833e-02, 5.11493534e-02, 3.79377161e-03, 3.20225023e-02,
          3.02838117e-01, 4.56926525e-01, 5.61908424e-01, 5.61908424e-01,
