<?xml version="1.0"?>
<opencv_storage>
<opencv_ml_svm>
  <format>3</format>
  <svmType>C_SVC</svmType>
  <kernel>
    <type>LINEAR</type></kernel>
  <C>1.</C>
  <term_criteria><iterations>100</iterations></term_criteria>
  <var_count>3712</var_count>
  <class_count>2</class_count>
  <class_labels type_id="opencv-matrix">
    <rows>2</rows>
    <cols>1</cols>
    <dt>i</dt>
    <data>
      0 1</data></class_labels>
  <sv_total>1</sv_total>
  <support_vectors>
    <_>
      1.00253634e-001 -1.10687232e-002 2.59855874e-002 -1.44572090e-002
      5.10560870e-002 -4.84139053e-003 -1.47459162e-002 -1.96740534e-002
      -1.16174288e-001 -1.27493992e-001 -1.96648315e-001
      -1.02187201e-001 5.66412369e-003 -2.85995826e-002 -2.60263104e-002
      -1.08641773e-001 2.29733996e-002 -7.08213374e-002 9.82046425e-002
      -6.11319505e-002 -1.16544785e-002 -8.28747302e-002 1.00220300e-001
      2.11439747e-002 -3.22171934e-002 -7.89280906e-002 -1.00470662e-001
      -5.40180132e-002 2.55166516e-002 -7.97443744e-003 6.56127781e-002
      8.72195959e-002 3.17965820e-002 -7.60822669e-002 5.04527939e-003
      -2.11395442e-001 2.17782408e-002 5.67359924e-002 7.93098658e-002
      1.74910098e-001 -7.57737784e-003 1.91167649e-002 -6.44975435e-003
      9.38017964e-002 8.15944672e-002 4.98916171e-002 7.92849213e-002
      4.43266183e-002 7.09942281e-002 1.07438331e-002 1.25906598e-002
      4.06429246e-002 -1.66012999e-002 1.07594974e-001 -4.63505654e-004
      4.77647968e-002 -2.33541057e-001 1.90985873e-001 1.92354377e-002
      8.21174085e-002 3.99596505e-002 1.70977153e-002 3.95394163e-003
      -7.01160505e-002 -5.52865416e-002 4.66664024e-002 1.09583072e-001
      -4.21131635e-003 -9.10799056e-002 -1.09521523e-001
      -9.15584038e-004 1.50454238e-001 -9.77011025e-002 -2.04606503e-002
      2.83728000e-002 -3.59986089e-002 -9.77763832e-002 3.10575187e-001
      -9.66082886e-002 5.97273856e-002 1.12802915e-001 5.99864982e-002
      1.11599667e-002 -5.27888350e-002 -1.06889218e-001 2.61527337e-002
      8.57410133e-002 2.86056846e-002 4.30984646e-002 9.02979299e-002
      -1.00077204e-001 -9.17492285e-002 6.91453693e-003 -1.20636374e-002
      1.25178806e-002 5.78122847e-002 7.17617720e-002 -1.27772344e-002
      1.26962185e-001 8.62502530e-002 -2.01808885e-002 -1.64163820e-002
      7.26549253e-002 4.68996316e-002 -6.83372244e-002 6.91516558e-003
      -1.10210046e-001 2.46395804e-002 1.39833232e-002 -4.30089273e-002
      3.44903767e-002 1.23380208e-002 -1.02625303e-001 -4.23720591e-002
      -3.83666456e-002 -4.02189702e-001 4.15349416e-002 -4.74738255e-002
      7.05954060e-002 -1.87904276e-002 9.16925743e-002 4.30689938e-002
      2.45128218e-002 -2.44591776e-002 -8.87993500e-002 6.67312965e-002
      -1.30012617e-004 -8.74366015e-002 -6.61072284e-002
      -1.39686894e-002 -5.67526333e-002 4.98650558e-002 -1.22625800e-002
      -2.06370968e-002 2.35012751e-002 1.72546312e-001 -1.13334514e-001
      5.18483743e-002 -2.01369612e-003 4.18081991e-002 -1.64746866e-002
      -1.30409971e-001 1.14497870e-001 1.52389752e-002 1.21017441e-001
      2.45720446e-002 4.33452725e-002 1.30471677e-001 1.91652998e-002
      4.95556667e-002 2.47760070e-003 1.19814677e-002 1.44826453e-002
      3.95738557e-002 -3.07024680e-002 -5.77872805e-002 -1.56516805e-002
      -7.64452517e-002 -5.77749908e-002 2.17926633e-002 4.67500947e-002
      7.51095563e-002 -7.52502829e-002 -1.96190253e-001 -3.49569507e-002
      -2.58504115e-002 -4.32547219e-002 -6.18395805e-002 3.46441194e-002
      1.80467796e-002 -7.33516887e-002 -1.49831148e-002 -1.49527371e-001
      1.52188331e-001 -1.87503491e-002 -1.33301228e-001 1.61574651e-002
      4.12825942e-002 4.38134670e-002 -1.12334611e-002 2.29833298e-003
      4.07592058e-002 7.33795241e-002 4.56925705e-002 -1.54188201e-001
      -7.52524212e-002 3.77377495e-002 -3.70927271e-003 -9.35510397e-002
      1.21015869e-001 4.13963161e-002 -5.14230467e-002 2.08850782e-002
      3.84499803e-002 -1.90253183e-001 -2.98294201e-002 4.58105989e-002
      2.96673793e-002 -1.86369177e-002 6.74188435e-002 1.65363401e-002
      -4.23174612e-002 5.63620105e-002 -1.43021643e-002 6.36025891e-002
      8.17130059e-002 -2.77664084e-002 -5.66987731e-002 1.88801009e-002
      4.08553407e-002 1.40615460e-002 -4.17749956e-002 1.53115606e-002
      4.28185873e-002 1.65747236e-002 -4.04778607e-002 -5.98245151e-002
      -5.41626289e-002 1.46983117e-002 4.18260619e-002 -5.27573116e-002
      6.47316799e-002 -9.52859297e-002 5.23251966e-002 -8.10637884e-003
      3.34011018e-002 5.70899993e-002 2.56548217e-003 1.86263695e-002
      -3.88404764e-002 -8.08854774e-002 7.55838454e-002 1.67700313e-002
      -4.48749773e-002 3.91189232e-002 8.55404735e-002 -1.12794498e-002
      4.18590195e-002 -7.19742253e-002 1.52670993e-002 -4.71730120e-002
      5.10506146e-002 -1.05967008e-001 5.89696728e-002 9.80508402e-002
      5.81796877e-002 -1.15054203e-002 1.00227751e-001 -3.50202480e-003
      7.86205307e-002 5.99635094e-002 1.35898963e-001 -2.50584688e-002
      -3.17664780e-002 7.19460621e-002 3.13102603e-002 -1.22596743e-003
      1.01896830e-001 2.45025177e-002 8.23028982e-002 8.16974342e-002
      2.55233776e-002 -7.54830986e-002 7.44327903e-002 -1.16878254e-002
      -4.19996195e-002 -3.71835493e-002 -1.20323291e-002 2.37331055e-002
      -6.71536699e-002 2.67990865e-002 -2.16810182e-002 -4.56150807e-002
      1.14973523e-002 -6.90021738e-002 -7.72524951e-003 2.87035044e-004
      -2.38706693e-002 -2.21466497e-001 -1.22033201e-001
      -1.67245820e-001 -1.78760719e-002 -1.03613185e-002 6.27441630e-002
      5.12782310e-004 -2.77584195e-002 7.64112845e-002 -1.28523521e-002
      3.96269448e-002 -2.27385983e-001 2.19046697e-002 -1.67186372e-002
      -1.27715375e-002 4.61759139e-003 7.06019327e-002 2.37726942e-002
      -5.07035814e-002 -3.94926779e-002 -2.51102298e-002
      -1.71050072e-001 -2.65737474e-002 -4.13214648e-003 1.84519514e-002
      -7.27970228e-002 2.29652941e-001 -3.37611022e-003 -5.75284511e-002
      4.84670848e-002 4.87797968e-002 5.40695600e-002 7.54936710e-002
      4.09102887e-002 2.62848809e-002 -4.39312309e-003 -1.22466171e-002
      1.76666807e-002 -2.33587116e-001 7.61982240e-003 3.95956859e-002
      5.41960308e-003 -2.47151814e-002 -3.25235948e-002 -1.17081650e-001
      -9.33090672e-002 6.71520978e-002 7.75932223e-002 -8.63424316e-003
      -8.11976939e-002 -3.79331410e-002 5.26620783e-002 5.34680393e-003
      3.97919118e-002 9.64203849e-003 -3.84070650e-002 4.97935414e-002
      4.20539360e-003 -1.03443660e-001 -1.06636658e-002 -1.83628529e-001
      -9.34373681e-003 -7.07398877e-002 2.18118280e-002 -3.67687009e-002
      -1.64139830e-002 -2.32635848e-002 1.87325645e-002 1.29600033e-001
      4.08908069e-001 -2.04245131e-002 5.96159995e-002 1.77791168e-003
      -2.99312733e-002 9.47985239e-003 8.31136778e-002 1.18682660e-001
      7.75028169e-002 5.12254089e-002 -6.74484223e-002 -2.34264180e-001
      2.81896349e-002 5.01846895e-002 9.94853452e-002 1.73525199e-001
      9.96977687e-002 -8.96922778e-003 -1.27186244e-002 -5.76453619e-002
      8.22542682e-002 1.66983232e-002 1.09742861e-002 -5.01083881e-002
      -4.29871939e-002 -2.56834291e-002 -7.93220922e-002
      -5.95867820e-002 5.85954860e-002 -4.55277413e-002 -8.24786443e-003
      -4.05194722e-002 -2.48614047e-002 -9.29907709e-002 3.68822031e-002
      2.69977730e-002 -3.85291502e-002 2.79469434e-002 -1.06167085e-002
      1.33586824e-001 5.22548556e-002 6.52592927e-002 1.64594222e-002
      -7.50477016e-002 -1.24515079e-001 -6.73043579e-002
      -1.69793312e-002 1.29325911e-002 -6.39238134e-002 -6.45576194e-002
      -1.88634079e-002 -3.26436199e-002 -2.50950526e-003
      -5.80323748e-002 8.99460539e-002 -2.42452603e-002 -4.36620191e-002
      -3.75413634e-002 9.69387740e-002 8.18432048e-002 -1.80800613e-002
      -4.77728806e-003 4.81215678e-002 -4.87163551e-002 1.24236699e-002
      -9.10925493e-002 3.01838829e-003 5.35923522e-003 -4.34187502e-002
      -1.84872374e-002 1.27451494e-001 2.19394453e-002 5.48331849e-002
      3.03925499e-002 6.87605962e-002 7.21128983e-003 3.21332701e-002
      -1.32251298e-002 -7.20926076e-002 1.24383330e-001 3.70615497e-002
      -1.03434414e-001 -1.81717463e-002 4.89871344e-003 8.55309237e-003
      1.34794712e-001 5.97633831e-002 -1.27874769e-003 -4.64739911e-002
      1.89867113e-002 6.80692345e-002 -2.26144642e-001 -5.54384105e-002
      -3.98866199e-002 -1.31560892e-001 -4.78043075e-004
      -1.09721515e-002 1.49648547e-001 1.08709395e-001 1.42392854e-003
      2.39436366e-002 -7.26576000e-002 -9.78410169e-002 3.39129381e-002
      2.25111395e-002 -4.96667512e-002 -4.87169959e-002 -1.05297742e-002
      -1.72969922e-002 -1.16202943e-002 1.69913620e-002 2.30876310e-003
      -1.00585006e-001 4.66374941e-002 -4.86189350e-002 -1.18692629e-002
      5.70464805e-002 -1.79222673e-002 1.51805012e-002 -3.59627977e-002
      1.84651334e-002 -1.93177853e-002 -2.19353922e-002 3.35508771e-002
      6.54711276e-002 -1.18096471e-002 -7.66970068e-002 -2.06949234e-001
      4.04338464e-002 -6.37725294e-002 -1.19302437e-001 -2.41981894e-001
      -9.41306651e-002 -4.05055024e-002 -1.20544480e-002
      -1.67039484e-002 6.62502891e-004 -9.66966450e-002 -4.21198718e-002
      1.93575546e-002 2.95644701e-002 -5.96586168e-002 6.19908981e-002
      -9.25576538e-002 -2.34319996e-002 1.24213256e-001 8.18338692e-002
      9.28160623e-002 -3.68080176e-002 8.04760754e-002 6.93371147e-002
      5.85835520e-003 -1.62032306e-001 4.11992334e-002 3.30941379e-002
      -7.15924893e-003 5.84795550e-002 -9.68545489e-003 9.27561373e-002
      5.92911392e-002 2.11844649e-002 7.34762773e-002 4.85198535e-002
      2.18040030e-002 -5.18647805e-002 -2.16232091e-002 1.56153692e-002
      1.64110754e-002 -1.45527842e-002 5.38502224e-002 -6.07910119e-002
      -1.87018905e-002 6.01118468e-002 8.74696448e-002 2.54254431e-001
      -1.09767698e-001 5.40014245e-002 -4.66703624e-002 -3.81015651e-002
      -7.88177773e-002 2.43159849e-003 7.61789232e-002 -3.54952365e-002
      -4.19738190e-003 3.72019000e-002 -1.62849098e-001 3.09970677e-002
      8.54290202e-002 1.51405856e-001 1.45992845e-001 1.73561275e-001
      8.99123847e-002 2.55080350e-002 -4.15705107e-002 1.52660280e-001
      4.52938974e-002 -1.10225109e-002 1.09808080e-001 5.40918410e-002
      -4.36187126e-002 7.60084093e-002 -2.56371856e-001 5.07873856e-002
      -1.18667394e-001 -1.69954058e-002 -2.26198975e-002
      -2.04673111e-002 -7.09447116e-002 -2.22095530e-002
      -3.03120911e-003 2.14873422e-002 3.28047536e-002 9.76762176e-002
      1.52373388e-002 -1.51401997e-001 -1.09908562e-002 -4.95920293e-002
      -4.45823092e-003 -1.15253842e-002 2.65493412e-002 1.55875906e-002
      -5.71951829e-002 -2.55197495e-001 -6.66744336e-002
      -4.24232632e-002 -5.52980416e-002 4.68839183e-002 2.32463852e-002
      1.13589808e-001 -3.95136736e-002 -2.69949995e-002 6.61575496e-002
      5.41932695e-002 -2.08768621e-002 -2.20012367e-001 -3.25239934e-002
      2.71688979e-002 -3.26364189e-002 -2.31789565e-003 9.66595858e-003
      1.16117999e-001 2.85719894e-002 -1.14630021e-001 8.83971453e-002
      -1.84797317e-001 -2.75860764e-002 1.46149606e-001 -1.81437373e-001
      8.95436108e-002 -1.25530615e-001 -2.14978382e-002 -6.47157207e-002
      9.30991694e-002 2.48587564e-001 5.99579178e-002 7.35887215e-002
      5.54887615e-002 -8.02213699e-002 2.07364425e-001 5.92258014e-002
      3.44969146e-002 1.23685531e-001 -1.95685532e-002 7.03877211e-003
      -1.77322309e-002 1.73702687e-002 8.58310089e-002 -6.53257594e-002
      -1.07929163e-001 4.49451944e-003 4.75088023e-002 1.70010358e-001
      6.48572668e-003 -8.32833052e-002 -3.95597629e-002 -3.68646309e-002
      -5.09638973e-002 -4.55652848e-002 -4.46707243e-003
      -9.32817087e-002 3.27037722e-002 -1.34202048e-001 -4.32493314e-002
      -1.08788619e-002 3.00299493e-004 -3.30656255e-003 5.99740408e-002
      -3.81243490e-002 -7.83858299e-002 -9.21948403e-002 1.80839509e-001
      -1.35764122e-001 -1.31059527e-001 3.85733806e-002 6.58195317e-002
      3.03810276e-002 1.24748982e-001 9.17900130e-002 2.90946639e-003
      -4.49495278e-002 5.37721477e-002 6.14110753e-002 -4.87412140e-002
      3.40572372e-002 3.07210740e-002 -1.06002666e-001 5.10473959e-002
      2.34551425e-003 5.11208512e-002 -6.75982377e-003 4.14854325e-002
      1.30479038e-001 7.47257248e-002 -7.24415407e-002 2.06993520e-002
      -5.14878407e-002 -1.53324336e-001 -1.35023808e-002 4.91864374e-003
      5.96949607e-002 3.15431841e-002 -3.75281554e-003 7.07099438e-002
      8.05745348e-002 5.78838661e-002 1.65673435e-001 -2.65652109e-002
      -3.82607281e-002 -2.17564367e-002 9.03617963e-002 8.81807320e-003
      2.27446929e-002 4.61516045e-002 -8.96425769e-002 -1.36162654e-001
      -2.74693258e-002 -3.94157283e-002 -4.25986797e-002
      -1.12317495e-001 -3.04425061e-002 -4.02653217e-002
      -1.05759008e-002 9.03444216e-002 3.98546970e-003 5.69037460e-002
      1.43324565e-002 -4.75189425e-002 -9.82628437e-004 -2.78968215e-001
      9.05132592e-002 8.24027520e-004 -5.68635799e-002 -2.29448751e-002
      1.22168154e-001 -3.34354192e-002 2.61259936e-002 7.87873566e-002
      -1.26283159e-002 3.11942548e-002 -9.87693761e-003 -3.77911665e-002
      -4.37806584e-002 2.29733847e-002 -6.13705553e-002 5.98534532e-002
      -8.56335182e-003 2.23051105e-002 4.33715209e-002 -8.91673639e-002
      -1.64854616e-001 5.46613447e-002 1.42356351e-001 3.81515957e-002
      8.03962573e-002 6.83031455e-002 -1.28047699e-002 1.27550913e-002
      1.02994770e-001 5.78025728e-003 -1.87767297e-002 1.70488637e-002
      -1.64587945e-002 -2.09828187e-002 7.18775243e-002 -1.43437997e-001
      4.74567823e-002 -2.32002884e-002 1.50301427e-001 -2.46812534e-002
      -4.14692648e-002 -1.56108420e-002 -7.90820867e-002
      -1.25650883e-001 3.29439901e-002 5.88085800e-002 -6.11836910e-002
      -7.07134083e-002 -1.39651000e-001 6.83637634e-002 4.71280664e-002
      7.64061213e-002 4.03177692e-003 1.32672684e-002 2.53362898e-002
      1.31831439e-002 -2.06383560e-002 -2.74049908e-001 -2.70809047e-003
      3.81681435e-002 -5.39209088e-003 5.16168289e-002 -9.84008191e-004
      6.95350813e-003 -1.44925015e-002 -2.18904149e-002 1.32843480e-001
      -3.25626880e-002 1.33326963e-001 -3.09442505e-002 5.66831566e-002
      3.80712561e-002 1.57295503e-002 5.11713268e-004 6.15055161e-003
      -2.54362803e-002 -3.23366262e-002 -4.51377109e-002 1.30542263e-001
      1.06421597e-001 -1.05293684e-001 -7.93819278e-002 3.41415219e-002
      -6.51167482e-002 -2.30928898e-001 -3.55382487e-002 7.02161565e-002
      -4.95249480e-002 -3.64671722e-002 -4.50029783e-002
      -2.80440897e-002 -7.21955951e-003 8.07625353e-002 -1.43960357e-001
      -2.25676075e-002 5.68665937e-002 2.37483438e-002 -8.35972093e-003
      8.65220577e-002 1.13770105e-001 -4.31568809e-002 9.35796946e-002
      5.86542636e-002 2.19649542e-002 1.94267258e-002 -8.74526203e-002
      -8.91978368e-002 4.53349203e-002 -7.34539703e-003 -6.11211583e-002
      -9.18619260e-002 -1.10809170e-002 2.75602993e-002 -2.62887087e-002
      -3.01042348e-002 6.73330575e-002 5.94445579e-002 1.26566458e-002
      1.80650083e-003 -3.70830894e-002 -5.57037331e-002 1.18537825e-002
      5.49451970e-002 2.68142074e-002 4.16685753e-002 -4.72579785e-002
      9.64173526e-002 -1.52476942e-002 -2.90427972e-002 3.68278921e-002
      2.86715031e-002 7.32586682e-002 1.33698713e-002 -7.12745711e-002
      -2.06141137e-002 1.87140924e-003 1.16357096e-001 3.15360315e-002
      -3.74926589e-002 3.62497456e-002 1.14551019e-002 -8.11339468e-002
      -2.41293028e-001 3.45133953e-002 1.09984605e-002 1.91079881e-002
      -1.30373677e-002 1.14740387e-001 -1.79455541e-002 -5.24937324e-002
      7.00627640e-003 -6.78767189e-002 3.97886373e-002 8.48031193e-002
      1.97916135e-001 -1.55928684e-002 6.28315359e-002 2.62712408e-002
      -1.03107737e-002 -1.05024919e-001 1.62471440e-002 -1.37321474e-002
      2.89768167e-002 1.15228426e-002 -1.01776488e-001 -4.54957820e-002
      -6.61902204e-002 4.16412428e-002 1.49029568e-002 4.22974825e-002
      -4.24598567e-002 -3.92750092e-002 -7.97920674e-003
      -1.73435509e-001 -5.31691909e-002 -3.21359956e-003 3.93198505e-002
      4.71034199e-002 -1.91462278e-001 -3.43968756e-002 -1.58426501e-002
      -2.15387554e-003 6.05973452e-002 -6.41027093e-002 1.45538270e-001
      4.19896953e-002 -8.00110493e-003 2.80204099e-002 3.30353975e-002
      -3.85455713e-002 3.16250906e-003 1.50958141e-002 7.70616345e-003
      -1.38028875e-001 -6.59031048e-003 5.93138039e-002 -2.40188763e-002
      -1.67807005e-002 3.76312458e-003 7.05139488e-002 -7.28017837e-002
      -8.67361948e-003 6.88923476e-003 -6.15362823e-003 -3.51731181e-002
      -3.66434380e-002 6.82389885e-002 -6.58955202e-002 -3.32000256e-002
      -1.05212949e-001 -3.78247909e-003 5.62032722e-002 5.09646796e-002
      -1.08081765e-001 -4.87938002e-002 -2.83319335e-002 1.43777039e-002
      -9.06784460e-002 8.94436911e-002 1.21578416e-002 8.31475854e-003
      7.75325969e-002 2.03684568e-002 4.36934493e-002 4.63966094e-003
      2.63437051e-002 3.74626392e-003 1.70221046e-001 1.09316781e-002
      6.12642653e-002 -2.35353392e-002 -1.72266457e-002 2.08417866e-002
      -4.24865410e-002 -2.38323715e-002 2.98480354e-002 2.29690019e-002
      -2.80360668e-003 2.85951532e-002 5.45627512e-002 -4.42234538e-002
      6.39248714e-002 1.78307071e-001 7.81458989e-003 4.78746407e-002
      -7.22369831e-003 4.72392924e-002 -1.02037862e-001 -4.32811379e-002
      3.31760906e-002 -5.68480603e-002 2.95377728e-002 -9.16104391e-003
      -8.17777812e-002 -5.02090976e-002 2.14620624e-002 2.15125848e-002
      7.72026405e-002 -1.32524788e-001 -4.13921587e-002 8.78097955e-003
      -3.64734642e-002 -3.57790813e-002 -5.51632866e-002 6.34868965e-002
      1.26486003e-001 -8.61705840e-003 -6.72267824e-002 5.40613569e-002
      4.52443287e-002 -6.45060837e-002 -7.25784376e-002 6.27545118e-002
      -2.86375061e-002 1.05463885e-001 7.71793276e-002 2.33381689e-002
      -2.54103076e-002 -2.27897912e-002 -2.12041900e-001
      -2.30380341e-001 2.69506704e-002 -2.91698817e-002 9.87329930e-002
      -9.43654627e-002 -1.39645442e-001 6.97769076e-002 9.58319977e-002
      4.00417745e-002 1.77588284e-001 6.97275847e-002 -1.33928459e-003
      -3.65864523e-002 4.13440056e-002 1.10085092e-001 -1.09379683e-002
      3.51200737e-002 -2.65826918e-002 2.27493271e-002 -4.05798107e-002
      -3.43581140e-002 1.77300740e-002 -6.66040108e-002 -9.25412551e-002
      -1.33343115e-001 -1.11414827e-001 2.44751889e-002 -1.82993114e-002
      3.03746834e-002 -3.46095562e-002 6.84137046e-002 -4.45176987e-003
      -8.09128862e-003 3.83241475e-002 2.14813333e-002 2.50319112e-003
      1.15296751e-001 6.50219321e-002 4.95847315e-002 5.69513207e-003
      4.53520454e-002 -4.88144346e-002 -1.60208926e-001 -7.14171007e-002
      -5.17742671e-002 -4.62226011e-003 -4.10244502e-002
      -4.05199155e-002 1.52584361e-002 1.37710981e-002 -9.20151826e-003
      -3.37032713e-002 3.25189233e-002 3.49165164e-002 -6.45645931e-002
      -4.95010279e-002 3.57889431e-003 -1.91328004e-001 7.12122535e-003
      -1.86282489e-002 -5.29923998e-002 7.10493699e-002 2.82633398e-002
      -9.18447226e-003 9.95829552e-002 8.69198665e-002 -3.66317714e-003
      3.14627826e-001 -2.57650942e-001 -9.97854117e-003 1.19071279e-003
      -1.15076685e-002 -6.24797568e-002 1.43776629e-002 -5.20561486e-002
      -2.97007598e-002 -5.57669252e-002 1.61262807e-002 -1.01352505e-001
      1.78503096e-002 5.37272580e-002 2.07027659e-001 -5.64029813e-003
      -1.34315655e-001 5.06136660e-003 -1.11834910e-002 -5.14101796e-002
      1.41465902e-001 2.48950318e-001 5.83387651e-002 -1.79692805e-002
      9.79473349e-003 6.47509918e-002 2.66438276e-002 -5.24643809e-002
      9.99338180e-002 -8.74231011e-002 8.66044499e-003 -3.27829756e-002
      4.28438485e-002 -1.35395944e-001 2.69301739e-002 -1.01158274e-002
      -1.12980962e-001 -4.16179523e-002 3.46432906e-003 6.79558888e-002
      4.76120263e-002 -2.89257132e-002 -3.80064137e-002 -7.98230469e-002
      8.27877969e-002 9.03001875e-002 1.27254352e-002 -1.16728410e-001
      -5.47926649e-002 5.45987114e-003 3.71274315e-002 5.26587712e-003
      8.95510688e-002 -2.97890846e-002 -1.03143252e-001 4.68352884e-002
      -5.94248548e-002 -9.30567179e-003 2.60973215e-001 -2.76307832e-003
      6.48159394e-003 -6.62617432e-003 1.98245477e-002 4.65229973e-002
      6.21194311e-004 -3.36781852e-002 7.82546178e-002 8.64242315e-002
      -5.59553280e-002 1.15748225e-002 -8.83045048e-002 2.55781598e-002
      9.74760205e-002 -8.39372166e-003 -4.94682863e-002 3.71214040e-002
      2.63900924e-002 4.61445749e-002 1.80491760e-001 -8.59581083e-002
      7.40901157e-002 -2.18082424e-002 2.79447865e-002 -4.97206114e-002
      -1.13364726e-001 -1.56208977e-001 -4.09616530e-002 1.47369215e-002
      -3.41217853e-002 9.08408430e-004 -1.87036972e-002 5.41657768e-002
      8.73329192e-002 8.80604237e-003 -1.46594569e-001 1.57291051e-002
      2.40420494e-002 -1.01593576e-001 1.66557565e-001 3.76159213e-002
      -9.40335263e-003 -5.08749858e-003 8.36455673e-002 7.33307451e-002
      -3.85976993e-002 -3.54192755e-003 -5.02336165e-003
      -9.45248529e-002 1.74695645e-002 -8.47910494e-002 1.54177651e-001
      6.08161502e-002 4.02859133e-003 4.58881184e-002 -1.06807463e-001
      -5.76880164e-002 -1.94501534e-001 9.78597477e-002 -5.67042269e-002
      2.40028687e-002 7.57066011e-002 9.00564939e-002 -8.35936735e-005
      1.89567525e-002 -9.31394100e-002 -2.79269721e-002 -2.37069838e-002
      8.42749551e-002 4.55583027e-003 2.77730506e-002 -1.15941279e-001
      5.41901588e-003 -9.15945694e-002 8.05365760e-003 6.80951178e-002
      -1.29121104e-002 -1.41625613e-001 -2.64273509e-002 4.76022065e-002
      9.06985402e-002 4.02912498e-002 -8.87707472e-002 -1.90651249e-002
      -3.81912366e-002 2.13829447e-002 -1.14395812e-001 -2.68318201e-003
      -3.93371508e-002 7.00422078e-002 4.26187813e-002 1.13127485e-001
      -1.36738754e-005 -7.02644959e-002 -7.88194314e-003 5.49016930e-002
      1.45710588e-001 1.47890756e-002 7.41624981e-002 1.54729664e-001
      -6.45326674e-002 -1.60841659e-001 1.00581028e-001 -2.75569335e-002
      -5.07981628e-002 -4.74025449e-003 -1.87017202e-001 2.12512426e-002
      1.66711176e-003 3.76005396e-002 3.87769639e-002 -9.76225808e-002
      8.95667970e-002 -5.79107031e-002 -2.73949299e-002 -1.51741067e-002
      -1.45863276e-002 -7.97917768e-002 1.35410577e-001 -3.86748998e-003
      -5.37489876e-002 3.57889794e-002 7.46293515e-002 4.02884707e-002
      3.60082686e-002 -7.05421492e-002 9.42629576e-002 4.69639823e-002
      2.71582194e-002 1.24130420e-001 -1.01737455e-001 -1.19114108e-001
      3.90605628e-002 2.63063088e-002 -3.24379355e-002 -7.15781236e-003
      -2.95812800e-003 -6.10571913e-002 9.19796824e-002 -2.55982485e-002
      -9.43356752e-002 -5.78161217e-002 -9.30907950e-002 1.62852574e-002
      7.99075887e-003 -7.23894462e-002 -6.42773211e-002 -2.04681531e-002
      4.64714728e-002 9.85151008e-002 -1.18591301e-002 1.54046103e-001
      -3.17047052e-002 1.69921909e-002 1.16544992e-001 5.34205511e-002
      -3.02646179e-002 3.33449692e-002 -1.53183788e-002 3.59425135e-002
      1.54558957e-001 -5.17743118e-002 -2.63386425e-002 -6.58224821e-002
      -6.45600557e-002 2.20124833e-002 -1.12675644e-001 -5.36756627e-002
      -5.03501296e-003 -1.49421021e-002 2.65644863e-002 1.83515567e-002
      1.27422363e-002 -1.26825511e-001 4.20983583e-002 3.07986848e-002
      -3.69126871e-002 -5.19276857e-002 1.42097687e-002 5.02878278e-002
      8.59316625e-003 1.77860949e-002 2.23937854e-002 1.08657636e-001
      1.04889004e-002 4.55616489e-002 2.26787571e-003 7.29945898e-002
      2.24954158e-001 6.25717565e-002 3.05652730e-002 -2.91696098e-002
      -7.31008276e-002 -1.57620180e-002 6.14565797e-002 2.87150685e-002
      7.71941468e-002 -2.85108369e-002 -6.83011785e-002 -2.38123253e-001
      -1.00859076e-001 5.87562099e-002 -2.38407739e-002 8.54469463e-003
      5.31601459e-002 5.68308830e-002 -8.93455073e-002 -8.94395187e-002
      5.11871576e-002 5.00692055e-003 2.19378509e-002 -1.03793390e-001
      -1.02579296e-001 1.82574857e-002 -4.78963926e-003 -7.80123621e-002
      2.53132544e-002 -2.09249631e-002 1.19784273e-001 3.12422384e-002
      -9.67072248e-002 -5.90308616e-003 -3.95249240e-002
      -6.71967939e-002 -7.89654553e-002 4.43559587e-002 -5.05796866e-003
      -7.21267834e-002 -9.08188894e-003 1.04782647e-002 -7.93474615e-002
      1.92853570e-001 -2.56849527e-001 -7.02189207e-002 -1.48532838e-002
      2.20664125e-002 -6.32786453e-002 5.52244708e-002 7.20082447e-002
      1.71734509e-003 -7.06670946e-003 7.54204020e-002 -1.46930009e-001
      9.12593957e-003 -2.57107522e-002 -3.33465897e-002 1.02749452e-001
      -7.90617540e-002 1.58500597e-002 2.35932525e-002 -2.68863291e-002
      -1.86780803e-002 -2.89091431e-002 -8.56536627e-003
      -1.70799181e-001 -1.16590364e-002 3.65312211e-002 -6.50043711e-002
      -6.95921183e-002 -4.47858544e-003 -4.20137569e-002 5.30161196e-003
      -3.77999851e-003 1.21993981e-001 1.55081436e-001 -7.09900982e-004
      6.57041594e-002 -3.65781039e-002 -7.97170121e-003 -3.30007598e-002
      6.13198988e-002 -8.87919741e-005 4.45541069e-002 -5.59481233e-002
      3.24699543e-002 7.98195228e-002 -3.22556980e-002 5.16504236e-002
      -3.45611945e-002 1.17005743e-001 -3.80227938e-002 9.96140111e-003
      -9.87081602e-002 5.39702773e-002 5.46579622e-002 -1.96777627e-001
      2.99948212e-002 1.04380213e-001 -7.08612939e-003 2.87238926e-001
      -1.30540788e-001 -5.82086034e-002 -3.29987146e-002 1.95287894e-002
      1.21814504e-001 4.88367081e-002 1.22057937e-001 -4.88301739e-002
      1.03909418e-001 5.02285771e-002 1.16284192e-001 6.33904431e-003
      -7.81041011e-002 7.65111372e-002 1.02566794e-001 2.71563113e-001
      2.36687660e-002 -3.92523706e-002 -2.52804998e-002 -2.52898019e-002
      1.08639374e-001 3.97367850e-002 -8.20328966e-002 1.32684205e-002
      -4.27299365e-002 -5.65135144e-002 -1.24476507e-001 7.96006918e-002
      2.63389070e-002 -5.14296368e-002 1.22274226e-003 -6.59706593e-002
      1.27638429e-002 1.31795287e-001 -2.94426382e-002 -6.05621375e-002
      1.55573590e-002 8.07872694e-003 -1.23062640e-001 -5.50185069e-002
      4.02193815e-002 -4.76507954e-002 -4.04006317e-002 2.63948757e-002
      2.82668741e-003 3.76119278e-002 -4.52464111e-002 -7.18882158e-002
      -5.89870736e-002 7.82128889e-003 -8.48978534e-002 4.97691855e-002
      -1.13164373e-002 -2.81906547e-003 -7.15631545e-002
      -4.28950861e-002 -1.12545215e-001 5.49995266e-002 -1.46801919e-001
      -6.26794100e-002 -4.13135476e-002 2.60771737e-002 9.61275399e-002
      1.38263265e-002 1.55393286e-002 5.08944429e-002 3.96754891e-002
      6.45148288e-003 8.32914338e-002 -3.70237068e-003 4.34681922e-002
      3.24943406e-003 4.90035973e-002 -1.75097808e-001 3.98472324e-003
      1.98550187e-002 -6.47358671e-002 4.17004600e-002 1.03658721e-001
      8.77011195e-002 -2.98020188e-002 7.26530701e-002 -3.28510888e-002
      8.75955671e-002 -4.85444702e-002 2.63985973e-002 -6.20007180e-002
      -3.71780172e-002 5.32837771e-002 -2.53822990e-002 9.59767252e-002
      -2.83958986e-002 -4.40077670e-002 1.78643297e-002 -4.50254837e-003
      5.68781272e-002 1.70070529e-002 -8.63909125e-002 2.31799902e-003
      -1.44235911e-002 -1.23443054e-002 2.99189650e-002 2.46318411e-002
      6.05911091e-002 -4.84184735e-003 -9.23768282e-002 4.29122299e-002
      1.02676742e-001 -2.91497656e-003 1.10324390e-001 -3.20754349e-002
      -2.10766010e-002 9.29162875e-002 -1.34094447e-001 -6.39309436e-002
      -3.06985617e-001 3.28559056e-002 1.93747617e-002 1.10964142e-001
      3.15145515e-002 7.18445480e-002 2.60187890e-002 9.27043632e-002
      -5.02402075e-002 -1.86880548e-002 4.23476584e-002 -2.29449660e-001
      -1.14453599e-001 -6.36925548e-002 1.26565583e-002 2.22461566e-001
      -1.21438928e-001 -4.53204550e-002 1.29984943e-002 -6.20949082e-002
      2.26039886e-002 9.54305306e-002 8.72874707e-002 -1.42690167e-001
      -3.54081579e-002 1.75931305e-002 -4.01552171e-002 -2.64016211e-001
      8.31137896e-002 2.08526757e-003 4.11815534e-004 -2.93704271e-002
      -2.87344120e-002 1.18226767e-001 1.65160924e-001 1.64217241e-002
      -1.98357757e-002 -8.97354260e-003 1.35035515e-001 4.24569994e-002
      -7.76076615e-002 2.53733192e-002 5.69433756e-002 -1.15486626e-002
      1.20778278e-001 3.90870310e-002 -2.65207663e-002 3.23112309e-002
      -7.73367807e-002 -7.30925947e-002 5.48715480e-002 1.51052643e-002
      9.84228030e-002 -8.91564786e-002 -1.46851704e-001 -8.17786902e-002
      -4.38111909e-002 -1.02790426e-002 8.08372069e-003 -1.31426945e-001
      -3.25229391e-003 -3.52333710e-002 -6.45680130e-002 1.81718618e-002
      -3.89791429e-002 -6.11389726e-002 2.02883165e-002 7.41959289e-002
      7.33139785e-003 8.30694512e-002 -7.68437982e-002 2.13668607e-002
      -5.85046932e-002 -2.09450703e-002 2.05760859e-002 5.89859039e-002
      4.60714148e-003 8.48920420e-002 1.54312020e-002 2.00283438e-001
      -5.05386814e-002 -4.00801934e-002 1.35867745e-001 4.51031327e-003
      2.48772770e-001 1.09561421e-001 6.53244033e-002 -9.17097330e-002
      1.17820635e-001 1.74766965e-002 -6.14957139e-002 9.93090495e-002
      1.38293291e-002 3.85632440e-002 -7.16883764e-002 -1.92288719e-002
      -8.66885334e-002 -1.24664262e-001 -1.00453027e-001 7.63690099e-002
      -2.87422258e-002 -1.24162436e-001 4.41144444e-002 -5.16445749e-002
      2.50225123e-002 3.84008959e-002 -1.77929774e-001 -1.81721858e-004
      3.05696353e-002 1.17597049e-002 -2.91200820e-002 2.13876218e-002
      -1.09646276e-001 4.20795381e-002 5.33628045e-003 -7.38955885e-002
      -2.25124676e-002 -2.14777783e-001 1.91191435e-002 4.06097546e-002
      -4.61723916e-002 -2.19466865e-001 -1.56822056e-002
      -1.45750325e-002 -7.42098317e-002 -2.29883026e-002
      -4.40625921e-002 -8.76210257e-002 -1.97265238e-001
      -9.46858805e-003 6.29486144e-002 1.49430037e-001 1.49477556e-001
      -5.46986647e-002 2.87412014e-003 3.59019404e-003 1.15632555e-002
      1.68723896e-001 2.85091018e-003 9.84817394e-004 -8.84548128e-002
      -3.87328565e-002 -9.67457369e-002 3.08176484e-002 -1.71837602e-002
      -3.99681516e-002 2.28321068e-002 5.29298298e-002 -1.01079643e-002
      -7.50098005e-002 -1.43143125e-002 1.51580691e-001 6.54878840e-002
      -8.08141381e-002 -4.81294980e-003 1.89054504e-001 1.04529470e-001
      -2.05500554e-002 1.18134715e-001 -1.08407281e-001 -3.97707149e-002
      8.22688639e-002 4.61725406e-002 9.69277695e-003 -5.54403737e-002
      4.35278490e-002 -4.22290899e-002 9.93047953e-002 -2.33783182e-002
      3.74298953e-002 -1.13289252e-001 -1.03589834e-003 -4.23231572e-002
      -6.86793327e-002 3.16300601e-001 -1.10137938e-002 8.62040669e-002
      3.61800492e-002 6.86932914e-003 2.47508679e-002 2.53365226e-002
      -6.49823919e-002 -8.13651755e-002 3.61719094e-002 -8.08967575e-002
      -9.61745530e-002 -5.61225154e-002 6.23212568e-002 6.25684764e-003
      1.37568384e-001 -5.52502945e-002 -2.41676695e-003 5.56784216e-004
      -4.41919416e-002 4.80928048e-002 1.35191530e-001 -7.84235373e-002
      2.93566566e-002 -8.01967271e-003 3.49258184e-002 -1.07236013e-001
      5.31737804e-002 -1.56560894e-002 -4.34646308e-002 -1.44001665e-002
      2.20563151e-002 -2.98143737e-002 1.58674225e-001 6.91197217e-002
      1.32375419e-001 -5.40340841e-002 -3.11495513e-002 -1.16115960e-003
      1.53218910e-001 1.12482673e-002 7.21618980e-002 1.45082241e-002
      7.20459176e-003 -1.07207112e-001 -6.26767054e-002 -4.72441092e-002
      1.73824336e-002 -1.37182698e-001 -5.85712753e-002 -2.82856543e-003
      -3.94778997e-002 4.09791479e-003 3.36355641e-002 -1.61521599e-001
      2.41900305e-003 -1.71849146e-001 -3.63332927e-002 2.79606700e-001
      -1.57093987e-001 2.70711314e-002 -3.59858572e-002 -2.70640641e-003
      -2.25127172e-002 -7.76513806e-003 -3.89551669e-002
      -3.02691739e-002 -9.10274219e-003 -6.78077340e-002 1.55027688e-001
      8.26045871e-002 1.85494293e-002 3.37827392e-002 6.72426000e-002
      1.61408707e-001 -1.03444699e-002 7.03515112e-002 -1.27282664e-001
      4.01759222e-002 4.45613153e-002 -5.43022603e-002 -1.91181861e-002
      -2.85439696e-002 -7.88392350e-002 -1.70786008e-001
      -1.77069888e-001 5.87154813e-002 -1.53862322e-002 6.06630631e-002
      -1.59827303e-002 -1.21278604e-002 7.06372410e-002 -2.57096700e-002
      -1.48069173e-001 3.01012155e-002 4.94100153e-002 -2.73399334e-002
      2.00399563e-001 2.74714977e-002 -4.37191017e-002 -1.03502624e-001
      -4.45413264e-003 -5.84914088e-002 6.38806319e-004 3.76369506e-002
      5.04715787e-003 1.37351602e-001 5.84511049e-002 4.17280803e-003
      1.27025872e-001 6.84423000e-002 -3.93936671e-002 -1.74901739e-001
      -5.96296974e-002 5.44410832e-002 5.54841012e-002 2.03280095e-002
      -2.62491882e-001 1.36402287e-002 8.98719486e-003 -6.85726702e-002
      -8.16292912e-002 1.15035892e-001 4.04605977e-002 -6.08195597e-003
      1.09157050e-002 -5.41477501e-002 -1.92811579e-001 6.52668104e-002
      -4.87434864e-002 3.40987332e-002 3.24389199e-004 -4.44775447e-002
      2.63370145e-002 -2.17657052e-002 -7.85525143e-003 1.13392267e-002
      1.07872806e-001 2.01965217e-002 -1.77202344e-001 4.05395217e-003
      6.16306663e-002 -6.79730996e-002 -7.55075812e-002 -1.93523355e-002
      1.88704822e-002 -1.33695658e-002 1.20467516e-002 5.84749728e-002
      1.31230175e-001 -4.45221849e-002 2.77208537e-002 -1.45584876e-002
      3.13616730e-002 -2.81810621e-003 -7.16559589e-002 5.04144728e-002
      1.03101926e-002 -2.08607055e-002 5.27701043e-002 6.28658682e-002
      -1.85267165e-001 -2.63608620e-002 3.58682945e-002 1.70039475e-001
      2.02279147e-002 -2.40591057e-002 -4.43265401e-002 1.02670945e-001
      1.92063544e-002 2.08302848e-002 5.80587536e-002 -3.32157612e-002
      -8.01047869e-003 2.14510038e-001 -3.71756256e-001 -7.35811144e-002
      4.83006500e-002 3.11774928e-002 -1.88959856e-002 -4.09414098e-002
      3.91025208e-002 3.15409042e-002 1.07556969e-001 1.00238599e-001
      2.14158352e-002 -4.64437157e-002 7.15084467e-003 2.69601922e-002
      -5.94559573e-002 1.23811327e-001 -4.95797433e-002 -1.36294486e-002
      -8.27256516e-002 2.68426895e-001 1.25020519e-001 9.23993625e-003
      -8.63440931e-002 -2.44948380e-002 3.40165310e-002 -3.25352177e-002
      -5.98559193e-002 5.76772876e-002 -3.94934565e-002 -2.80754641e-002
      1.97515124e-003 -3.93773690e-002 5.85481077e-002 8.61100852e-002
      8.93625617e-003 4.05252464e-002 -5.05905114e-002 -6.26781359e-002
      -9.78742987e-002 4.89622019e-002 -4.65782220e-003 -9.88027081e-002
      3.73147540e-002 -7.15187332e-003 8.36472660e-002 -6.46765530e-003
      6.39092997e-002 2.01566331e-003 6.92448243e-002 4.18395177e-002
      -5.23170270e-003 7.91745540e-003 2.23151650e-002 -1.60898566e-001
      -9.00678560e-002 6.30159257e-003 2.85493229e-002 1.18583348e-002
      1.59391046e-001 8.42665359e-002 7.57107511e-002 3.46183889e-002
      6.92308620e-002 6.31309673e-002 1.09221429e-001 1.73870698e-002
      7.43741542e-002 3.95528823e-002 1.27257705e-001 1.57436617e-002
      -3.39062372e-003 7.88767785e-002 -2.44753420e-001 -6.47472367e-002
      6.70772791e-002 -5.27440980e-002 -1.09798066e-001 7.89479986e-002
      8.74883533e-002 8.61927420e-002 1.94579232e-002 -8.37460309e-002
      4.25711274e-002 6.29933402e-002 -8.28039646e-002 -6.63493574e-002
      -1.62844453e-002 -7.18754390e-003 -8.60378072e-002
      -4.11054157e-002 -1.87117830e-001 1.08247750e-001 5.58633283e-002
      -4.88541909e-002 -3.37995365e-002 -5.87095506e-002 2.61878758e-003
      -3.73503397e-004 3.56649756e-002 5.31341415e-003 -1.25194788e-001
      2.59710364e-002 4.37599383e-002 -2.32813749e-002 -7.23793805e-002
      7.35026971e-002 -1.06552057e-001 -5.41915819e-002 -1.01906382e-001
      1.13539599e-001 -5.59028871e-002 -5.39836623e-002 3.19338627e-002
      2.39681341e-002 -1.92845408e-002 -1.13395125e-001 -1.02703735e-001
      -4.18659374e-002 8.78800750e-002 2.81758383e-002 1.58034340e-001
      3.72775756e-002 7.06090331e-002 6.20696843e-002 6.45039007e-002
      1.52311390e-002 -9.17341486e-002 -8.22641179e-002 5.92799969e-002
      2.60649007e-002 1.77972183e-001 4.12872024e-002 -1.52238578e-001
      -2.35586967e-002 -7.61366636e-002 -7.46876523e-002 4.37875316e-002
      6.44914731e-002 -5.70383407e-002 -1.28663883e-001 3.93747054e-002
      1.71400458e-002 -1.06131375e-001 4.49339151e-002 3.08784153e-002
      -2.24789474e-002 2.34326627e-002 -2.07090732e-002 3.62551622e-002
      1.01793200e-001 6.78955615e-002 1.50311768e-001 -5.73177561e-002
      2.63235401e-002 2.72690076e-002 4.45230957e-003 -4.03540721e-003
      -1.64581258e-002 -8.84310752e-002 -1.13153547e-001
      -6.41237805e-003 6.31773695e-002 4.22936771e-003 -5.67202866e-002
      -6.35897145e-002 1.67721454e-002 5.55068813e-003 4.46487702e-002
      1.20490164e-001 -8.82434025e-002 -6.98611438e-002 -5.23044914e-002
      -9.93114114e-002 -6.55438527e-002 -4.44498137e-002
      -5.05040698e-002 9.42107663e-003 6.68902472e-002 1.26330107e-001
      6.24432527e-002 3.61693790e-003 2.59790309e-002 7.50909746e-002
      -3.90486494e-002 6.40968680e-002 3.65997991e-003 2.04101019e-003
      5.19304089e-002 -3.25259641e-002 6.53767064e-002 1.51674449e-002
      -2.75109485e-002 8.77331570e-003 -1.32667437e-001 1.96213529e-001
      5.05645573e-002 7.35283503e-003 -6.25075400e-002 2.15965770e-002
      9.31566209e-002 -9.39240307e-002 8.89304429e-002 -3.75777297e-002
      -9.35834944e-002 -2.77051274e-002 -7.60731101e-002 8.86859652e-003
      7.10824803e-002 2.60166209e-002 1.14774786e-001 1.00552753e-001
      -9.67728347e-002 -9.86429155e-002 -8.53135437e-002
      -2.71929745e-002 -4.26924489e-002 -1.05400823e-001 4.69700359e-002
      1.49466237e-002 3.63033898e-002 -4.36937250e-002 -7.42249936e-002
      -6.25628307e-002 1.89271625e-002 -3.84219326e-002 8.20112750e-002
      -3.81486788e-002 -1.97697300e-002 -2.23628022e-002 1.28297031e-001
      -1.17566079e-001 -9.65384319e-002 -4.19195779e-002
      -6.23567179e-002 -4.84862402e-002 1.83971487e-002 9.17043444e-003
      2.00723615e-002 5.78475371e-002 -3.07681765e-002 5.02862595e-002
      1.09413946e-002 6.68014139e-002 -5.20977788e-002 -4.31519710e-002
      -6.43033534e-002 -2.00121507e-001 3.16681527e-002 1.98775507e-003
      3.11676487e-002 3.78552377e-002 -2.06698198e-002 -7.74403363e-002
      2.10278891e-002 3.33390832e-002 -3.50647722e-004 -1.05064258e-001
      -2.70878356e-002 5.55569269e-002 3.54705155e-002 2.41278317e-002
      -3.34081203e-002 -1.63997640e-003 8.62699002e-002 2.02595398e-001
      3.12347319e-002 8.95387754e-002 -6.89919433e-003 3.50598656e-002
      -8.41438305e-003 4.83743176e-002 2.05212738e-002 -6.83055669e-002
      1.92874111e-002 -8.33199453e-003 4.52047549e-002 7.07569793e-002
      2.07948480e-002 -2.39349753e-002 2.25908924e-002 -6.36381581e-002
      3.38585861e-002 -2.45550964e-002 -8.03739578e-003 4.63141166e-002
      -1.87485814e-001 -5.37757687e-002 -6.12654835e-002
      -9.96357724e-002 1.45026386e-001 -9.18991864e-002 -5.37412949e-002
      -6.84950650e-002 1.21595869e-002 4.76308875e-002 -2.67042592e-002
      -6.77657351e-002 -6.58177584e-002 -4.49481197e-002 3.04907933e-002
      1.76759176e-002 -1.07084056e-002 -7.70076513e-002 2.63763452e-003
      -3.12865227e-002 -8.04479942e-002 -4.23684381e-002
      -3.81182507e-002 8.13717768e-003 -1.30843995e-002 -4.85823862e-002
      8.46032519e-003 9.32682678e-003 1.11400606e-002 -1.35564106e-002
      5.88386543e-002 -2.75267325e-002 -5.88841848e-002 -8.28779396e-003
      -3.08682099e-002 -4.14423365e-003 -9.47894379e-002 1.79237679e-001
      7.10409954e-002 3.89733864e-003 3.89474332e-002 -4.41635735e-002
      1.52488112e-001 1.35048226e-001 3.01735587e-002 -3.77830341e-002
      5.14455512e-002 -2.55495552e-002 2.22527027e-001 1.25658661e-001
      1.46339796e-002 -2.32099202e-002 -7.47640803e-002 5.03085926e-002
      1.07757136e-001 9.00836065e-002 -1.67988967e-002 1.86191108e-002
      1.94411352e-002 8.68584067e-002 -8.63942504e-002 -1.98514864e-001
      -9.84537676e-002 -6.67025819e-002 -6.71635419e-002
      -3.34623121e-002 -1.86717622e-002 2.53301896e-002 5.07816598e-002
      4.01345193e-002 -4.28516306e-002 -1.40873082e-002 1.59182902e-002
      1.34092450e-001 -2.70736869e-002 -4.25222181e-002 2.73512788e-002
      4.59540412e-002 7.48927193e-003 -2.52035577e-002 -5.31836180e-003
      -6.39728010e-002 -2.87714079e-002 -1.92386610e-003
      -1.98409613e-002 -6.49817474e-003 1.68029573e-002 -2.67215129e-002
      -1.60534620e-001 -1.38748839e-001 7.58388415e-002 4.67495881e-002
      -8.86025950e-002 3.50814536e-002 5.92474788e-002 1.02175362e-001
      7.34644234e-002 7.16661336e-003 -1.58962663e-002 2.72511467e-002
      5.30549847e-002 7.61233419e-002 1.12119533e-001 -9.81444679e-003
      2.87711024e-002 7.48739541e-002 6.08348288e-002 1.30024913e-004
      -6.80038109e-002 -5.16724475e-002 1.44446909e-001 6.08342141e-002
      -1.78714120e-003 -1.26537442e-001 -1.45569608e-001
      -2.10075965e-003 7.18122274e-002 -9.88381654e-002 -4.48738933e-002
      -5.15871011e-002 2.15220135e-002 -2.18881443e-001 2.66593490e-002
      2.75281817e-002 -4.96075191e-002 -7.39752606e-004 9.63446423e-002
      1.41952381e-001 -1.58490837e-002 -2.06439774e-002 7.98833668e-002
      1.85734421e-001 -1.70881841e-002 -6.58007488e-002 3.07682268e-002
      8.68227333e-002 5.93298376e-002 -2.96132639e-002 -2.70113139e-003
      -8.15321729e-002 1.55637220e-001 6.31476566e-002 5.93794957e-002
      -7.75772035e-002 1.59977600e-002 -6.96171969e-002 -6.63852170e-002
      -7.38230497e-002 4.44049388e-002 -1.60460100e-001 -1.08963288e-002
      1.72027405e-002 -5.74821532e-002 7.28418902e-002 3.60364728e-002
      4.67822403e-002 1.38844326e-001 -1.67135987e-002 -2.50368137e-002
      1.67937879e-003 -1.48983017e-001 5.37612028e-002 -3.55361514e-002
      -3.82517986e-002 2.20864508e-002 4.66358438e-002 -6.92035183e-002
      2.61749094e-003 3.73097509e-002 2.47405022e-002 -4.57127616e-002
      -1.65335145e-002 -3.11258212e-002 -1.32340258e-002
      -8.78206417e-002 1.97637044e-002 -1.09008297e-001 -2.23612599e-002
      8.43275636e-002 -4.79839854e-002 -6.04101084e-003 1.02798482e-002
      3.53328809e-002 -7.20854849e-002 8.07331782e-003 6.37950525e-002
      1.83821712e-002 2.13972051e-002 -7.64243212e-003 4.67638262e-002
      -9.05819014e-002 1.17589822e-002 7.38264620e-002 -6.76460415e-002
      -8.59157071e-002 -2.21130773e-002 -8.98013823e-003 8.28325935e-003
      4.03535888e-002 1.19478866e-001 1.53559409e-002 -1.22076504e-001
      -4.61157598e-002 8.90464894e-003 -1.73591636e-002 1.49042131e-002
      3.82408760e-002 2.94781178e-002 1.15482695e-002 1.19953126e-001
      6.20930642e-002 2.50109751e-002 1.16071671e-001 2.23657489e-002
      -6.24340773e-003 -3.04562468e-002 -1.18863154e-002
      -1.32308871e-001 -1.07595935e-001 9.47256759e-002 5.20961545e-002
      -8.90229121e-002 -6.37594759e-002 3.60534042e-002 7.96608999e-002
      7.15830922e-002 4.67095152e-002 -1.47224441e-001 2.16143448e-002
      5.01070283e-002 3.41876186e-002 -4.00027707e-002 -2.19226629e-001
      -3.18982080e-002 2.25657802e-002 -1.34240866e-001 1.77451596e-001
      -3.82783897e-002 -4.64795455e-002 1.03309844e-002 1.30319279e-002
      4.88449857e-002 3.71825211e-002 -1.86944157e-002 6.44671544e-002
      -2.35490408e-002 -7.07901269e-002 -3.00687850e-002
      -9.97093245e-002 -8.69219154e-002 3.43584791e-002 -1.40099069e-002
      4.42140875e-003 -6.73522893e-003 6.17114305e-002 -7.81266466e-002
      1.69999097e-002 9.98536721e-002 8.17498937e-002 -4.79091741e-002
      -2.59993766e-002 1.42715108e-002 2.87039969e-002 -3.59204188e-002
      6.23951433e-003 7.92417326e-004 -2.19095312e-002 3.38346250e-002
      -1.04975946e-001 -1.01028718e-001 7.56820589e-002 -6.38580993e-002
      6.73058257e-002 2.61722761e-003 7.06032813e-002 6.76677525e-002
      -6.97560236e-002 1.14599592e-003 4.27818531e-003 3.43687385e-002
      5.29919118e-002 1.02200009e-001 5.93985841e-002 -7.09813759e-002
      -2.20115408e-002 -6.64901063e-002 7.47232884e-003 -6.41961247e-002
      1.00554772e-001 9.58927255e-003 -1.19650878e-001 4.20075506e-002
      3.97172906e-002 -4.92054336e-002 8.28609690e-002 -6.73748851e-002
      -7.10664615e-002 1.09123684e-001 -2.73904810e-003 -4.68485653e-002
      -2.93228868e-002 5.19961901e-002 6.99083656e-002 -4.84594777e-002
      -6.23808913e-002 -1.04274172e-002 3.71536463e-002 -1.24861402e-002
      9.46731493e-002 -1.48478210e-001 -1.25930250e-001 -1.19170696e-001
      2.55795233e-002 1.28154075e-002 7.66591821e-003 6.10272773e-002
      -6.60968497e-002 -3.89995612e-002 1.22267343e-002 8.07540566e-002
      1.28634319e-001 -1.89387202e-001 -2.08257530e-002 -1.55905099e-003
      2.67296974e-002 5.03227748e-002 -8.43643770e-002 -1.35873362e-001
      -7.44883437e-003 3.54213268e-002 7.79037224e-003 5.17225154e-002
      1.00277543e-001 2.27789544e-002 -8.54680985e-002 1.06140256e-001
      3.26515324e-002 7.66597735e-003 -6.68361709e-002 -1.54467272e-002
      2.70596649e-002 -2.95854080e-002 9.99459904e-003 -8.76037627e-002
      7.15668797e-002 -6.79336721e-003 1.36685014e-001 7.05999732e-002
      -5.32332994e-002 8.53398442e-003 2.46341974e-002 -1.07136644e-001
      2.59209901e-001 -2.40963116e-001 -9.12383273e-002 7.25977272e-002
      2.93025281e-002 -2.00546253e-002 -1.99783891e-002 -4.72987927e-002
      3.92638631e-002 7.33126700e-002 -5.71300201e-002 -1.88730899e-002
      -3.41742821e-002 1.18166566e-001 -1.39853330e-002 -1.01653688e-001
      -1.72252625e-001 1.30893206e-002 -4.86885011e-002 -9.89741739e-003
      -6.26119133e-003 4.28275615e-002 8.79701674e-002 7.83727914e-002
      -9.98355821e-003 -6.03409670e-002 1.21467724e-001 -7.15100020e-002
      9.65718478e-002 6.10982291e-002 -5.44608198e-002 -1.83048993e-002
      3.30127589e-002 -2.73097306e-002 1.36286933e-002 4.60315309e-002
      1.95195433e-002 4.99073341e-002 -5.91201894e-002 1.34476110e-001
      8.35587382e-002 -3.65784355e-002 7.97625184e-002 4.74654287e-002
      2.44336084e-001 6.80840388e-002 -1.02062607e-002 -5.59044653e-004
      -1.65844589e-001 -5.21396939e-003 -4.72296029e-002
      -8.85675326e-002 1.00923829e-001 6.13045469e-002 2.43094955e-002
      2.79251542e-002 -9.72429216e-002 -1.68347135e-002 -2.16530114e-001
      -3.32145505e-002 -5.99203780e-002 7.13955536e-002 4.69961874e-002
      7.93838650e-002 6.42048270e-002 4.63801902e-003 -1.66157596e-002
      -2.37729941e-002 -8.37700516e-002 1.59081757e-001 -7.10811168e-002
      3.19962460e-003 -4.99512739e-002 -4.85384762e-002 -4.34229076e-002
      -1.90666728e-002 -3.15022580e-002 -9.52036604e-002
      -8.23747963e-002 -1.81314349e-002 4.17498639e-003 2.23273691e-002
      -2.46552248e-002 2.80919299e-002 -1.19813912e-001 -4.83988672e-002
      -6.82590827e-002 -1.79687459e-002 -7.19159245e-002 7.09768161e-002
      5.08467145e-002 1.26013443e-001 1.10854879e-001 1.03954032e-001
      -7.47948512e-002 -4.31734249e-002 -2.39337515e-002 1.40977859e-001
      1.01797283e-001 8.71358663e-002 6.33745268e-002 8.92810002e-002
      1.15401493e-002 9.41792727e-002 4.71980013e-002 4.27091643e-002
      -2.38910481e-001 -2.62385868e-002 -2.23805616e-003 5.17501198e-002
      2.28807349e-002 5.53027578e-002 -4.76340912e-002 1.02318376e-002
      -6.81494847e-002 -4.50388193e-002 -1.66808918e-001
      -9.53375828e-003 -2.44242698e-003 -4.13833894e-002 6.50494099e-002
      5.12334779e-002 -2.20350623e-002 -2.19118427e-002 5.85175902e-002
      3.99968214e-003 1.84401013e-002 1.28892109e-001 8.65714159e-004
      7.76740164e-002 -5.54875769e-002 7.25472793e-002 1.20340534e-001
      -3.16617563e-002 -1.94037259e-002 -2.68481914e-002
      -1.60428748e-001 1.06875338e-001 -1.62425451e-002 3.36199068e-002
      -4.59390730e-002 -4.21733037e-002 -1.07031383e-001
      -3.15650553e-002 6.11818172e-002 1.74853783e-002 1.26091270e-002
      -5.34558371e-002 -1.12752460e-001 4.06605713e-002 1.15233824e-001
      -3.95736508e-002 5.01468927e-002 -3.53362411e-002 -4.47720243e-003
      -4.90320660e-002 3.66029181e-002 -6.98896497e-002 8.74738544e-002
      -4.85625416e-002 1.02994867e-001 -8.37374199e-003 -9.52669755e-002
      -5.69892861e-002 -1.02672309e-001 -9.60641205e-002
      -1.82987582e-002 4.88475114e-002 -1.70863001e-003 3.03388783e-003
      -9.48512852e-002 3.09980637e-003 2.72574443e-002 -6.28886595e-002
      2.39598066e-001 7.67364576e-002 -1.24360602e-002 1.31635964e-001
      2.59218309e-002 1.24470405e-001 -1.23864424e-003 2.17879452e-002
      -3.48918289e-002 -2.75163632e-002 7.16174766e-002 5.38210012e-003
      -4.43353914e-002 3.34503204e-002 -7.08823800e-002 2.31855422e-001
      2.49578035e-003 3.01577300e-002 -5.82892410e-002 -1.32938236e-001
      -1.90708339e-001 8.09390247e-002 2.91085728e-002 6.54363334e-002
      -3.50639075e-002 1.49967633e-002 -8.18455219e-002 -1.63477376e-001
      1.04774944e-002 -7.45445117e-002 -6.83087483e-002 -8.51180851e-002
      -9.21790302e-002 -3.15558240e-002 -2.04237010e-002 3.26613598e-002
      6.46138489e-002 -3.03867254e-002 1.15570337e-001 1.84171692e-001
      -9.75874811e-002 5.81693053e-002 -5.87078519e-002 -8.25731233e-002
      1.04291516e-003 6.50266111e-002 5.10287508e-002 -1.27249388e-002
      -3.75662185e-003 -2.59583760e-002 1.71202794e-002 -3.88588086e-002
      3.43902037e-002 -1.34578152e-002 1.09271750e-001 4.06865664e-002
      -1.07469030e-001 -1.78795718e-002 -1.51096871e-002 2.73389295e-002
      -6.53781742e-002 -7.85088539e-002 -1.48475375e-002
      -5.17172134e-003 -3.60767581e-002 5.10066524e-002 1.09139293e-001
      -3.41087691e-002 5.63376583e-002 5.10920677e-003 4.15905425e-003
      -1.13163015e-003 6.11985736e-002 7.03698620e-002 -9.30761024e-002
      -8.12390596e-002 -4.13576029e-002 5.82916699e-002 1.02541946e-001
      3.25589292e-002 3.12467362e-003 3.31315887e-003 -3.01203243e-002
      -1.62784494e-002 -9.03641209e-002 6.00712001e-003 2.30346713e-002
      -1.85284987e-002 -5.72717823e-002 -4.27997001e-002 3.40192914e-002
      -2.72145495e-002 3.64365950e-002 -1.73589634e-003 6.56772852e-002
      2.36931182e-002 1.15906196e-002 7.77529255e-002 7.62414699e-003
      6.13691509e-002 -9.03526843e-002 2.67527569e-002 2.02977527e-002
      1.04594126e-001 -1.64454747e-002 -1.45379892e-002 6.82126060e-002
      -1.06582791e-001 7.88024962e-002 -6.62276149e-002 1.11967623e-002
      6.54817279e-003 3.03653143e-002 -9.86396894e-003 -6.73057660e-002
      -1.01185426e-001 -7.07532838e-002 5.43865152e-002 1.33050010e-002
      -7.94395804e-002 -2.05006613e-003 3.99161540e-002 -8.18726700e-003
      -3.15723419e-002 -3.90338176e-003 2.73190737e-002 2.60217842e-002
      5.44874482e-002 6.41859770e-002 -2.33905520e-002 -8.70900750e-002
      -1.08622886e-001 4.60103303e-002 3.59125808e-002 -5.27986372e-003
      -3.70444953e-002 9.45795998e-002 8.09994992e-003 -1.00165699e-002
      -1.42566159e-001 3.72919068e-002 2.05084365e-002 1.17378473e-001
      1.04991764e-001 2.89778598e-002 -9.75780934e-002 1.73072051e-002
      -3.48190814e-002 -5.98217081e-003 -1.09497361e-001 2.28811661e-003
      2.94278609e-003 -2.90559568e-002 -9.07342136e-003 5.20048151e-003
      1.55363455e-001 -4.98595014e-002 5.50868437e-002 -3.61971036e-002
      -2.61825379e-002 4.28387411e-002 9.45060775e-002 -2.09289230e-002
      1.90585442e-002 -3.64257619e-002 3.65445879e-003 4.43616649e-003
      -4.50181030e-003 5.24725206e-002 9.94070433e-003 -3.39065045e-002
      -4.78119664e-002 1.22795701e-001 7.86007121e-002 -3.58881891e-001
      2.01078534e-001 -1.65688414e-002 1.01682777e-002 9.10100620e-003
      -1.58760305e-002 2.29353476e-002 3.62461470e-002 1.44168213e-001
      -5.49973734e-003 1.60101112e-002 8.38506967e-002 -5.45520559e-002
      -1.93187241e-002 -6.11296520e-002 -4.85612899e-002
      -3.82168889e-002 -5.96517064e-002 2.24209540e-002 5.35429455e-003
      5.86439371e-002 3.14408988e-002 1.08157329e-001 6.70201108e-002
      -7.11074919e-002 -6.58720825e-003 1.75028089e-002 1.25036731e-001
      7.53127411e-002 6.76908493e-002 2.18585320e-003 -5.33834174e-002
      -6.80410042e-002 3.75199830e-003 4.51585911e-002 3.02497204e-002
      8.25410262e-002 -3.54669914e-002 -4.91810171e-003 -5.66946194e-002
      -6.05513826e-002 -1.54993227e-002 -4.66237739e-002
      -4.55644466e-002 -1.29078791e-001 -4.55136038e-003 3.28554250e-002
      -5.99292777e-002 8.13679583e-003 -4.56517413e-002 -1.25191407e-002
      -1.04270754e-002 3.62538709e-003 -7.87959471e-002 8.15869272e-002
      1.03033269e-002 -6.84908405e-002 -7.06599429e-002 -1.38617203e-001
      1.27906859e-001 -1.75439008e-003 1.96242593e-002 9.73052531e-002
      -1.14034172e-002 1.07834283e-002 -4.34568897e-002 -3.71145755e-002
      -1.73075031e-002 -9.49501991e-002 -4.82695736e-002
      -3.36685479e-002 1.27150640e-001 3.38583416e-003 -1.66322678e-001
      -9.46250483e-002 6.22658655e-002 9.11478070e-004 4.89866883e-002
      4.36051516e-003 1.44808255e-002 -8.69647041e-003 -4.26042415e-002
      5.66186830e-002 1.75770894e-002 -3.80234346e-002 -2.03142166e-002
      9.22769383e-002 9.71009210e-003 3.64667103e-002 -4.81105857e-002
      -6.89289067e-003 -1.45389289e-001 -1.51877310e-002
      -2.13240273e-002 2.14038230e-002 -8.87021539e-004 -8.93961936e-002
      -5.12213483e-002 -8.26685578e-002 4.87995185e-002 3.47120129e-002
      -1.26769483e-001 5.57269864e-002 2.09018178e-002 5.53920530e-002
      -6.60191923e-002 3.36033069e-002 7.59956241e-002 -1.38650136e-003
      1.67092886e-002 4.67662439e-002 1.37620438e-002 1.01064682e-001
      7.05085620e-002 9.92651433e-002 -2.91399956e-002 -8.15182254e-002
      8.61134157e-002 -9.60884558e-004 6.48974106e-002 4.46233042e-002
      3.04040909e-002 -1.81951076e-002 -1.83635000e-002 9.65215564e-002
      -1.68915503e-002 -6.82491735e-002 -5.69083579e-002 7.59878848e-003
      -3.96906282e-004 -1.02570012e-001 -1.23777717e-001
      -9.03514773e-002 4.50676493e-002 -4.57682647e-002 2.61940639e-002
      -8.15675706e-002 -8.08982402e-002 1.19041372e-002 6.09963834e-002
      -6.44509047e-002 6.07622303e-002 2.05979154e-001 -2.97482405e-002
      -7.74483336e-003 -2.43175197e-002 -6.82897167e-003 1.34296399e-002
      -2.98912078e-002 1.26409039e-001 -3.30771618e-002 -2.32500229e-002
      4.74756733e-002 1.07966596e-003 5.51732033e-002 6.44180700e-002
      8.23618695e-002 -1.06412247e-002 7.11807832e-002 -1.48471043e-001
      -9.00581330e-002 2.23725587e-002 5.52492104e-002 -1.07170880e-001
      -2.53832936e-002 -1.19201839e-001 1.29605494e-002 -5.75171458e-003
      1.07386701e-001 3.82352620e-002 7.51818344e-002 1.22618536e-002
      7.70244747e-002 -5.99230379e-002 -1.12453811e-001 -4.23574932e-002
      -1.31236270e-001 2.87146643e-002 1.23548508e-002 2.14316010e-001
      7.87603930e-002 5.89892156e-002 -3.68941389e-002 3.02859843e-002
      -6.42328849e-003 5.97093068e-002 -7.68316314e-002 2.84735393e-002
      -7.97881335e-002 -2.08657220e-001 -2.33300775e-003
      -1.83794517e-002 -6.55184537e-002 -1.49761334e-001
      -1.63472593e-001 -6.90824986e-002 3.63478716e-003 9.05809328e-002
      -9.50575024e-002 -3.61948460e-002 5.10399938e-002 -5.26137576e-002
      -3.67926387e-003 -7.55805448e-002 -9.02814977e-003
      -5.43778529e-003 8.39812867e-003 1.03019640e-001 1.79629885e-002
      6.70865998e-002 1.47220954e-001 -2.84268912e-002 -7.57753383e-004
      6.98074773e-002 5.74665666e-002 7.95644075e-002 5.05142622e-002
      -8.24538842e-002 1.93172172e-002 5.28979264e-002 3.68417427e-002
      7.11897090e-002 4.33445163e-003 -5.56908967e-003 5.81296310e-002
      -5.17757200e-002 9.08698514e-002 2.07633041e-002 5.94030321e-002
      -2.36211736e-002 -5.97406738e-002 -6.88772369e-003
      -8.40873346e-002 -1.54434264e-001 -1.54139400e-001 1.50136203e-001
      3.11640999e-003 1.21239409e-001 -8.56828969e-003 3.82179730e-002
      3.90255302e-002 8.91374610e-003 -4.05781865e-002 4.28032763e-002
      -3.27410549e-002 -4.72057536e-002 -1.02333948e-001
      -1.58000112e-001 3.70058492e-002 9.88630671e-003 -1.08412700e-002
      -9.38810632e-002 -2.07045123e-001 1.90838277e-002 1.23395845e-002
      9.16175470e-002 -3.37434560e-002 4.46186326e-002 -2.19208449e-002
      -1.03164658e-001 2.58798916e-002 -8.67060497e-002 -2.81964764e-002
      7.16303363e-002 1.42623819e-002 1.01609277e-002 8.79456103e-002
      -2.35488843e-002 1.16009556e-001 9.55934171e-003 -3.62575017e-002
      -7.39416406e-002 1.31147206e-001 -3.39372531e-002 -7.55234528e-003
      -7.68605918e-002 5.34294769e-002 1.48453057e-001 -1.81201585e-002
      1.42530754e-001 1.26562119e-002 3.00856237e-003 2.33071833e-003
      6.92884475e-002 6.05821945e-002 -5.23787327e-002 -7.00521050e-004
      -1.14843296e-002 7.83565640e-002 -5.65968640e-002 1.96431149e-002
      -4.45057675e-002 -3.40524465e-002 -2.56951060e-002 6.11914098e-002
      9.35868397e-002 4.81454916e-002 2.73908805e-002 -2.77322251e-004
      9.15884040e-003 4.18149913e-003 1.83981970e-001 -3.43515575e-002
      9.06808078e-002 -1.23470323e-002 1.23204887e-001 8.23977515e-002
      4.04792428e-002 1.34226633e-002 1.56150078e-002 -9.23069641e-002
      1.76631808e-002 -1.38724712e-003 1.31922051e-001 1.61877889e-002
      6.32512569e-003 -6.00023344e-002 -9.82292965e-002 3.23849916e-002
      2.46762224e-002 -8.78508091e-002 -6.32299036e-002 -1.51425228e-002
      -1.40695050e-001 1.61090419e-001 7.56635070e-002 1.06603965e-001
      -8.11992865e-003 -4.55874912e-002 5.95323890e-002 -1.87729541e-002
      3.62111591e-002 9.48378071e-003 -1.06008798e-001 3.36861201e-002
      4.75956425e-002 -2.03168821e-002 -2.13502385e-002 -6.09193929e-002
      -7.90430307e-002 -4.20797691e-002 -2.96174586e-002
      -5.39834648e-002 -1.13273710e-001 -1.71348546e-002 4.77147587e-002
      -4.67280336e-002 -5.91209941e-002 -1.68048039e-001
      -7.60726333e-002 -2.15705168e-002 -7.89929852e-002
      -5.54894023e-002 -3.44702080e-002 2.42859311e-002 8.13110620e-002
      -1.84561097e-004 6.90147206e-002 -5.22056073e-002 3.21690083e-001
      1.79061145e-002 -2.59888038e-004 3.90760861e-002 6.28559338e-003
      1.39864951e-001 8.51995684e-003 -5.17740175e-002 -4.27970439e-002
      -2.98567731e-002 -9.98311909e-004 4.57169488e-002 6.43465295e-002
      3.83730121e-002 -6.50199130e-002 -1.60057187e-001 -2.92394999e-002
      7.19925947e-003 3.41955610e-002 3.56507376e-002 -9.68996994e-003
      1.27580818e-002 -9.36755016e-002 -2.83369562e-003 2.32356153e-002
      1.08306102e-001 1.31092304e-002 3.88883390e-002 7.61053339e-002
      -6.38251230e-002 -1.85994450e-002 6.18533380e-002 -9.70262587e-002
      -4.65351390e-003 5.38660847e-002 1.96266621e-002 2.11640168e-002
      -2.86099631e-002 -1.35513777e-002 2.56108921e-002 -1.89331104e-003
      -6.15745969e-002 -9.67226475e-002 -1.05258055e-001
      -9.06080753e-003 -5.92196807e-002 1.52105102e-002 -3.79882306e-002
      1.44989610e-001 -6.22214898e-002 -2.19068024e-002 3.78529839e-002
      1.01291381e-001 -7.24300800e-004 -4.80454462e-003 -1.79951696e-003
      -5.35787977e-002 3.31951231e-002 7.43790567e-002 -5.95729053e-002
      -1.07070561e-002 2.01178212e-002 -9.73587185e-002 1.27440870e-001
      -5.59772067e-002 -4.99714948e-002 -5.67383654e-002
      -9.97061580e-002 -4.54239175e-002 -3.43743665e-003 1.24771995e-002
      4.90811802e-002 2.78480700e-003 -7.37669021e-002 -1.49244815e-003
      2.96330992e-002 -9.35968533e-002 2.40423623e-002 3.36381271e-002
      4.29520980e-002 5.16649000e-002 1.26488032e-002 -9.80574545e-003
      -2.58577596e-002 5.68115972e-002 3.09308320e-002 8.39849934e-002
      1.24687314e-001 -8.33382737e-003 2.80833356e-002 1.29478201e-002
      -6.54663006e-003 6.24856949e-002 2.74314862e-002 -4.45377193e-002
      -1.32844105e-001 3.40533368e-002 3.01381201e-002 -5.94819291e-003
      6.45492971e-002 -2.20966451e-002 2.29911716e-003 -6.11617276e-003
      -4.70862053e-002 -7.32219890e-002 -1.81412414e-001
      -2.45033741e-001 8.12450871e-002 -8.75281096e-002 3.57544422e-002
      8.39279741e-002 -9.29453690e-003 -9.39185452e-003 -4.72360626e-002
      -1.63233932e-002 6.04154095e-002 -6.40648454e-002 -1.23612937e-002
      -1.91517435e-002 -6.15187874e-003 -4.65905592e-002 5.55315018e-002
      -3.73477079e-002 1.21689513e-002 -1.22152884e-002 7.07875006e-003
      3.47701646e-002 -6.77379780e-003 -3.95937487e-002 6.28231615e-002
      3.39931063e-002 6.97263256e-002 4.40945439e-002 2.96873432e-002
      -1.63924806e-002 -2.26593986e-002 -1.58896968e-002
      -3.20731029e-002 5.18962033e-002 -7.11063817e-002 -6.10894114e-002
      7.76952878e-002 -3.15826982e-002 1.32678062e-001 -1.29184023e-001
      -6.81756288e-002 -1.09624632e-001 1.23148886e-004 8.71724337e-002
      -6.04504757e-002 3.49229248e-003 7.22957700e-002 1.64946988e-002
      -1.69764534e-002 -9.57697853e-002 1.32594397e-002 -2.33556461e-002
      1.07994348e-001 1.99718717e-002 1.60821617e-001 1.23813124e-002
      -3.72557305e-002 2.12291852e-002 6.19217157e-002 -1.11280374e-001
      7.57961422e-002 -2.43990589e-002 -4.78145815e-002 6.76540807e-002
      4.85182293e-002 -5.57721518e-002 -5.71871065e-002 4.56553772e-002
      -3.12539260e-003 -8.30104202e-002 -4.34901714e-002
      -1.76375490e-002 -6.26027351e-003 -2.41909176e-002 3.94545421e-002
      7.53062144e-002 3.23703736e-002 2.15734448e-002 -3.65575887e-002
      -2.72349082e-002 3.95973735e-002 6.71541505e-003 6.32872060e-003
      -3.31091993e-002 1.54651562e-002 9.94575620e-002 -4.37027998e-002
      -6.18963838e-002 -1.23954423e-001 -2.75286403e-003 5.56764714e-002
      1.47413999e-001 -7.16274828e-002 -7.09101707e-002 1.50157124e-001
      -1.76794622e-002 4.18200120e-002 3.29795703e-002 -4.75508422e-002
      -2.46296101e-003 -3.00903507e-002 -6.68508261e-002 2.86715720e-002
      1.63832866e-002 6.91549033e-002 1.08966678e-001 3.61647308e-002
      -1.39174193e-001 -1.25964303e-002 -3.18646175e-003
      -1.85050294e-002 8.81438181e-002 1.50099829e-001 -2.06735730e-002
      -4.19586338e-002 3.99065018e-002 -1.92788526e-001 -1.84786424e-001
      -5.52662946e-002 7.84350559e-003 -7.42049795e-003 4.54652123e-002
      -2.79902089e-002 4.53817509e-002 -8.29718821e-003 8.60269211e-005
      -5.35409711e-002 -9.68626365e-002 -1.48751318e-001 1.26502141e-002
      1.23809995e-002 -6.02078438e-002 -7.18934312e-002 3.84094790e-002
      8.61792117e-002 9.88835935e-003 -2.19094511e-002 -9.86799318e-003
      -3.89975533e-002 1.33965462e-001 5.18298149e-002 9.51648690e-003
      1.04525268e-001 9.43698213e-002 4.19952087e-002 3.26894671e-002
      1.31943859e-002 1.25239836e-002 3.00295390e-002 -5.87136224e-002
      6.06935192e-003 -5.52635640e-003 8.34192857e-002 5.43219000e-002
      1.12854866e-002 -2.67968923e-002 3.90078202e-002 -3.10998019e-002
      -4.41189185e-002 5.32124843e-003 -6.95188493e-002 1.63020138e-002
      1.80086326e-002 3.46962325e-002 2.81663761e-002 7.89413974e-002
      5.72205149e-003 -1.63265355e-002 1.20204926e-001 -1.45724062e-002
      7.02395197e-003 1.68039687e-002 -3.13392505e-002 -9.83577371e-002
      -1.26056656e-001 1.40482858e-002 -2.65506888e-003 -3.43886800e-002
      7.52493681e-004 8.60544369e-002 6.76975921e-002 -1.24043794e-002
      -4.07805853e-002 -5.58917671e-002 -6.71747029e-002
      -5.95311671e-002 3.56751643e-002 -3.40515859e-002 -1.19093947e-001
      -2.24810094e-001 -7.53552839e-002 -1.48424171e-002 1.81236211e-002
      -1.19059466e-001 -4.29329388e-002 -1.72645494e-001
      -2.83169299e-002 5.33557124e-002 -4.49320935e-002 1.31827984e-002
      2.57188268e-002 -4.55584861e-002 -2.84820739e-002 -8.17869380e-002
      9.16851684e-002 7.80921876e-002 5.51734902e-002 5.48966862e-002
      8.06472749e-002 -7.29388138e-003 4.87634391e-002 -2.48990860e-003
      3.04921065e-002 1.29583985e-001 8.34247321e-002 -8.77866428e-003
      -1.15940131e-001 6.97143152e-002 2.92367823e-002 8.78835469e-002
      9.70766544e-002 -4.42973264e-002 1.81571960e-001 -2.42321901e-002
      9.57817808e-002 2.84364484e-002 4.22251783e-002 -7.49126542e-003
      1.00194566e-001 -2.36533713e-002 -2.08794624e-002 -1.11988030e-001
      -2.77508870e-002 -6.93773925e-002 -2.36480520e-003 1.47048309e-002
      -3.21059255e-004 3.48973386e-002 2.86420900e-002 -4.45913859e-002
      6.12043999e-002 1.36104506e-002 -8.74191076e-002 -6.14682585e-002
      -4.41752002e-002 1.25126597e-002 -8.58988985e-003 -1.15281362e-002
      7.39898765e-003 -1.60843823e-002 2.50908174e-002 -3.27747278e-002
      -7.72799030e-002 -1.04559936e-001 2.27060867e-004 1.27584236e-002
      4.37018909e-002 -3.08285076e-002 -2.50889603e-002 -7.42866620e-002
      -2.59504505e-002 -3.69440317e-002 2.76114438e-002 -3.13105769e-002
      -3.33295055e-002 3.37100066e-002 3.66218686e-002 3.89041863e-002
      6.33549038e-003 1.65142231e-002 -8.29485431e-002 -1.89001411e-001
      -1.18955355e-002 1.09310949e-003 5.56507334e-002 6.72383932e-003
      1.63641259e-001 7.05772713e-002 5.47429472e-002 4.65676412e-002
      -2.20178999e-002 -1.09781297e-002 1.74754441e-001 2.83765551e-002
      8.45004618e-002 7.35172331e-002 -2.67528277e-002 4.30846810e-002
      7.04273060e-002 -4.38201763e-002 -8.24161544e-002 -1.06849391e-002
      -3.25812586e-002 2.80900821e-002 3.51864956e-002 6.00050110e-003
      -2.78882608e-002 8.31673443e-002 -6.81679249e-002 1.23178419e-002
      4.92243990e-002 1.82209149e-001 -9.44193080e-002 -5.46871265e-003
      -5.35340086e-002 -1.55692920e-001 1.18440405e-001 -2.66892952e-003
      -1.84947699e-002 -3.11691351e-002 1.01890564e-002 -7.61978403e-002
      -5.96498437e-002 1.08777314e-001 -6.55346783e-003 -4.90676425e-002
      -3.04831788e-002 -4.61272709e-002 -1.46016134e-002 2.68653091e-002
      -1.11411056e-002 3.96547206e-002 5.80014009e-003 -6.79992139e-002
      -8.55073333e-003 -3.70704196e-002 3.87317464e-002 3.32548167e-003
      -2.23794729e-002 1.23681195e-001 6.80303723e-002 -5.68232164e-002
      1.54143209e-002 5.58678322e-002 -5.85707016e-002 2.42090710e-002
      -7.85186812e-002 -1.29423484e-001 1.23193055e-001 -2.87558995e-002
      8.11584741e-002 -7.17036473e-003 2.08947319e-003 -3.07321623e-002
      3.41351815e-002 2.23986395e-002 6.30745515e-002 -4.16960828e-002
      1.05037435e-003 -5.03316671e-002 -8.49808231e-002 -3.90669554e-002
      1.07284077e-002 1.11753922e-002 4.75044213e-002 4.20881025e-002
      4.85511832e-002 -1.08541921e-002 4.45773527e-002 4.15731445e-002
      1.84794869e-002 4.35428023e-002 4.58641015e-002 -7.58655146e-002
      2.87496839e-002 -1.02365958e-002 7.29370937e-002 -8.08428377e-002
      1.49439462e-002 -1.47624989e-004 1.30447827e-003 5.85913472e-002
      1.31976639e-003 -1.28298074e-001 -3.43399793e-002 4.35116328e-002
      -3.34684849e-002 2.02668197e-002 -3.01443711e-002 6.71320036e-002
      -7.62817636e-002 -6.27444088e-002 -5.67434356e-002 2.17589289e-002
      8.85041356e-002 2.68628970e-002 8.52053761e-002 -6.33781310e-003
      -2.23080441e-001 1.15083292e-001 2.29787976e-002 2.04184577e-002
      2.28306698e-003 -4.91547212e-002 -3.50437686e-002 4.07933630e-002
      7.43711293e-002 4.81674038e-002 8.54203328e-002 -9.77271423e-002
      -4.91612740e-002 -5.53144794e-003 -9.69335288e-002 6.74661351e-005
      -2.29866449e-002 2.00209692e-002 4.55267504e-002</_></support_vectors>
  <decision_functions>
    <_>
      <sv_count>1</sv_count>
      <rho>-1.5856693525660806e-001</rho>
      <alpha>
        1.</alpha></_></decision_functions></opencv_ml_svm>
</opencv_storage>
