<?xml version="1.0"?>
<opencv_storage>
<opencv_ml_svm>
  <format>3</format>
  <svmType>C_SVC</svmType>
  <kernel>
    <type>LINEAR</type></kernel>
  <C>1.0001000000000000e+003</C>
  <term_criteria><epsilon>1.1920928955078125e-007</epsilon>
    <iterations>1000</iterations></term_criteria>
  <var_count>3712</var_count>
  <class_count>2</class_count>
  <class_labels type_id="opencv-matrix">
    <rows>2</rows>
    <cols>1</cols>
    <dt>i</dt>
    <data>
      0 1</data></class_labels>
  <sv_total>1</sv_total>
  <support_vectors>
    <_>
      -2.09734738e-001 4.25147802e-001 -3.89156193e-002 3.94973531e-002
      9.04494375e-002 -1.80132627e-001 -1.85887232e-001 -3.91017906e-002
      -1.68710291e-001 -9.52840690e-003 3.42853069e-002 -2.43275464e-001
      7.45740384e-002 1.01579234e-001 1.79096833e-001 -2.40312833e-002
      -6.28068149e-002 -5.41048124e-002 2.76128471e-001 1.81645975e-001
      -3.25874351e-002 -2.73799807e-001 3.99208844e-001 3.81060354e-002
      -1.23139329e-001 -6.65692985e-002 -4.49259281e-001 9.23044160e-002
      -5.55128716e-002 -6.84223548e-002 7.36027360e-002 2.01822490e-001
      -3.45350862e-001 -1.54167535e-002 4.24809317e-004 -3.63082677e-001
      -6.92531019e-002 2.23440960e-001 -1.70461178e-001 -1.26246735e-001
      1.49302199e-001 6.34478703e-002 -9.60863158e-002 1.63127258e-001
      7.29146674e-002 2.73472607e-001 1.51660055e-001 -2.67177641e-001
      8.31475034e-002 2.09602565e-001 7.25735351e-002 -9.97385196e-003
      5.87997511e-002 3.18209790e-002 -3.19685489e-001 4.60511930e-002
      -1.91064924e-001 4.52084243e-001 -4.50776480e-002 7.60487914e-002
      -7.65087679e-002 4.15301993e-002 4.15734619e-001 -8.01532567e-002
      -2.35454500e-001 -1.55327082e-001 -1.80723667e-002 1.81101143e-001
      8.83093104e-002 -1.61020920e-001 -1.44226685e-001 2.10146368e-001
      -2.49375656e-001 -2.77329624e-001 -6.60406202e-002
      -2.10448448e-002 -3.31234574e-001 4.62098181e-001 1.15581468e-001
      -3.82793359e-002 2.72666782e-001 -5.01716509e-002 -4.38912734e-002
      1.84454277e-001 -3.66113394e-001 -4.63658497e-002 -1.59971602e-002
      9.25931260e-002 1.15836039e-001 2.84251481e-001 -2.15836436e-001
      -2.74508864e-001 -8.13492313e-002 -1.73093215e-001 2.52534002e-002
      6.11466765e-002 2.31902346e-001 -3.54422957e-001 1.34034902e-001
      -2.34491363e-001 -1.51937958e-002 1.17543414e-001 -3.82249467e-002
      8.33728462e-002 2.99198870e-002 1.91306636e-001 1.98237240e-001
      1.01514108e-001 -1.96163505e-001 1.61284491e-001 4.73370701e-002
      1.36344312e-002 9.19720754e-002 8.97150338e-002 -5.17492108e-002
      -6.18079230e-002 -3.00961435e-001 2.87106544e-001 1.33948058e-001
      1.96160570e-001 3.04652572e-001 1.37993738e-001 3.36940922e-002
      -2.83894658e-001 2.37880591e-002 3.82468500e-003 4.85559031e-002
      -9.94411334e-002 8.99318755e-002 2.23905593e-002 -2.56527036e-001
      -1.19046690e-002 -1.62088141e-001 -1.46537200e-001
      -1.17462859e-001 1.14143416e-001 -1.16949737e-001 2.66739070e-001
      2.73297787e-001 4.49441522e-002 4.77118827e-002 1.67917117e-001
      -3.38707678e-002 1.98451489e-001 -1.90459669e-001 -2.83075180e-002
      1.90324351e-001 1.91828594e-001 -3.39071602e-002 1.75282940e-001
      -4.90250699e-002 -5.65572046e-002 2.82585993e-002 1.32423982e-001
      4.21567596e-002 -2.79367387e-001 1.60378754e-001 8.36697072e-002
      -2.00870827e-001 -3.56355198e-002 5.13924696e-002 2.79661745e-001
      -2.21885741e-002 -2.00802147e-001 -2.35492274e-001 5.04958071e-002
      -6.51602522e-002 -2.08559901e-001 4.46831528e-003 7.36946911e-002
      -1.23059571e-001 -1.37935475e-001 -2.96529144e-001
      -1.65792748e-001 -9.40739140e-002 -3.02427173e-001
      -8.16842169e-002 4.63417135e-002 2.97648937e-001 2.75266916e-002
      1.53392628e-001 -2.40322769e-001 2.19526831e-002 3.90274003e-002
      -3.49848390e-001 -8.68167542e-003 2.13054240e-001 1.16741493e-001
      2.89763846e-002 -2.35978708e-001 -1.12513885e-001 -1.30926624e-001
      5.89698665e-002 -4.89339903e-002 -8.13743323e-002 -1.70400232e-001
      1.55046642e-001 1.22442720e-002 -7.45235384e-002 1.71498388e-001
      -1.39674485e-001 -1.20995060e-001 -1.46599025e-001
      -1.05337620e-001 -6.56859130e-002 3.50691855e-001 -3.53321172e-002
      1.33003607e-001 1.17497653e-001 5.53279161e-001 2.50960141e-002
      3.76725867e-002 8.22387189e-002 2.73124874e-002 2.18134716e-001
      -6.04708865e-002 -1.44059330e-001 -5.15309572e-002 1.58822507e-001
      1.48130199e-002 3.13118070e-001 1.29837856e-001 -1.64951861e-001
      1.65961161e-001 -8.01718421e-003 1.15328096e-001 2.65069660e-002
      -3.10192019e-001 -1.15295775e-001 -7.13855699e-002
      -8.81032497e-002 -2.52415448e-001 -3.80551636e-001
      -1.19011644e-002 -1.27892792e-001 1.93116814e-001 -7.16743320e-002
      2.25811303e-002 2.77765095e-001 -1.71620324e-001 -1.14126829e-002
      7.47209927e-003 -7.74223432e-002 -4.08773497e-002 3.06124687e-001
      1.82318479e-001 -2.47708902e-001 1.01249866e-001 -2.35913545e-002
      2.09064290e-001 5.19371815e-002 5.43960094e-001 -2.24269256e-001
      -1.57372743e-001 9.68153179e-002 3.24642390e-001 9.81738046e-002
      -2.05773730e-002 1.64462492e-001 7.74814636e-002 -1.83901906e-001
      -1.08587503e-001 -6.59403875e-002 6.65972009e-002 3.18563908e-001
      7.85433725e-002 -1.99934915e-002 -1.16595291e-001 1.61543205e-001
      2.04772111e-002 -2.68865854e-001 -6.84845597e-002 5.92231825e-002
      -8.53031203e-002 5.96543290e-002 -3.13822836e-001 6.33199811e-002
      7.79786035e-002 -4.32880074e-001 -3.30100000e-001 2.83174254e-002
      -7.69613534e-002 -1.89057016e-003 4.28510219e-001 1.40683772e-002
      -3.91087145e-001 1.34527430e-001 -1.39680341e-001 3.83734524e-001
      -3.81257355e-001 2.08108485e-001 -1.55988365e-001 -5.01132347e-002
      1.51984558e-001 1.74977005e-001 2.32035443e-002 -8.29432532e-003
      -7.42947981e-002 1.16220610e-002 -9.70419198e-002 -6.30345285e-001
      -2.67670929e-001 5.04322990e-004 -5.70032820e-002 3.70778233e-001
      -2.68161029e-001 -9.17968079e-002 1.09450780e-001 1.95263907e-001
      3.81885618e-002 1.50211370e-002 1.83525547e-001 1.73934344e-002
      -1.28413796e-001 2.20198974e-001 3.05142939e-001 3.40432003e-002
      2.02401057e-002 6.28998652e-002 3.25367115e-002 -2.26548929e-002
      -1.04739867e-001 -2.42117360e-001 -5.45640104e-002
      -1.85759723e-001 3.22286546e-001 -5.32798879e-002 -1.07320286e-001
      -1.90066278e-001 -2.30030358e-001 1.43452734e-001 -1.78017080e-001
      -8.62237588e-002 -2.61626005e-001 1.59436196e-001 1.33949831e-001
      2.92213589e-001 -4.53757644e-001 -1.64330393e-001 1.64792851e-001
      -1.36221349e-001 -3.87625620e-002 2.13027090e-001 1.61546379e-001
      1.48539037e-001 -3.20768617e-002 -1.10534303e-001 5.66878796e-001
      -2.53813893e-001 -3.18332911e-001 -1.51631519e-001 1.17554694e-001
      5.48656344e-001 3.53271440e-002 3.64049673e-002 -1.78150892e-001
      1.45930931e-001 -2.41137967e-001 -2.52787590e-001 4.05350178e-001
      -3.84081900e-002 1.87055603e-001 -1.94915995e-001 -1.42400995e-001
      -5.98922707e-002 -3.32853943e-002 5.31262279e-001 5.48800111e-001
      1.28449753e-001 -1.22800358e-001 -1.68130264e-001 -4.18078899e-003
      1.89026490e-001 2.60139227e-001 3.03851753e-001 7.45447539e-003
      -9.02491286e-002 -6.39356226e-002 1.72399372e-001 -1.64777517e-001
      1.09007187e-001 2.61145920e-001 -9.31842476e-002 5.83067015e-002
      5.67177758e-002 1.11431234e-001 -5.70084333e-001 -3.62175405e-001
      1.38798639e-001 5.76926358e-002 -1.33688867e-001 -3.18479121e-001
      1.09757250e-002 2.42729541e-002 -2.39895526e-002 6.87295049e-002
      -5.52003458e-002 -6.75011873e-002 -1.18427575e-001 2.02495784e-001
      -9.61812809e-002 -1.00007303e-001 -4.03430797e-002
      -2.21950248e-001 -2.45143577e-001 2.07949892e-001 -1.37678728e-001
      7.61508122e-002 -1.32554704e-002 5.40639535e-002 -3.59218381e-002
      5.28336763e-002 -3.11010659e-001 1.26686394e-001 5.30060604e-002
      -8.82701427e-002 -2.21449465e-001 5.13022780e-001 9.44065005e-002
      -5.91276251e-002 -6.20842688e-002 -3.83413553e-001
      -3.58930111e-001 1.18846580e-001 -1.06475428e-001 -2.18954638e-001
      2.40279734e-001 1.78337879e-002 -5.45732826e-002 -9.03693512e-002
      8.16960558e-002 2.71886587e-001 -1.87427131e-003 2.09661216e-001
      -4.90601324e-002 -3.89793485e-001 -1.42157506e-002
      -1.62963495e-001 -7.58737177e-002 -5.45664020e-002
      -1.17282301e-001 -3.39560091e-001 -6.83342889e-002 2.99971811e-002
      6.20923899e-002 -2.96178758e-001 -7.51474053e-002 -2.11517304e-001
      5.30613251e-002 1.11797072e-001 1.95763767e-001 1.31273955e-001
      -2.21706107e-001 3.06729883e-001 3.79354775e-001 -7.92585239e-002
      2.79753298e-001 3.61718774e-001 7.54026920e-002 -5.56623302e-002
      1.22103482e-001 -1.26704842e-001 3.52351344e-003 4.58267510e-001
      -5.51423430e-001 1.24437474e-001 -1.25455633e-001 7.25127757e-002
      -1.69694364e-001 1.37348071e-001 1.92298770e-001 8.96882638e-002
      -2.01146722e-001 -1.86934650e-001 -3.03076357e-001 2.63443999e-002
      -1.10800430e-001 -2.89594769e-001 -2.10273609e-001 1.05011337e-001
      4.51649874e-002 8.75968263e-002 -1.11737199e-001 -9.54735652e-002
      -2.56311983e-001 -2.89807230e-001 1.58501357e-001 -6.99917078e-002
      6.87117428e-002 1.62479103e-001 -5.24439931e-001 9.61503386e-003
      -4.98472750e-002 1.88451901e-001 2.45126873e-001 4.85766232e-002
      2.80077487e-001 1.35441527e-001 5.47850095e-002 -2.50944227e-001
      1.56491891e-001 -1.60506589e-003 7.07794577e-002 1.08445510e-001
      7.99590051e-002 -7.87984505e-002 1.71711117e-001 4.48782742e-001
      1.37510195e-001 3.50281671e-002 2.67479539e-001 -6.95038512e-002
      2.25427657e-001 2.06687655e-002 4.88547748e-003 1.69965953e-001
      9.50317830e-002 -5.23293540e-002 -2.45042115e-001 -1.14749484e-001
      1.69211134e-001 -3.45665440e-002 1.02608893e-002 -2.13058546e-001
      -1.66028455e-001 -6.36632890e-002 3.52009782e-003 -3.60530168e-002
      -1.35537505e-001 6.72266111e-002 2.45633423e-001 -3.54475707e-001
      -3.96497279e-001 1.91984832e-001 -6.32764176e-002 1.48340747e-001
      1.02965400e-001 1.63324967e-001 -1.05045684e-001 1.67025030e-002
      -1.73931196e-001 4.14543390e-001 3.51141512e-001 3.47443260e-002
      1.75565630e-001 1.65438354e-001 2.79395938e-001 2.12681517e-002
      -3.77854228e-001 2.10231602e-001 -4.14547950e-001 -2.87518390e-002
      3.97170633e-002 -9.37154517e-002 -2.07713455e-001 3.17978084e-001
      -1.54254973e-001 4.65833135e-002 1.16709262e-001 -1.44204693e-002
      -1.92245141e-001 -2.52695829e-001 -1.56795710e-001
      -6.21820576e-002 -2.07313057e-003 2.36873060e-001 2.10602716e-001
      1.08549029e-001 1.96983576e-001 -1.00649729e-001 -2.10108921e-001
      -4.61432226e-002 8.53660181e-002 4.99354377e-002 2.37966880e-001
      9.63829607e-002 -1.28146395e-001 -8.88852999e-002 1.81885853e-001
      -2.89070815e-001 -2.24525988e-001 -1.83665231e-001
      -1.32037908e-001 1.37385324e-001 7.82076791e-002 -5.23988344e-002
      2.10566521e-001 5.05350456e-002 9.64744091e-002 -2.97554582e-002
      3.26117426e-001 -1.08964041e-001 -1.21126110e-002 2.49972448e-001
      -2.48688579e-001 -3.37870605e-002 -1.25617757e-001
      -5.26739657e-002 -1.09586129e-002 2.07634404e-001 3.46019775e-001
      3.83699000e-001 3.39025706e-002 8.08680952e-002 -1.76669911e-001
      1.50456816e-001 -2.88038462e-001 1.58258110e-001 -1.85345873e-001
      3.16216871e-002 3.58692378e-001 -3.79530400e-001 -7.79521316e-002
      4.47213501e-001 1.74774766e-001 -2.38350257e-001 5.87994047e-002
      8.73306319e-002 1.20140329e-001 -3.96610349e-002 -4.24033701e-002
      -1.72361329e-001 -2.17726469e-001 6.92750290e-002 -1.41432926e-001
      1.56039596e-001 -5.56891710e-002 -1.59199357e-001 -4.33682688e-002
      -1.67014882e-001 -2.81304419e-001 1.19557999e-001 2.06691980e-001
      -4.30885255e-002 -8.28666836e-002 -2.96735138e-001 2.78080434e-001
      -3.14390540e-001 -3.37882280e-001 -1.70542806e-001 2.85975069e-001
      9.44519192e-002 -4.34238613e-002 4.18117106e-001 1.25953346e-001
      -9.84838530e-002 -5.16178384e-002 -6.68350141e-003 3.63375962e-001
      -8.67068395e-002 -1.11477025e-001 2.42147207e-001 3.89211833e-001
      2.90757656e-001 -2.17905000e-001 -3.24433818e-002 1.35198936e-001
      3.32913063e-002 2.01800674e-001 2.83712566e-001 -1.64057136e-001
      2.72972025e-002 -1.65887341e-001 -8.15259516e-002 -2.37327039e-001
      1.83338206e-002 -1.90482885e-001 -1.91690609e-001 6.65662363e-002
      1.07587045e-002 -1.19954348e-001 2.13094845e-001 4.24379051e-001
      3.59301835e-001 -2.29409173e-001 1.25280157e-001 1.67839646e-001
      -1.06404208e-001 9.00678709e-002 -5.28668948e-002 -1.98065937e-001
      -2.88923055e-001 -1.70509279e-001 -1.27521977e-001 7.94475526e-002
      -6.58781171e-001 -1.47980228e-002 1.23729914e-001 -4.07174945e-001
      4.77276370e-002 1.91095546e-001 -6.47732988e-004 -1.96216675e-003
      -1.83753297e-001 -8.23515505e-002 2.23475657e-002 -1.27774984e-001
      -6.64203539e-002 -1.50155663e-001 1.62726380e-002 3.38706583e-001
      -2.06842467e-001 7.01441020e-002 -5.59471361e-002 2.40624532e-001
      -8.35963637e-002 2.31240019e-001 -9.06096622e-002 6.99262321e-002
      1.23140691e-002 -2.97195554e-001 2.63828486e-002 -2.72338092e-001
      1.12865709e-001 -6.67016655e-002 -1.48323849e-001 -1.40650690e-001
      1.25498220e-001 1.36142969e-001 2.04044953e-001 1.77193098e-002
      4.45605487e-001 3.78478050e-001 1.33191481e-001 -2.02573746e-001
      -1.81277975e-001 -2.89475117e-002 1.03020407e-001 -1.21007934e-001
      1.98509976e-001 1.49941608e-001 1.19683720e-001 -8.86091515e-002
      6.51417077e-002 3.27080935e-001 1.06325001e-001 6.80635497e-002
      -1.71183363e-001 -2.88451225e-001 -2.90213346e-001 3.32909524e-001
      8.04853365e-002 -2.27632746e-001 -2.91277945e-001 -1.42346770e-001
      3.80691215e-002 -1.07767954e-001 -5.42444028e-002 -8.10896233e-002
      1.61905475e-002 2.13603854e-001 -1.24666862e-001 -1.78003266e-001
      -9.23323035e-002 -4.25116211e-001 1.25741392e-001 -1.28457561e-001
      3.96757387e-002 7.40766674e-002 6.42805547e-002 2.32076775e-002
      -9.86085460e-002 8.92033577e-002 1.52536284e-003 -1.40432298e-001
      -1.54539064e-001 -2.95425672e-002 7.02222511e-002 -1.32862404e-001
      -1.22906990e-001 -2.28941999e-002 6.77590966e-002 -8.23379606e-002
      -1.13899976e-001 9.63730514e-002 2.27746949e-001 -1.73206031e-001
      -5.70081621e-002 4.39202823e-002 2.24748284e-001 -4.10356112e-002
      2.28061885e-001 1.36542827e-001 -1.38330758e-001 -2.00074427e-002
      5.40305162e-003 1.47034064e-001 2.94109315e-001 3.30136046e-002
      -1.27719522e-001 3.17258351e-002 2.74677873e-001 8.14623572e-003
      -2.12821394e-001 2.02089712e-001 1.85521767e-001 -2.34102961e-002
      4.72815454e-001 1.69009849e-001 9.30226818e-002 1.20902434e-001
      -3.65364611e-001 -7.30499998e-002 -7.88881183e-002
      -3.36217493e-001 7.26219937e-002 -1.58879071e-001 -6.19103238e-002
      -2.56001623e-003 -8.49159881e-002 -4.43666875e-002
      -1.71889901e-001 1.72198802e-001 1.16116107e-001 1.62770599e-001
      2.66122688e-002 1.49158716e-001 -8.73812884e-002 7.54136145e-002
      9.31828395e-002 1.33251660e-002 -1.28070295e-001 1.37791693e-001
      2.90527605e-002 -5.76968454e-002 1.25474036e-001 6.99239299e-002
      -4.10263650e-002 -2.34940156e-001 2.14966014e-002 1.11009240e-001
      -8.72222986e-003 2.10223928e-001 7.41516948e-002 -1.29203260e-001
      9.17664245e-002 -1.08966352e-002 5.74572206e-001 4.86355312e-002
      -8.44963416e-002 -1.73106790e-002 -1.35030195e-001
      -1.13553278e-001 -1.28696978e-001 2.99144574e-002 1.65519953e-001
      -2.82926649e-001 1.69289529e-001 -3.24745886e-002 -6.91231787e-002
      6.19904883e-002 1.30255334e-002 1.44036427e-001 -2.41189420e-001
      -1.66481912e-001 -4.41229701e-001 2.57304877e-001 -1.54922232e-001
      -6.86857998e-002 -6.08051345e-002 -1.61939234e-001
      -1.47018433e-002 2.54839007e-002 -5.10645472e-002 -9.75721925e-002
      1.16799839e-001 -1.05003896e-003 -9.03774947e-002 -1.62150860e-001
      -1.25217121e-002 1.00354590e-001 2.55540490e-001 -2.03747362e-001
      -1.11255482e-001 -1.64218664e-001 -3.91885228e-002
      -1.38970181e-001 6.65043341e-003 -8.94460678e-002 -1.59428433e-001
      2.52823681e-001 -2.78071407e-002 1.18178897e-001 -1.45049468e-001
      2.57850856e-001 1.11860789e-001 -1.43238455e-001 -2.34817067e-004
      -1.51098654e-001 -3.57606024e-001 7.62549043e-002 -2.82317447e-003
      2.02686802e-001 5.56459613e-002 -4.42855917e-002 6.00719005e-002
      -1.43986553e-001 -3.13948244e-002 -1.48459658e-001 1.02962054e-001
      5.16317412e-002 1.82602152e-001 2.24208459e-001 -1.03224903e-001
      -1.22261927e-001 -1.69842720e-001 7.21017271e-002 1.36158764e-001
      -9.75051820e-002 2.00211704e-002 -2.55765051e-001 -5.78759052e-002
      -1.93861514e-001 -1.09505527e-001 3.47811073e-001 2.70370096e-001
      1.64060101e-001 -8.41491222e-002 3.62154208e-002 -1.27702773e-001
      5.55857085e-002 6.34323359e-002 -1.74894929e-001 -4.03999209e-001
      -1.43100554e-002 -2.74423845e-002 1.18197287e-002 8.07680488e-001
      -2.20294580e-001 6.28986731e-002 1.43172920e-001 1.94439322e-001
      -1.56866871e-002 3.54133733e-002 1.19950019e-001 -3.65351886e-002
      2.53976770e-002 -6.91285580e-002 -2.52282470e-001 -5.39957993e-002
      4.13033413e-003 -6.12364672e-002 7.66924918e-002 -5.94542325e-002
      -9.79206897e-003 1.06150217e-001 -1.10779211e-001 -4.76787277e-002
      2.42386714e-001 -1.06395617e-001 1.02589473e-001 -8.03501979e-002
      -9.60313678e-002 -2.01881900e-001 -1.05715379e-001 8.79236311e-002
      3.32567245e-002 -8.76054764e-002 -1.35094672e-001 -2.29021102e-001
      2.60612071e-001 3.97526205e-001 -1.19356923e-001 -8.43868926e-002
      1.62070841e-001 2.25283820e-002 7.27358162e-002 -2.17463508e-001
      7.25991353e-002 8.25920776e-002 2.88998604e-001 1.91173136e-001
      1.75944462e-001 5.43992594e-002 -6.57914951e-002 -2.84011513e-001
      -3.83451104e-001 5.00124954e-002 -2.00837590e-002 1.85017154e-001
      -4.31359820e-002 -4.12772506e-001 -7.10919825e-003 2.73767382e-001
      1.91664234e-001 -9.95203480e-002 -6.74702406e-001 1.20429888e-001
      1.56767279e-001 4.45311237e-003 -1.19032808e-001 -5.26989140e-002
      3.41183245e-002 5.82101047e-002 1.21649101e-001 -1.38730377e-001
      1.17752157e-001 -2.74394453e-001 1.66835058e-002 -1.52929887e-001
      -5.42116389e-002 -1.11109614e-001 7.75105357e-002 -5.59015982e-002
      -9.05193016e-002 2.68494695e-001 -2.83918530e-002 -3.04324366e-002
      -2.16766506e-001 2.10684761e-001 6.73677549e-002 -4.74090353e-002
      -4.78328496e-001 2.22466469e-001 9.80058238e-002 1.09962886e-002
      -9.59401950e-002 3.38855237e-002 5.50738946e-002 2.07307294e-001
      -5.13904244e-002 -2.23796353e-001 -1.51728258e-001
      -1.58896819e-002 6.84626326e-002 -1.88181758e-001 1.50882065e-001
      -3.23448293e-002 3.97900753e-002 8.15166309e-002 5.35073876e-002
      -1.27394512e-001 -6.38262630e-002 -9.73143876e-002
      -3.56303975e-002 1.05804548e-001 -2.10772827e-001 4.48544294e-001
      9.21591744e-002 2.27099910e-001 4.60879765e-002 2.10523993e-001
      -6.88937381e-002 4.82427806e-001 -3.21273267e-001 2.60277521e-002
      -1.93257362e-001 -2.16116197e-002 -1.95454359e-001 1.08330220e-001
      2.29288459e-001 1.19982064e-001 -1.88339397e-001 -1.23724319e-001
      -2.63122380e-001 1.42711535e-001 3.20717722e-001 3.09799463e-001
      1.98105320e-001 -1.76396370e-001 -3.32335779e-003 1.19407572e-001
      4.61044237e-002 6.31004930e-001 3.79948586e-001 1.51889890e-001
      -1.84843555e-001 -1.42924249e-001 1.81046617e-003 4.75594848e-001
      1.34209305e-001 3.05752724e-001 -2.60208119e-002 -2.27374330e-001
      -5.93822598e-002 -1.39086112e-001 -1.56485870e-001 1.12591155e-001
      8.17439184e-002 -2.33296409e-001 -2.30044454e-001 -1.92197338e-001
      2.03945979e-001 -1.51285201e-001 5.24764173e-002 -2.73296218e-002
      4.00111042e-002 -6.12801500e-002 1.30687863e-001 -6.68279678e-002
      -2.02812716e-001 -1.43068060e-001 -1.71567798e-001
      -1.65122747e-001 -1.71954572e-001 1.73882302e-002 3.26633416e-002
      4.20263559e-002 3.50595266e-001 -3.58080685e-001 -4.00289893e-001
      2.32962504e-001 -4.98368107e-002 6.19588941e-002 -8.50104317e-002
      1.55603308e-002 -1.64706707e-001 -3.95524725e-002 1.97978765e-001
      2.37528145e-001 -5.70926629e-002 1.27110615e-001 -7.22790509e-002
      -1.30682960e-001 2.57974237e-001 -1.37957931e-001 1.45087525e-001
      3.59512568e-002 1.06145844e-001 -1.04922354e-001 -2.95556366e-001
      2.12244287e-001 -1.46079659e-001 -1.83699504e-002 -1.95538431e-001
      -1.47794738e-001 -3.65446776e-001 -1.18044898e-001
      -5.10239244e-001 7.07679912e-002 -1.72927275e-001 -1.66248217e-001
      2.78240293e-002 3.31368037e-002 2.43831314e-002 2.68924773e-001
      -7.97662213e-002 -2.49827206e-001 2.34265938e-001 8.02759826e-002
      1.68550581e-001 -2.99180113e-002 2.63545454e-001 5.66256866e-002
      1.01403631e-001 3.75903361e-002 3.04522306e-001 -3.96198146e-002
      -1.20525517e-001 7.11074397e-002 -2.46878862e-001 3.11340243e-001
      6.09085150e-002 1.68258175e-001 2.00184301e-001 1.38227671e-001
      1.25399485e-001 -1.24963582e-001 -3.18083405e-001 4.30873148e-002
      1.60823092e-001 -2.59558678e-001 1.28831878e-001 -8.26875493e-003
      4.78931107e-002 -4.75622248e-003 1.45118702e-002 -2.26082027e-001
      2.19362065e-001 -2.06403226e-001 2.02110291e-001 -5.38167320e-002
      9.68601704e-002 -1.77988231e-001 -1.06527396e-002 -3.10347795e-001
      -1.99738726e-001 5.39192967e-002 1.19982228e-001 -5.05174100e-001
      3.48105758e-001 6.78847581e-002 1.09607548e-001 5.33140339e-002
      -4.33628887e-001 2.93766428e-003 -2.03897536e-001 4.74677049e-002
      -1.36927158e-001 -4.13845340e-003 -9.35313404e-002
      -5.90173192e-002 -3.22158456e-001 2.88393736e-001 1.13179892e-001
      3.04165125e-001 1.31326616e-001 1.69264078e-001 1.19407356e-001
      5.94049618e-002 2.38801077e-001 -1.57049745e-001 -4.76472080e-001
      -1.67612538e-001 4.26664203e-001 1.46032080e-001 -5.92167750e-002
      -1.75762270e-002 -9.31280181e-002 7.27545284e-003 1.10253014e-001
      2.60740936e-001 7.44299889e-002 -9.73634124e-002 1.65241688e-001
      -2.13183537e-001 -1.25118479e-001 3.34615439e-001 -4.45207536e-001
      -8.99306163e-002 9.59105045e-002 -6.29810914e-002 -1.00932695e-001
      3.49599458e-002 2.15086043e-001 7.70046264e-002 1.27761438e-001
      -3.03292051e-002 -1.03648528e-002 -1.11584365e-001 7.57894218e-002
      3.94973069e-001 9.33728069e-002 9.83773023e-002 6.94544315e-002
      4.78785038e-002 -6.50276542e-002 1.57805189e-001 2.17944995e-001
      2.34389515e-003 -2.38273144e-001 5.89249954e-002 3.65235582e-002
      1.46785183e-002 -4.76639897e-001 -3.51473652e-002 3.20483893e-002
      -1.75880238e-001 -7.09923580e-002 -2.45128036e-001 1.46665305e-001
      3.61916900e-001 1.32412314e-002 -2.78110087e-001 -3.90452743e-002
      3.21434550e-002 1.92851111e-001 -9.84018892e-002 7.86486194e-002
      6.35203794e-002 -2.57025570e-001 1.16071381e-001 4.27820653e-001
      1.63716838e-001 3.84140573e-002 1.35044083e-001 6.15761466e-002
      1.01736076e-001 -3.32221478e-001 -9.47957188e-002 -3.82091738e-002
      -3.49086195e-001 2.75130030e-002 1.27274156e-001 -1.20401509e-001
      -1.73274800e-001 -3.04222763e-001 -1.43969446e-001 3.83973792e-002
      7.40485266e-002 1.71651289e-001 -2.44995162e-001 2.60805618e-002
      2.59810448e-001 -9.71217975e-002 5.84770180e-002 -2.06032947e-001
      1.29969552e-001 -7.85341859e-002 7.13053793e-002 2.54983068e-001
      -2.39112571e-001 -9.06701535e-002 -4.36891206e-002
      -1.56729624e-001 1.42596841e-001 6.82117492e-002 1.63330987e-001
      -2.82958727e-002 -3.95227186e-002 2.27330588e-002 -2.58596152e-001
      -2.83586234e-001 1.16987623e-001 -2.12749749e-001 1.64694395e-002
      -5.14998175e-002 -8.98334160e-002 4.75649118e-001 1.02747872e-001
      1.28368378e-001 1.34041563e-001 -1.27289400e-001 -1.64142817e-001
      1.01439610e-001 3.03348482e-001 1.52151361e-001 2.90000457e-002
      3.73273552e-003 -2.21960247e-002 3.00105155e-001 1.16638154e-001
      -3.62628520e-001 2.84632325e-001 1.08708076e-001 -1.99082285e-001
      7.44005963e-002 3.02782226e-002 -9.30242538e-002 4.48103212e-002
      -1.81199521e-001 -5.19895516e-002 -5.62096480e-003
      -2.28769511e-001 -1.20213814e-001 -9.74567011e-002
      -3.91561575e-002 2.19945595e-001 -1.79087594e-002 -9.99455228e-002
      2.11309820e-001 -8.16281065e-002 -7.44788721e-002 9.69808847e-002
      -1.16789155e-001 7.38648400e-002 6.55155675e-003 6.95414245e-002
      4.92402678e-003 -4.03138846e-001 5.67865483e-002 5.18881530e-002
      -3.29016149e-002 -1.10266367e-002 4.90903631e-002 8.27526972e-002
      -1.93077311e-001 -8.53159949e-002 1.18471816e-001 8.85579456e-003
      -2.25997031e-001 -1.89521521e-001 -5.56070991e-002
      -9.77598801e-002 -8.86871517e-002 -1.79029122e-001 2.38111451e-001
      1.41302288e-001 7.19199656e-003 3.17506164e-001 -1.13414340e-001
      -4.47039522e-004 -3.80854458e-001 -1.11828752e-001 4.78125885e-002
      8.61193091e-002 2.21245617e-001 9.60336551e-002 -4.54967003e-003
      -8.90140831e-002 4.64445055e-002 4.29916710e-001 -1.23928867e-001
      -1.82764545e-001 -1.16748035e-001 3.00619513e-001 2.08651528e-001
      -2.76929945e-001 1.67190909e-001 2.87452321e-002 -1.44796476e-001
      3.67060244e-001 2.90532053e-001 2.81574912e-002 -9.02149230e-002
      5.02877645e-002 1.58544540e-001 -2.96867397e-002 2.84220666e-001
      -1.62606299e-001 2.05910444e-001 -2.38111213e-001 1.29626259e-001
      -4.26458120e-002 -9.98997986e-002 2.65506327e-001 1.08988926e-001
      3.55174422e-001 -1.48139581e-001 1.55524075e-001 -8.52066278e-002
      -8.04332197e-002 6.26934096e-002 3.25434320e-002 -8.01043436e-002
      -8.52004513e-002 -1.36319682e-001 -4.29688513e-001
      -4.27355200e-001 1.31556943e-001 1.20930590e-001 -1.47083756e-002
      3.99153046e-002 -2.32752815e-001 1.28081426e-001 3.42678964e-001
      -1.13227278e-001 -1.14963330e-001 -3.98061574e-002 1.09790005e-001
      -2.95671225e-001 -1.38931140e-001 -3.21061499e-002 4.07323241e-002
      -1.18483245e-001 8.36775452e-002 6.90106079e-002 2.49815211e-002
      2.41994932e-001 7.12995231e-002 2.11805686e-001 -7.60635734e-002
      -9.31581557e-002 1.37781337e-001 -5.69135435e-002 -1.56249344e-001
      -1.66883990e-001 -1.25131339e-001 6.47731572e-002 -3.60577144e-002
      -5.24308860e-001 -5.70736825e-001 -4.90887277e-002
      -1.07189037e-001 6.04643933e-002 1.61373559e-002 -1.17581457e-001
      -1.94641456e-001 1.55947745e-001 8.06727260e-002 3.89547408e-001
      -6.08172953e-001 7.36809671e-002 3.15212041e-001 3.68558854e-001
      1.07339611e-002 2.23969892e-002 -1.72604889e-001 2.16702223e-001
      5.82776129e-001 3.61806959e-001 3.68064672e-001 -1.33062050e-001
      1.24590859e-001 -1.33319989e-001 1.30423144e-001 -2.47993127e-001
      6.34358823e-002 3.28250192e-002 -5.19755073e-002 2.72502065e-001
      -8.57148021e-002 4.36498448e-002 6.00186735e-003 2.86579505e-002
      2.64428049e-001 -5.86262159e-002 2.42794231e-002 8.52350816e-002
      -1.06230073e-001 -1.79172441e-001 -1.18309200e-001 1.82004478e-002
      1.76188424e-001 9.69425738e-002 1.31110996e-001 -1.76821619e-001
      9.70839113e-002 1.89209860e-002 4.26881127e-002 -1.49055019e-001
      3.36151719e-001 -1.57610059e-001 -1.92924783e-001 -1.52718842e-001
      -3.13086152e-001 -1.25398770e-001 -2.89676100e-001
      -1.77743927e-001 1.42734900e-001 2.21185818e-001 -4.65317331e-002
      6.45672297e-003 4.15294580e-002 -6.31645918e-002 1.53568342e-001
      3.06259900e-001 -2.04711527e-001 -1.61135241e-001 -3.42057347e-001
      2.14516625e-001 1.61544949e-001 -5.40010456e-004 -1.90046370e-001
      -1.66943744e-001 -2.08404243e-001 -1.82231560e-001 2.48734519e-001
      7.17314929e-002 1.39499798e-001 -4.31814075e-001 -6.12331834e-003
      -9.71191621e-004 -6.85486421e-002 -4.70663428e-001 8.76718685e-002
      2.04497859e-001 1.19168006e-001 -1.59923472e-002 -1.17666595e-001
      1.40738457e-001 1.59377977e-001 -9.81296524e-002 -3.72185819e-002
      5.13074454e-004 3.23791593e-001 3.48273695e-001 -1.64659604e-001
      -9.53088626e-002 3.69097173e-001 5.23637086e-002 3.77346459e-003
      -9.10307691e-002 -1.08450145e-001 -1.39175877e-001
      -1.26331404e-001 -1.02167524e-001 2.51165956e-001 2.37925649e-001
      2.57340074e-001 -1.66059047e-001 -3.48771840e-001 -2.69930005e-001
      -7.92756826e-002 -1.23797462e-003 4.19575572e-001 -4.25710618e-001
      -8.65463316e-002 5.97932301e-002 4.10512350e-002 1.29160419e-001
      2.98664808e-001 -2.03547962e-002 1.26486927e-001 2.96984375e-001
      -1.69658169e-001 4.65042681e-001 -2.29175314e-001 1.69150725e-001
      -8.43506455e-002 -2.41150722e-001 2.16641240e-002 2.58390252e-002
      -7.78806955e-002 -9.00294855e-002 1.22927845e-001 2.35677153e-001
      9.38777402e-002 -3.77271444e-001 1.96934402e-001 -1.48102576e-002
      2.87972987e-001 -8.80133733e-002 1.08318515e-001 -1.85124427e-002
      9.39630568e-002 -7.19833076e-002 -5.45915902e-001 2.90015638e-001
      1.44059256e-001 1.00517616e-001 -4.00733650e-001 6.83665797e-002
      -2.09853053e-001 -2.44410336e-001 -4.41996902e-001 4.91679572e-002
      -1.16224810e-001 -4.21881750e-002 1.01845860e-001 8.59008878e-002
      -1.53998762e-001 1.32922962e-001 -1.61288846e-002 1.85108632e-001
      1.30538613e-001 -2.18124166e-001 1.82680294e-001 1.20659973e-002
      2.82468479e-002 7.56185576e-002 -7.96113834e-002 -8.08451548e-002
      1.84913710e-001 -4.80548710e-001 1.43000158e-002 9.47463438e-002
      -5.55592366e-002 2.15313464e-001 -1.81945395e-002 1.11109257e-001
      8.74532387e-002 9.17227268e-002 -2.71138866e-002 -1.35165378e-001
      -2.11671501e-001 -5.33801056e-002 2.00982675e-001 -2.11498719e-002
      -9.98629108e-002 -9.45190564e-002 1.53069243e-001 8.05175602e-002
      1.36215195e-001 1.64098620e-001 -7.63171390e-002 -2.02786908e-001
      -1.93247333e-001 -3.67854536e-001 -3.33040565e-001 1.74835864e-002
      -1.18140891e-001 1.32459953e-001 -1.29478514e-001 6.96179420e-002
      3.86592336e-002 2.22232416e-001 2.40138531e-001 1.37392908e-001
      1.00265034e-001 3.48504037e-002 -2.06142142e-002 7.87576586e-002
      2.42171481e-001 -7.00734332e-002 1.35622874e-001 -2.40050882e-001
      2.29535773e-001 5.69804460e-002 9.88701880e-002 -8.93821418e-002
      6.39036819e-002 -3.52547094e-002 -6.51365668e-002 -1.57453373e-001
      5.32034747e-002 -3.59409787e-002 -1.19697355e-001 -1.93505988e-001
      1.06804073e-001 -1.53887391e-001 3.90549928e-001 6.93782493e-002
      -2.45151609e-001 1.31198198e-001 -1.94114726e-002 -2.38511816e-001
      -3.99527736e-002 -1.80629820e-001 -1.64507076e-001 1.93090755e-002
      -3.59726071e-001 -4.51714844e-001 6.47696555e-002 2.60063440e-001
      -9.90542620e-002 1.23759463e-001 -1.29073039e-001 -1.90698922e-001
      4.98209223e-002 1.13304161e-001 3.42204183e-001 1.53363854e-001
      -8.96729305e-002 -1.51051255e-002 4.86791432e-002 1.63697839e-001
      3.07762414e-001 1.20758630e-001 -7.06872321e-004 8.33173748e-003
      1.21965958e-002 1.90254301e-001 9.14062187e-002 4.36242372e-001
      -2.91842595e-002 1.83588490e-001 -6.30454421e-002 5.17322049e-002
      -1.97317615e-001 4.60852161e-002 -3.15318741e-002 2.51135707e-001
      3.77523899e-002 -7.23725781e-002 8.80306140e-002 7.25180097e-003
      4.28679585e-002 -1.61302626e-001 3.96222286e-002 -1.64249912e-001
      1.87048987e-002 -1.16296560e-001 -1.13883227e-001 2.28164151e-001
      -4.62746322e-001 8.54715109e-002 -4.95479405e-002 3.20947990e-002
      -1.33607790e-001 -2.14411110e-001 6.45253360e-002 -1.34445861e-001
      4.08468768e-002 -9.86566022e-002 -4.61089648e-002 -9.34549049e-002
      -1.30994260e-001 8.94127488e-002 -1.72599614e-001 1.43638086e-002
      2.62603492e-001 3.03336792e-003 2.01956511e-001 1.65394828e-001
      6.43873289e-002 6.28275573e-002 8.25848281e-002 -2.88114041e-001
      2.54276812e-001 1.87205210e-001 -7.41300285e-002 -9.96055230e-002
      -1.69487759e-001 -6.17712252e-002 -2.13531911e-001
      -3.98066156e-002 2.70010866e-002 -2.82116443e-001 1.04035425e-003
      -1.64161339e-001 9.86711308e-002 4.59884346e-001 2.83576474e-002
      -1.61691591e-001 1.38598442e-001 3.45291011e-002 1.71849132e-001
      -1.03974029e-001 -2.08764020e-002 3.54970507e-002 -1.96655199e-001
      -1.19837888e-001 -1.71164364e-001 1.12067506e-001 2.56402701e-001
      -1.46984115e-001 1.99041605e-001 1.09041892e-001 2.33123720e-001
      2.49200597e-001 2.68667758e-001 -6.59299046e-002 -1.75970554e-001
      -2.23942343e-002 -5.66937439e-002 -3.44506763e-002
      -3.56373817e-001 4.18924056e-002 -1.52410671e-001 -6.77340059e-003
      1.48763750e-002 -4.72313650e-002 1.06192254e-001 3.73246014e-001
      -4.68890294e-002 9.30551887e-002 -3.84026058e-002 1.79933142e-002
      1.84007138e-001 -5.94909713e-002 -1.13182507e-001 -1.42307624e-001
      -3.15534621e-001 2.92017199e-002 -1.42269418e-001 -3.75165492e-001
      -1.76988959e-001 1.87945694e-001 -2.57452518e-001 -4.14048016e-001
      1.36810645e-001 1.74265921e-001 8.92717391e-002 -2.44780689e-001
      -3.28111649e-002 -1.31383419e-001 9.31314304e-002 -1.44270375e-001
      1.02355229e-002 2.11988136e-001 1.90471873e-001 8.63745064e-002
      -6.59516975e-002 1.53174579e-001 -6.68654665e-002 -4.42330718e-001
      -2.13915691e-001 1.60599053e-001 1.96462318e-001 -5.49184717e-002
      1.33569717e-001 -1.44690469e-001 -7.49510974e-002 1.06898524e-001
      1.63480490e-001 4.03447062e-001 -4.77266274e-002 4.17104028e-002
      1.79782167e-001 -1.47112235e-001 2.60630101e-002 -4.86617647e-002
      -1.72533765e-001 -8.72739851e-002 8.02177608e-001 -2.14908212e-001
      4.42884639e-002 -9.56495255e-002 2.22914834e-002 3.36528122e-001
      2.54589450e-002 3.38105857e-002 -1.08786449e-001 3.82198603e-004
      4.26881723e-002 2.77169105e-002 -1.42206758e-001 9.49945599e-002
      -7.97631815e-002 -1.24286056e-001 2.21376657e-001 -1.74727082e-001
      -2.19935492e-001 -1.58105105e-001 3.41784745e-001 1.51221618e-001
      -6.41531348e-002 -1.04939584e-002 3.81789654e-002 -4.46681026e-003
      3.17609906e-002 -2.97589123e-001 -4.81487662e-002 -3.90022136e-002
      7.29361223e-003 1.09603465e-001 -2.92684317e-001 5.33895716e-002
      1.18748344e-001 6.52868375e-002 2.80228883e-001 -3.31878662e-002
      -1.90232590e-001 -3.37227821e-001 1.87098920e-001 5.74038550e-002
      -2.30245352e-001 6.63479324e-003 -9.53994633e-004 9.82238576e-002
      1.62015542e-001 3.52584980e-002 2.48830795e-001 2.71512985e-001
      1.44599736e-001 6.12746887e-002 1.69688761e-001 -3.64237130e-002
      -4.69902933e-001 1.38867468e-001 -2.05877740e-002 -2.18622819e-001
      -1.61521230e-002 -8.66489708e-002 4.20347899e-001 -6.85375743e-003
      1.07738055e-001 1.71616413e-002 1.73478007e-001 1.81329042e-001
      9.07905921e-002 2.20405936e-001 5.52616045e-002 3.08207870e-001
      -3.50426555e-001 -5.98181114e-002 2.16041103e-001 -3.18446398e-001
      -6.35304004e-002 3.29557769e-002 5.02812639e-002 1.23195030e-001
      5.15084743e-001 2.31433302e-001 2.71693528e-001 2.46613510e-002
      -2.36086816e-001 -1.27227738e-001 1.56057611e-001 2.47476354e-001
      -1.93020090e-001 2.75857598e-001 -1.43397093e-001 -1.69111952e-001
      -2.52119958e-001 9.39896777e-002 2.01845244e-001 1.12346165e-001
      1.60769105e-001 -7.24136531e-002 -3.09313267e-001 1.01768240e-001
      -2.33842596e-001 7.18513504e-002 -1.09998241e-001 -5.10922551e-001
      -2.15545282e-001 3.92647460e-002 -4.29247171e-002 -6.83387816e-002
      -7.76216209e-001 -4.24473792e-001 -1.11455224e-001
      -1.16468571e-001 4.74197417e-002 -1.17009923e-001 1.48183987e-001
      8.67588297e-002 9.88222286e-003 1.75467759e-001 1.46605060e-001
      -2.38267064e-001 -1.34020299e-001 2.69413162e-002 6.86650425e-002
      2.01924503e-001 2.20143110e-001 4.99396734e-002 1.70366660e-001
      1.06361970e-001 9.10722315e-002 -1.14336118e-001 -3.04632425e-001
      8.40985179e-002 9.37655270e-002 2.59419228e-003 1.05961211e-001
      -1.33810416e-001 8.46534595e-002 7.08340108e-002 1.45368427e-001
      -2.88604125e-002 -2.42590517e-001 6.22519739e-002 -3.74797545e-002
      -1.73081711e-001 -7.00395256e-002 -1.87623978e-001
      -1.15659237e-001 -6.29617348e-002 -1.36691323e-002
      -7.65115470e-002 -3.67914826e-001 1.42244026e-001 1.64685458e-001
      -1.06815815e-001 1.17656074e-001 -7.76451752e-002 7.61711895e-002
      4.75011230e-001 -9.10855904e-002 9.09343734e-002 1.33846596e-001
      -2.75894165e-001 -1.07178412e-001 8.69425759e-002 1.28045559e-001
      -2.41321221e-001 -7.71413445e-002 -1.65070012e-001 1.32485777e-001
      2.42589191e-001 -4.39437330e-002 2.33134881e-001 1.13451861e-001
      -1.96940848e-003 -8.83983523e-002 -6.84425533e-002
      -7.57759884e-002 -2.48421192e-001 -4.00591530e-002 1.41464233e-001
      7.56480396e-002 3.77762556e-001 3.68700266e-001 2.53536254e-001
      -2.27942485e-002 4.71697841e-003 -1.40291741e-002 1.43212900e-001
      -4.66192842e-001 1.00759797e-001 4.97308448e-002 2.35843867e-001
      8.07600021e-002 1.37872785e-001 -2.06848830e-002 -1.71565562e-001
      3.42530012e-001 2.03323215e-001 1.31282210e-001 -1.67093441e-001
      -2.22837348e-002 -4.98065650e-002 -8.34173262e-002
      -1.57678813e-001 1.03890918e-001 -7.97179714e-002 -1.88527048e-001
      -4.80966941e-002 -6.80568218e-002 8.95870570e-003 3.12019974e-001
      2.23131031e-002 1.62365168e-001 1.29999191e-001 -1.80645540e-001
      6.00095540e-002 -1.08542591e-001 -3.13417464e-002 3.40981334e-002
      -3.47153187e-001 -4.75930981e-002 -3.30678746e-002
      -5.22697419e-002 -2.63701588e-001 -6.23888187e-002
      -1.65325686e-001 1.76198065e-001 -9.40510705e-002 6.75531197e-003
      1.01314396e-001 2.75002837e-001 9.09640864e-002 -3.84047627e-003
      -2.96677470e-001 -5.96009135e-001 -7.32947707e-001
      -1.97324991e-001 -1.18606485e-001 1.12261079e-001 3.85094166e-001
      2.50757694e-001 1.50481358e-001 1.19756744e-003 2.82769680e-001
      7.76189864e-002 -5.96625954e-002 -1.28634796e-001 -2.20554844e-002
      1.20361790e-001 -3.69326144e-001 9.20810550e-002 -9.32522193e-002
      -7.21083060e-002 1.10730670e-001 3.00864518e-001 7.15847313e-002
      1.50250390e-001 -1.51816130e-001 -1.53832600e-001 -7.88396746e-002
      -2.91815609e-001 9.00346115e-002 9.27125365e-002 2.08197936e-001
      -1.89129800e-001 2.45555602e-002 2.01021314e-001 6.57474399e-001
      5.68879656e-002 1.30258232e-001 3.84943932e-001 -8.38496536e-002
      7.17928335e-002 -1.43442854e-001 3.40929538e-001 6.34093815e-003
      -7.36000687e-002 -2.17856005e-001 -2.60675400e-001
      -1.51316449e-001 -6.29070178e-002 -1.19178355e-001
      -2.53562838e-001 -1.57052744e-002 -1.49180535e-002 1.14448391e-001
      1.06241666e-001 1.88834831e-001 -1.99079528e-001 1.38724521e-001
      -5.87494299e-002 -3.28712791e-001 -2.76546448e-001
      -2.37999916e-001 7.95729309e-002 -1.62272766e-001 1.83024332e-001
      2.46141434e-001 1.18734911e-001 9.12333280e-002 -1.58551738e-001
      -1.56407744e-001 -9.34170559e-002 1.46752477e-001 -2.03192085e-001
      -8.20026845e-002 3.08300465e-001 1.28849864e-003 -1.81044638e-001
      5.66870421e-002 -2.87184790e-002 -3.75567265e-002 4.50943828e-001
      5.46301752e-002 1.72872528e-001 -2.96578109e-001 -1.79580659e-001
      5.52187003e-002 -1.07417837e-001 1.73835233e-002 4.46363837e-002
      -1.02116257e-001 -2.50765942e-002 -5.47589064e-002
      -8.67394060e-002 3.17454666e-001 2.42214173e-001 2.23237593e-002
      -2.97788680e-001 -8.02992508e-002 9.00029019e-002 2.45387130e-003
      4.57478613e-002 1.41020715e-001 1.81604281e-001 -3.55058283e-001
      3.42812657e-001 3.12586159e-001 -1.00299396e-001 -7.84812402e-003
      -2.41657734e-001 -1.64553106e-001 3.44425052e-001 -2.14273520e-002
      1.63029656e-001 -8.00946057e-002 -1.87156558e-001 3.94041985e-001
      -1.34138629e-001 -3.66661251e-001 -3.96723539e-001
      -3.58627737e-001 -2.14829370e-001 2.00789586e-001 -1.50074372e-002
      3.29936117e-001 9.13647339e-002 1.97675750e-001 -1.98111266e-001
      1.13210417e-001 -4.59420793e-002 3.61794621e-001 -1.75194908e-002
      1.87945858e-001 7.32267424e-002 2.69484639e-001 1.28751755e-001
      -1.10821739e-001 -1.03450529e-001 -2.15907007e-001 1.69059291e-001
      2.98950851e-001 5.72452918e-002 -2.69475043e-001 -6.77346513e-002
      -2.00122818e-001 -2.79691458e-001 -3.56221259e-001 2.16861784e-001
      9.99459326e-002 -2.61186272e-001 -1.97217524e-001 3.98993045e-002
      6.11562371e-001 2.60088921e-001 3.00027341e-001 -2.38952227e-002
      1.28265530e-001 -1.84406787e-001 -1.30427316e-001 -1.43856257e-001
      6.90813884e-002 9.47170332e-002 -1.60767749e-001 1.39558822e-001
      -4.92428653e-002 -7.86171108e-002 -1.58484384e-001 1.25795662e-001
      1.29822735e-002 -6.51557669e-002 -1.32951394e-001 -1.90832809e-001
      1.60310250e-002 -1.25913173e-001 6.59366846e-002 -6.04945682e-002
      -8.78166258e-002 -1.55462086e-001 8.75841379e-002 -2.39823479e-002
      -3.28635536e-002 -4.58654277e-002 -5.46549223e-002 1.87777713e-001
      5.30738831e-001 -5.77220954e-002 -5.45950942e-002 3.06145214e-002
      1.12217493e-001 1.25794543e-003 7.62272552e-002 -6.27484024e-002
      1.11442864e-001 -1.40909990e-002 -1.42829478e-001 -1.21473283e-001
      -4.34896678e-001 1.57407925e-001 2.29446799e-001 8.06376562e-002
      -3.51256549e-001 -1.37073128e-002 3.88026461e-002 -8.16833079e-002
      -3.22669178e-001 5.54583743e-002 -1.88794836e-001 -1.09676458e-001
      3.33726183e-002 -4.28873748e-002 1.38512626e-001 3.28823775e-001
      3.23416889e-002 2.90293723e-001 -1.09920561e-001 7.59998038e-002
      -1.90680668e-001 -2.26064518e-001 2.32161239e-001 -1.42508715e-001
      2.13287488e-001 1.58488341e-002 3.08322757e-001 -1.42863363e-001
      -2.75596455e-002 -2.30961829e-001 2.13825300e-001 7.73525164e-002
      3.12385522e-002 -8.97351354e-002 1.25490978e-001 6.60632476e-002
      -9.82793048e-002 -2.18644679e-001 -1.33851454e-001
      -1.15081996e-001 -9.34901759e-002 -7.84507096e-002 9.22511071e-002
      1.40336916e-001 5.07964566e-002 -5.47079705e-002 8.40118080e-002
      1.60189331e-001 8.20244402e-002 5.81836440e-002 7.30547532e-002
      1.58505797e-001 2.14044787e-002 1.94552377e-001 -2.06170604e-001
      -6.02004193e-002 -2.14664750e-002 -1.04312450e-002
      -6.41845092e-002 4.12043840e-001 2.35212907e-001 1.11203920e-002
      -8.64964202e-002 -1.80764064e-001 2.56952018e-001 -4.32816446e-001
      -1.68000549e-001 8.09125453e-002 -2.26897612e-001 4.17419858e-002
      -2.01534145e-002 -1.05200270e-002 -3.16957891e-001 7.47925118e-002
      -1.97879896e-002 2.95958109e-002 7.70265087e-002 6.11449741e-002
      1.31409660e-001 -7.09521323e-002 1.31530195e-001 5.24126925e-002
      -3.05849612e-001 -5.64943021e-003 2.15556622e-001 5.81682697e-002
      2.72423923e-001 -2.39958674e-001 -2.71824151e-001 -2.35776044e-002
      3.33985090e-002 -3.14761735e-002 -1.72746819e-004 -1.43019453e-001
      -5.36331944e-002 -1.88094571e-001 -1.46553323e-001 2.41503134e-001
      -3.93151671e-001 1.03320561e-001 -9.60330246e-004 -1.58454906e-002
      1.35955945e-001 1.29021987e-001 -1.95828974e-002 1.15599863e-001
      -1.59646928e-001 9.39047113e-002 1.40004158e-001 -1.09935977e-001
      5.80852740e-002 2.24427029e-001 -6.83250353e-002 2.76698649e-001
      -1.56859517e-001 3.86582837e-002 -2.11322680e-002 2.89529711e-001
      1.82933688e-001 9.94158387e-002 -3.25613588e-001 -9.16511118e-002
      -2.38071242e-003 2.47288033e-001 1.80594161e-001 -2.28193635e-003
      3.91197242e-002 -1.51441380e-001 7.14629143e-002 -3.01530272e-001
      -2.11993143e-001 7.76596069e-002 -2.02566847e-001 1.47345081e-001
      -2.30979264e-001 3.68666067e-003 1.72439262e-001 -2.55244493e-001
      6.45327121e-002 -1.92873076e-001 -5.49593270e-002 5.01007512e-002
      6.82813600e-002 7.55483732e-002 -1.66757368e-002 1.83551237e-001
      -8.98217484e-002 1.13727490e-003 -3.23878139e-001 2.61088014e-001
      1.01973832e-001 5.67644872e-002 -5.72767220e-002 8.06000382e-002
      -5.54863084e-003 -3.08573157e-001 -1.11372635e-001
      -1.54149637e-001 -1.80982560e-001 2.44418442e-001 2.67977387e-001
      -1.25274315e-001 2.21090525e-001 9.93665084e-002 1.20101787e-001
      -2.82647043e-001 -1.92018136e-001 9.59042052e-004 1.00168012e-001
      -9.23570171e-002 -2.97473371e-001 -1.78969666e-001
      -2.44193107e-001 9.96197090e-002 -7.11707026e-002 1.05455175e-001
      2.19721660e-001 1.16548270e-001 5.06804883e-002 -6.65201023e-002
      1.56472117e-001 6.54474199e-002 1.14905965e-002 -9.05493051e-002
      -1.75714508e-001 -2.42391914e-001 1.17693484e-001 -8.79254863e-002
      -1.13702781e-001 1.05241142e-001 -1.70862544e-002 5.83664253e-002
      7.78138116e-002 1.04081690e-001 2.26514906e-001 2.15285331e-001
      1.85197368e-001 -1.70280468e-002 3.93747129e-002 -2.10239276e-001
      -2.29405776e-001 2.14470834e-001 4.02485244e-002 2.31587499e-001
      -1.50518313e-001 2.21461430e-001 -3.09676498e-001 3.55431251e-002
      1.44213051e-001 1.58106759e-001 2.04718392e-002 -7.28748441e-002
      -8.31209347e-002 -2.77826935e-001 -4.25536662e-001
      -1.83938175e-001 -2.19479129e-001 1.15224257e-001 4.49177682e-001
      2.18527526e-001 8.60416293e-002 5.95818944e-002 1.92771647e-002
      -3.52900445e-001 -2.10028648e-001 -3.14980410e-002 3.51902544e-001
      1.39711514e-001 -3.22871923e-001 -4.98411298e-001 -4.60647196e-002
      -9.93551761e-002 -4.86924872e-002 2.55912840e-001 -7.71507528e-003
      7.87011087e-002 3.13518755e-002 -1.59177065e-001 -1.56610265e-001
      1.12416610e-001 -1.03261903e-001 1.59464121e-001 -8.84174854e-002
      5.20890392e-002 6.56730682e-002 1.50658786e-002 5.38357906e-003
      -2.57332288e-002 5.70482686e-002 9.30527076e-002 -1.23985887e-001
      -5.04704006e-002 3.00382078e-001 1.63734213e-001 -2.82631293e-002
      1.20571487e-001 -9.85505879e-002 2.38809258e-001 6.38691932e-002
      3.76557447e-002 1.09503902e-001 -3.25498462e-001 -6.88528568e-002
      1.78516030e-001 -1.10989116e-001 1.90187573e-001 -1.53421452e-002
      -8.55197161e-002 1.36570642e-002 -4.03819829e-001 -4.31681285e-003
      5.12810767e-001 -2.53456831e-001 -3.24212372e-001 -1.31789908e-001
      1.56678576e-002 6.03917688e-002 3.85646522e-002 1.13307156e-001
      1.28758013e-001 5.04005998e-002 -1.58083647e-001 1.00198507e-001
      -6.92593381e-002 3.44022922e-002 1.34207457e-001 -1.01069175e-001
      -5.17431796e-002 -3.39810103e-001 -1.23612955e-001
      -7.95655549e-002 4.16884348e-002 9.49933156e-002 1.35974688e-002
      3.75992134e-002 -3.76889706e-002 -9.10269916e-002 2.36420989e-001
      1.65377334e-001 -8.94521698e-002 -1.18732654e-001 -2.85555959e-001
      4.38524857e-002 5.45755439e-002 -7.36724362e-002 2.68304441e-002
      2.43768677e-001 2.05924913e-001 3.19787450e-002 -9.78562310e-002
      5.07353306e-001 -1.13793194e-001 -1.59662403e-002 7.17341155e-002
      -9.45143588e-003 1.60189122e-001 2.42474407e-001 3.05722374e-002
      -1.27637401e-001 -2.98391044e-001 1.89104915e-001 8.41601789e-002
      3.40683712e-003 2.08083838e-001 7.86915794e-002 1.93618014e-001
      1.01739377e-001 -3.49284530e-001 -2.44117603e-001 -1.58404082e-001
      -2.39202991e-001 -4.30677980e-001 -2.84683168e-001 1.32790804e-001
      1.58527359e-001 -1.03469767e-001 2.42902786e-001 1.29155964e-001
      3.06486338e-002 -8.26756004e-003 2.55028099e-001 -1.86037332e-001
      1.84643343e-001 1.31155968e-001 5.30362464e-002 4.20378774e-001
      -1.50619984e-001 -9.63564217e-002 -1.07598066e-001 1.75915107e-001
      6.69990182e-002 3.42489868e-001 -1.64896250e-001 -7.15024173e-002
      4.59258072e-002 -1.49143249e-001 9.97183248e-002 1.03729270e-001
      -1.68453187e-001 -1.74913332e-001 5.43066785e-002 -3.22032452e-001
      9.63985145e-001 2.20966101e-001 -8.71681497e-002 1.61660448e-001
      -2.86418479e-002 -3.48302349e-002 1.87740696e-003 4.24326330e-001
      2.41789855e-002 -5.80509938e-002 -1.75847784e-001 1.20590553e-001
      -1.04750521e-001 -9.57605317e-002 -3.25106174e-001 1.14536680e-001
      -2.43282348e-001 -2.75175005e-001 -2.65586436e-001 1.35715634e-001
      1.09505758e-001 -2.81834215e-001 6.42132908e-002 -1.74340203e-001
      -1.81089014e-001 2.04092842e-002 -1.56049639e-001 -2.27945611e-001
      9.18199867e-002 2.27815330e-001 2.48195603e-001 8.30426142e-002
      -5.55972308e-002 5.60859628e-002 9.83583704e-002 1.89626981e-002
      -1.95776209e-001 -2.14061782e-001 -1.05932936e-001 1.17851995e-001
      2.72921771e-001 3.53275202e-002 -9.64092240e-002 -2.83987541e-002
      -3.42913866e-001 1.02962755e-001 1.82651222e-001 1.49013055e-002
      -8.61035436e-002 -6.36430979e-002 1.46957338e-002 -1.71203732e-001
      -1.28065303e-001 -7.20040053e-002 1.83381308e-002 -1.37228006e-002
      1.91043124e-001 -4.33030911e-002 2.08163783e-001 8.66603106e-002
      2.87494417e-002 9.22879428e-002 -1.42007336e-001 6.20935746e-002
      1.83973730e-001 2.81038642e-001 1.13605477e-001 -2.58737467e-002
      -6.03706986e-002 1.27049014e-001 -9.10357535e-002 -6.09707125e-002
      -6.92028329e-002 -2.76026547e-001 1.33460999e-001 -4.05760594e-002
      -9.44513679e-002 2.67638475e-001 2.24112812e-002 -7.04940483e-002
      -1.60556920e-002 -6.99502528e-002 -4.09346998e-001 4.53858823e-002
      8.61963406e-002 -4.52867717e-001 2.05689799e-002 4.01914380e-002
      1.03419952e-001 2.95746326e-002 4.66873825e-001 3.05403545e-002
      -1.29703194e-001 -1.49832383e-001 3.61422612e-003 2.18943823e-002
      -1.06369041e-001 2.20655009e-001 1.20900176e-001 -2.31014177e-001
      -2.25045770e-001 9.52354074e-003 9.45689380e-002 1.89719349e-002
      5.98818697e-002 -7.50418529e-002 -8.15836862e-002 -1.20763697e-001
      -6.60248920e-002 -1.61664888e-001 -2.09712148e-001
      -1.13739833e-001 1.10658437e-001 -2.34500811e-001 8.78794789e-002
      7.77017996e-002 5.32784343e-001 8.13611969e-002 1.38343066e-001
      3.11841995e-001 -4.82493229e-002 2.14093491e-001 -1.24453157e-001
      -3.74112390e-002 1.27084702e-001 -8.85793418e-002 -1.09871596e-001
      1.36312857e-001 1.06401354e-001 8.54536667e-002 9.67356637e-002
      3.15172523e-001 -1.34653747e-001 -7.45589808e-002 2.40539595e-001
      3.05582359e-002 -1.37439042e-001 -2.55042195e-001 -2.30368406e-001
      -2.56275594e-001 -6.29811510e-002 -1.02549955e-001 3.39390337e-001
      -1.84617620e-002 -2.48940170e-001 -1.29766569e-001 4.33983177e-001
      -1.20044515e-001 5.17568253e-002 1.07560307e-001 2.55879015e-002
      6.78968206e-002 -2.49908939e-001 -4.70819212e-002 1.42978817e-001
      -6.96665570e-002 -5.52300513e-001 -3.83709431e-001 1.21503890e-001
      -9.21388564e-004 -3.64163488e-001 1.04927368e-001 -4.40009944e-002
      -1.21170908e-001 -1.51941925e-001 6.20901473e-002 2.98220754e-001
      1.64973199e-001 -2.10167855e-001 -9.39232036e-002 -2.79561937e-001
      1.82977319e-002 9.36966017e-002 -1.74107164e-001 -1.00139854e-002
      1.16359793e-001 9.94375050e-002 2.35987246e-001 2.97170728e-001
      2.53868163e-001 9.50199962e-002 -1.97578192e-001 8.11747611e-002
      -1.91683233e-001 2.98762977e-001 -7.05751330e-002 2.67520994e-001
      2.26916019e-002 -3.76629196e-002 4.71747309e-001 8.35496653e-003
      1.99619368e-001 -1.58191621e-001 9.97703820e-002 1.52111515e-001
      -1.57037362e-001 -2.31904294e-002 -2.41920631e-002 6.13714941e-002
      -6.63868427e-001 5.61577618e-001 -2.32708633e-001 -7.03151226e-002
      1.49780750e-001 1.63337961e-001 1.04291923e-002 2.82284439e-001
      8.78005549e-002 9.76575725e-003 -3.41972440e-001 -4.58949544e-002
      -5.42884432e-002 7.79412687e-003 1.51892155e-001 -3.37180257e-001
      -1.96990490e-001 -6.70532212e-002 5.68262534e-003 1.21590137e-001
      -3.59461596e-003 3.18463683e-001 1.09032420e-002 -3.47560346e-001
      -3.85301352e-001 1.49052203e-001 5.09399734e-002 1.17546283e-001
      -1.36584520e-001 3.30519974e-001 1.02778323e-001 2.83990595e-002
      -2.82939315e-001 1.48525268e-001 1.65729269e-001 -7.70130605e-002
      1.74994498e-001 -1.02691002e-001 9.33988169e-002 6.74742833e-002
      -1.60886079e-001 -1.44318447e-001 4.66706278e-003 -2.04662904e-001
      -2.95478720e-002 1.00363009e-001 1.00989118e-001 8.39313120e-002
      1.32142752e-001 -3.74135137e-001 4.94965003e-004 -9.37115476e-002
      1.67562068e-001 1.58176780e-001 -4.61108945e-002 2.35065043e-001
      -1.29315749e-001 1.13205025e-002 -4.40596461e-001 -6.11646250e-002
      -6.08871356e-002 6.74363598e-002 1.05438530e-001 2.49389648e-001
      1.27823070e-001 -3.57547365e-002 4.65821698e-002 1.46381989e-001
      -2.96647787e-001 -6.54511154e-002 -2.67369211e-001 1.96051165e-001
      1.47366777e-001 -1.34562969e-001 2.04863120e-002 2.36799642e-002
      1.07745863e-001 -9.18599144e-002 2.43782282e-001 -1.09449491e-001
      -3.51801932e-001 -1.78583682e-001 6.49896190e-002 1.66408151e-001
      -4.83458154e-002 -6.94610775e-002 -1.41878486e-001 3.15595232e-002
      -2.75216460e-001 5.39175831e-002 1.89777881e-001 1.70885473e-001
      2.83172112e-002 8.34579468e-002 1.58879802e-001 -4.15909402e-002
      8.49836245e-002 2.97627654e-002 -6.90019429e-002 2.96183471e-002
      -1.28488094e-001 6.33439496e-002 2.69233081e-002 6.61702976e-002
      -5.22981361e-002 1.71632990e-001 -1.65833861e-001 -1.51182935e-001
      -6.32770127e-003 -1.12685531e-001 5.54236174e-002 -1.96220651e-002
      4.46874797e-002 -8.97021368e-002 -8.03254023e-002 6.94589540e-002
      3.31305414e-002 3.05646837e-001 1.21556543e-001 2.00462312e-001
      1.45183608e-001 1.37482569e-001 -1.99766681e-001 -1.15814976e-001
      1.43619224e-001 -2.01773584e-001 -5.92610762e-002 2.95728780e-002
      6.79290667e-002 9.30152833e-002 -1.52860373e-001 -2.39407361e-001
      -1.59376770e-001 6.07074946e-002 4.76445369e-002 -3.54570113e-002
      4.16467264e-002 -8.73659104e-002 -2.11560987e-002 4.31516133e-002
      -1.78510249e-001 7.78533611e-003 -7.58471107e-003 -4.83862013e-002
      2.62954593e-001 5.58142960e-002 -2.82579549e-002 -1.23532861e-001
      -3.43707576e-002 -8.20014700e-002 -8.42027813e-002 4.39128801e-002
      -3.21274936e-001 2.73370314e-002 2.44259462e-001 3.54833864e-002
      1.90502003e-001 1.15641892e-001 -1.54204685e-002 -4.44864392e-001
      -2.02042311e-001 2.83671141e-001 4.27601814e-001 -1.39438091e-002
      -9.39307436e-002 -2.72001326e-001 2.81662017e-001 -1.59915015e-001
      1.75038204e-001 -1.89509764e-001 3.51895720e-001 -1.06747292e-001
      3.85472812e-002 -1.12150982e-001 -1.88837737e-001 1.12758428e-002
      -1.99025542e-001 7.06603751e-002 2.30393317e-002 6.70499504e-002
      1.37121424e-001 1.64302155e-001 -2.67597377e-001 9.40518603e-002
      -3.56677286e-002 -4.50823158e-002 -3.31771612e-001 2.01275706e-001
      7.05750585e-002 -4.11935776e-001 -2.12878063e-001 9.60572585e-002
      -5.41631505e-002 1.65005654e-001 9.72279608e-002 -6.41297549e-003
      -1.70669720e-001 -1.23836689e-001 -1.56268552e-002 7.17710778e-002
      -9.02033821e-002 -1.60402339e-002 -4.04516188e-003 5.09423763e-002
      -1.27787679e-001 1.73915967e-001 -7.60505125e-002 2.22049311e-001
      3.84731404e-002 1.49774417e-001 2.50937283e-001 2.43946947e-002
      -1.11818686e-001 1.32373258e-001 8.16228986e-002 1.81198731e-001
      2.82169044e-001 -1.09975353e-001 -5.35235554e-002 1.96031809e-001
      -2.99390275e-002 -1.95696764e-003 -1.09887972e-001
      -2.68992811e-001 1.11682929e-001 5.77585138e-002 -1.47192180e-001
      -7.81957880e-002 1.23435013e-001 1.09064549e-001 -2.07405373e-001
      9.37451497e-002 -2.41300330e-001 -2.29473829e-001 -1.59337193e-001
      1.14509284e-001 1.81455120e-001 1.35936677e-001 -2.92463422e-001
      3.29514176e-001 -8.36230740e-002 -3.90325934e-002 -2.06753179e-001
      -2.67194659e-001 -7.00318143e-002 -4.64306138e-002
      -1.78036809e-001 -5.07974505e-001 -2.16091022e-001
      -1.77907795e-001 -9.91039649e-002 1.37892589e-001 -2.98004776e-001
      -1.72967851e-001 -4.81128460e-003 2.51721233e-001 -4.11688052e-002
      5.67277335e-002 5.69263339e-001 -2.99439251e-001 -3.02605890e-002
      8.39750003e-003 1.62150394e-002 1.32272139e-001 3.11581641e-001
      2.36575410e-001 3.16502303e-001 -5.19188978e-002 4.25322682e-001
      5.61797395e-002 -2.41835296e-001 -1.93903103e-001 1.75787091e-001
      1.12428159e-001 1.23240657e-001 -2.01196969e-001 -2.43950263e-001
      -3.01686320e-002 1.17853016e-001 5.15293740e-002 5.45841902e-002
      -1.42819494e-001 8.60302299e-002 1.09678611e-001 -8.29633977e-003
      2.50682592e-001 1.32155538e-001 1.00395419e-001 -6.22770675e-002
      -3.49410087e-001 3.51451486e-001 -2.62955457e-001 1.19941212e-001
      -3.20034772e-002 2.44519129e-001 2.56455034e-001 2.04581201e-001
      1.69259712e-001 9.25162360e-002 7.84160495e-002 -4.13562089e-001
      -1.47175044e-001 -1.10926293e-001 1.71054557e-001 5.31370603e-002
      -6.25393540e-002 -1.97562471e-001 -6.74962252e-002 6.15300648e-002
      -2.51489013e-001 -3.43754649e-001 -3.52651365e-002 1.98808968e-001
      1.06179312e-001 -8.99566710e-002 -1.45872191e-001 -4.39513564e-001
      -2.89231300e-001 2.24336531e-004 -1.51659429e-001 -8.09533745e-002
      -1.46130681e-001 -5.63865714e-002 1.18652359e-001 2.70876914e-001
      1.80347487e-001 -1.91050544e-001 -8.43838006e-002 1.09525777e-001
      1.68270886e-001 7.14071989e-002 6.92739189e-002 2.82606512e-001
      -2.51383394e-001 4.85476613e-001 4.68963720e-002 -2.05518320e-001
      2.65195429e-001 -9.14076418e-002 4.33697850e-001 1.97823778e-001
      -6.21862076e-002 6.53624535e-002 -1.92411974e-001 -1.62875541e-002
      -1.75259739e-001 -5.38462959e-002 1.93061903e-001 -6.69300854e-002
      1.76525190e-001 -4.50940467e-002 -9.16077122e-002 -5.86762652e-002
      -4.26063016e-002 1.09726368e-002 2.49607936e-001 -2.09070683e-001
      2.14850724e-001 -8.18772416e-004 9.01832804e-002 1.21502526e-001
      -1.95262894e-001 8.85134712e-002 6.55517355e-002 -5.12506329e-002
      -1.20952301e-001 -1.95156515e-001 -2.36529142e-001
      -1.36668026e-001 -6.68657273e-002 1.58040509e-001 1.71437338e-001
      -5.00263348e-002 -1.51492566e-001 -2.16764480e-001
      -3.19385171e-001 -9.43415612e-002 -7.13653713e-002
      -1.70513108e-001 1.27076432e-001 -3.52803133e-002 -3.82987708e-002
      7.70345610e-003 2.93933041e-002 -3.92216556e-002 7.67805800e-002
      -1.15716737e-002 1.08280838e-001 -1.71467379e-001 1.63900807e-001
      6.70998730e-003 -1.51585728e-001 3.71551737e-002 7.99654797e-002
      1.13427602e-001 1.52892023e-001 2.66970396e-001 4.62556407e-002
      8.72290805e-002 1.61111474e-001 1.17110543e-001 1.85659167e-003
      3.43695521e-001 -1.23932369e-001 -1.68068573e-001 -1.61983341e-001
      1.51157215e-001 -3.46041955e-002 2.75534391e-001 -1.73884138e-001
      7.40386322e-002 2.04981089e-001 -3.25336792e-002 -5.97134233e-002
      8.66863579e-002 6.46429211e-002 -1.38400332e-003 -1.37266777e-002
      3.63785058e-001 -4.47576074e-003 -2.32532814e-001 -1.09780200e-001
      -1.86935410e-001 -1.29706427e-001 -1.08856708e-001
      -1.48776367e-001 -3.97502005e-001 -1.35042876e-001 8.09083804e-002
      1.52028129e-001 3.00115883e-001 1.81865782e-001 -4.35005099e-001
      -3.74825895e-001 2.81130895e-002 4.04698141e-002 9.76906121e-002
      7.05022141e-002 -2.53372461e-001 -1.90528721e-001 4.52004969e-002
      -7.58097544e-002 -2.99420714e-001 1.34481102e-001 2.09123388e-001
      -2.49342434e-002 -1.50634795e-001 7.17291236e-002 7.31780306e-002
      2.01477244e-001 2.29053110e-001 1.79356962e-001 1.47136137e-001
      2.15179726e-001 1.18089043e-001 3.86207193e-001 4.28429395e-002
      9.02083069e-002 -7.79533982e-002 -1.05098017e-001 9.66959149e-002
      -2.10342064e-001 -2.02536076e-001 5.49544431e-002 -1.46359503e-001
      -2.21766606e-001 -2.63742298e-001 -1.47335365e-001
      -2.54860856e-002 1.57599851e-001 -2.05162644e-001 -7.04487115e-002
      -2.15838119e-001 1.01860352e-001 1.63068384e-001 -4.49891910e-002
      -2.71164685e-001 9.77832451e-002 -1.08465469e-002 -9.16334335e-003
      -1.01953596e-001 -1.03512779e-001 2.24408641e-001 1.69403732e-001
      -9.92638916e-002 1.20358191e-001 -3.97694437e-003 2.55038649e-001
      1.58991590e-001 -3.25769410e-002 9.56901535e-002 2.61290699e-001
      1.33145884e-001 -1.61976963e-002 1.06218085e-002 1.09837376e-001
      -4.65597473e-002 9.84037519e-002 -2.20224932e-001 -1.57189950e-001
      1.77554548e-001 -1.39969354e-002 1.95356637e-001 -3.53674918e-001
      9.56337601e-002 4.84822094e-002 -2.12462425e-001 -2.53781617e-001
      -1.96498722e-001 9.56779197e-002 2.75569558e-002 6.82371482e-002
      1.39110535e-001 -3.52729768e-001 -4.23507430e-002 3.78818959e-002
      2.58879840e-001 6.10191636e-002 1.35376811e-001 1.32625282e-001
      -1.20406196e-001 2.48900250e-001 -6.64939061e-002 -5.47436714e-001
      4.59790736e-001 -2.95149416e-001 7.36889541e-002 2.90027797e-001
      -5.30702882e-002 2.17910245e-001 1.25439512e-002 1.44432053e-001
      6.43296447e-003 2.14224085e-002 -3.79351437e-001 9.84196737e-002
      4.21083421e-002 -1.82954013e-001 1.93495378e-002 2.44479418e-001
      6.88961446e-002 3.28954495e-002 -1.56258959e-002 1.37814626e-001
      1.20828062e-001 9.62419435e-002 -2.31611773e-001 -1.65173337e-001
      -1.78956836e-001 -1.82746872e-001 3.64417918e-002 7.00398162e-002
      -2.37600952e-001 1.34761214e-001 3.03676605e-001 -4.06666063e-002
      -1.09712435e-002 -1.57412410e-001 2.32494157e-002 -3.52159478e-002
      1.01421155e-001 5.23450933e-002 -1.97346866e-001 6.39527366e-002
      -1.25049472e-001 -1.76314726e-001 -8.09254199e-002 5.45184240e-002
      5.80758750e-002 4.15459834e-002 3.23843986e-001 -3.81931335e-001
      8.64526853e-002 3.98900285e-002 5.90018965e-002 3.39062572e-001
      1.05376393e-001 -1.32090211e-001 -2.92334616e-001 1.51945338e-001
      -3.29467729e-002 3.82696569e-001 -1.35629252e-001 1.07726648e-001
      -1.12768188e-001 6.80906847e-002 5.78365698e-002 5.94712868e-002
      -3.44987869e-001 -9.37440060e-003 -6.02258518e-002
      -1.85680464e-001 2.53208280e-001 1.90447584e-001 3.28702070e-002
      -3.08495373e-001 -3.21140438e-001 4.50241081e-002 1.33908212e-001
      5.91809340e-002 2.24909067e-001 -5.87815233e-002 -2.47695699e-001
      -2.16255650e-001 -8.66027027e-002 -6.40973970e-002 6.54017646e-003
      2.96622645e-002 -4.55021784e-002 -1.63295623e-002 1.93384081e-001
      7.95333982e-002 -6.97458759e-002 -1.04974486e-001 6.98369220e-002
      -2.24917009e-001 4.51247059e-002 -1.16761200e-001 4.60635461e-002
      1.20325238e-001 -5.56408952e-004 -4.29321863e-002 -1.14221357e-001
      8.28175843e-002 1.72366634e-001 -3.23711988e-003 -5.26100546e-002
      1.89290032e-001 1.15470015e-001 -2.62426287e-002 -1.21447556e-001
      1.39696419e-001 3.39126319e-001 -1.76674962e-001 6.23771697e-002
      8.38053450e-002 2.55053062e-002 9.02468711e-002 -2.38654882e-001
      7.40669575e-003 1.84589356e-001 -1.08523458e-001 6.01000898e-002
      2.37725191e-002 6.26751259e-002 1.08544923e-001 -2.61891931e-001
      -4.43131477e-002 9.68187749e-002 -1.91752627e-001 8.74712691e-002
      1.70616150e-001 -1.59961268e-001 -2.08898470e-001 -1.69598851e-002
      -1.37517080e-001 1.40988007e-001 1.38325766e-001 -1.90160275e-001
      -8.83586407e-002 -9.47536901e-002 -1.70751944e-001
      -2.11364359e-001 -8.89065415e-002 -2.24960133e-001
      -1.51328474e-001 9.97820720e-002 -2.91169554e-001 -4.57224064e-002
      6.26070872e-002 1.67039633e-001 1.02616437e-001 3.49256173e-002
      1.57966390e-001 -5.72859421e-002 -1.27787590e-001 7.74355978e-002
      2.11926684e-001 1.15990147e-001 9.46328714e-002 -2.30745435e-001
      1.53383687e-001 -6.27092943e-002 3.37924421e-001 2.64905572e-001
      9.85228494e-002 7.29119256e-002 9.15152729e-002 1.97722614e-001
      -4.02162299e-002 -8.95603094e-003 -2.19748192e-003
      -8.62486195e-003 1.41461164e-001 -1.64723158e-001 -6.35904819e-002
      -1.10448427e-001 6.54782206e-002 -2.54939765e-001 5.78858592e-002
      -5.19012362e-002 2.96527922e-001 1.46929801e-001 -5.17651625e-002
      2.49061465e-001 -1.37390988e-003 -8.84645283e-002 -1.06057726e-001
      -1.09511010e-001 1.44700967e-002 2.92566745e-003 -2.14252576e-001
      -1.45282671e-001 2.25750711e-002 -7.90078044e-002 1.23871349e-001
      -2.65785456e-001 -3.33555639e-001 3.74967954e-003 5.73404618e-002
      2.46528490e-003 -9.02161747e-002 4.97619063e-002 -2.23902255e-001
      -7.30609968e-002 -5.31864390e-002 -2.97353175e-002 1.51213557e-001
      4.36281972e-002 3.57715011e-001 5.21329865e-002 1.82977572e-001
      1.13604786e-002 1.70709640e-001 -1.97209030e-001 -1.59261674e-001
      6.19427562e-002 1.04983270e-001 -1.48854300e-001 7.39791393e-002
      3.00614446e-001 1.79277614e-001 8.22081715e-002 1.54634863e-001
      -2.26760402e-001 -1.15240796e-003 4.21034545e-002 6.52106628e-002
      -3.50675196e-003 2.09908020e-002 1.28770202e-001 -6.55131862e-002
      -2.19338298e-001 2.84370273e-001 -3.68271440e-001 -7.51071274e-002
      1.47594318e-001 -1.52758092e-001 2.71204203e-001 4.78412434e-002
      -2.01680586e-002 2.16763169e-002 -3.62197906e-002 -1.67307213e-001
      1.96056366e-001 1.10531539e-001 9.91626531e-002 -5.66960173e-003
      -5.80779091e-002 1.43111106e-002 2.28454739e-001 -4.48673442e-002
      7.82807078e-003 6.31176904e-002 -1.47261098e-001 3.33385207e-002
      -1.17361568e-001 -2.21819896e-002 4.46778089e-002 -7.39608556e-002
      9.60376337e-002 8.57975483e-002 5.77254817e-002 -3.71110320e-001
      -2.46484891e-001 -1.88581586e-001 -2.19356850e-001
      -4.57660295e-002 -2.06840798e-001 -1.26790896e-001
      -6.75252527e-002 -1.08693764e-001 -1.80864073e-002 1.78330079e-001
      -1.57639772e-001 -2.55131740e-002 -7.11612925e-002 2.38205284e-001
      -2.92309701e-001 -1.01806216e-001 -2.03288734e-001 1.81012601e-001
      3.61938238e-001 2.55327672e-001 2.79653907e-001 9.20072757e-003
      1.42554358e-001 1.29812866e-001 1.94219708e-001 -6.11395352e-002
      -6.76447600e-002 9.37246978e-002 -8.86549279e-002 7.21774995e-003
      1.84631154e-001 -1.69774368e-001 1.72469486e-003 2.51356840e-001
      1.69202555e-002 1.33195505e-001 1.12130800e-002 4.53513972e-002
      1.36531770e-001 1.42571494e-001 4.10853595e-001 1.39320537e-001
      9.39540714e-002 1.90619156e-001 1.42936558e-002 8.59231278e-002
      1.15898475e-001 -2.35702217e-001 4.07672040e-002 -1.53897956e-001
      -4.68727238e-002 -2.90204912e-001 6.71653170e-003 5.14824055e-002
      -2.46436760e-001 -7.88076967e-002 -1.36231184e-001
      -6.81516901e-002 -1.94293872e-001 4.49554026e-002 -1.80990413e-001
      -2.47804642e-001 -8.44503418e-002 6.72569275e-002 5.50440932e-003
      1.05888121e-001 1.36587083e-001 -3.58016416e-002 -9.49760750e-002
      2.11294636e-001 -8.44772384e-002 1.21882699e-001 -6.55574203e-002
      -3.19156237e-002 -6.43409044e-002 1.57127067e-001 -5.68476059e-002
      5.03255241e-002 3.14070322e-002 -1.58593819e-001 3.70999277e-002
      1.82080138e-002 -1.66777760e-001 -6.91871047e-002 -1.99545145e-001
      1.75376743e-001 -8.18172768e-002</_></support_vectors>
  <decision_functions>
    <_>
      <sv_count>1</sv_count>
      <rho>-5.0801024792107741e-001</rho>
      <alpha>
        1.</alpha></_></decision_functions></opencv_ml_svm>
</opencv_storage>
